{"0.weight": [[[[0.07697141915559769, 0.045062895864248276, 0.02771923691034317, 0.002579821040853858, -0.021369965746998787], [0.1296786665916443, 0.32757458090782166, 0.3321536183357239, 0.25363704562187195, 0.042134467512369156], [0.33532264828681946, 0.2661638557910919, 0.36242222785949707, 0.33860379457473755, 0.28026339411735535], [0.11243902891874313, 0.25854045152664185, 0.28097593784332275, 0.2607680559158325, 0.1828141212463379], [0.010042281821370125, -0.010741216130554676, 0.08131364732980728, -0.0031173131428658962, -0.003986706957221031]], [[0.015113926492631435, 0.021196145564317703, -0.038078904151916504, 0.03027816116809845, 0.08388904482126236], [0.103274866938591, 0.23577889800071716, 0.29860273003578186, 0.37244924902915955, 0.23697462677955627], [0.1433248221874237, 0.2609389126300812, 0.22720853984355927, 0.30842360854148865, 0.03129853680729866], [0.10181924700737, 0.24685437977313995, 0.20168350636959076, 0.16165310144424438, 0.040864553302526474], [0.003912532702088356, 0.050897516310214996, 0.07019328325986862, 0.06958985328674316, 0.02483781799674034]]], [[[-0.024575980380177498, 0.1410111039876938, 0.22713603079319, 0.20224541425704956, 0.09216498583555222], [0.06839749217033386, 0.21972735226154327, 0.06654105335474014, 0.37301602959632874, 0.2665165662765503], [-0.0036925028543919325, 0.010141034610569477, 0.11683621257543564, 0.07373961806297302, 0.249149352312088], [-0.06417693942785263, 0.06389597058296204, 0.32887688279151917, 0.11104703694581985, 0.05195645987987518], [-0.0770123302936554, 0.05030009523034096, 0.12236374616622925, 0.12117760628461838, 0.11781570315361023]], [[0.07078489661216736, -0.01703965850174427, 0.15501950681209564, 0.07840634882450104, 0.25604987144470215], [-0.14250589907169342, 0.027825724333524704, -0.040296703577041626, 0.2375333309173584, -0.001237791497260332], [0.05389966070652008, 0.20094946026802063, 0.4478505551815033, 0.017566829919815063, 0.2726322412490845], [0.20378422737121582, -0.033311955630779266, 0.012316497974097729, 0.11147177964448929, 0.25442761182785034], [-0.11215972155332565, 0.14668545126914978, 0.29028674960136414, 0.28550443053245544, 0.04054254665970802]]], [[[-0.12623412907123566, -0.18391455709934235, -0.16114482283592224, -0.08404873311519623, -0.027027415111660957], [-0.12827825546264648, -0.19981157779693604, -0.2355295717716217, -0.11744587868452072, -0.10068212449550629], [-0.4861651062965393, -0.14116708934307098, -0.209463432431221, -0.19045306742191315, -0.10978718847036362], [-0.36724361777305603, -0.16147591173648834, -0.24014846980571747, -0.31869301199913025, -0.052234429866075516], [-0.26832449436187744, -0.37502533197402954, -0.1296679526567459, -0.07308617979288101, -0.050676748156547546]], [[0.08016306161880493, -0.031921204179525375, -0.19460608065128326, -0.18474408984184265, -0.12791676819324493], [-0.128231942653656, 0.021858809515833855, -0.10345615446567535, -0.32388487458229065, -0.2388269305229187], [-0.03340200334787369, 0.0611698217689991, -0.08060906827449799, -0.3775247633457184, -0.19209404289722443], [-0.30090442299842834, 0.09109468013048172, 0.02093253657221794, -0.31977587938308716, -0.150348499417305], [-0.28389298915863037, -0.014086741954088211, -0.1136569231748581, -0.21985164284706116, -0.06586777418851852]]], [[[0.18681982159614563, -0.000932917115278542, 0.1775703877210617, -0.02074308693408966, 0.0366102010011673], [0.2899419665336609, 0.18499797582626343, 0.2642436921596527, 0.2679259777069092, 0.03078056313097477], [0.10661886632442474, 0.3171776533126831, 0.33655595779418945, 0.3149455189704895, 0.1760403960943222], [0.06728368252515793, 0.04258992522954941, 0.2784900963306427, 0.31691956520080566, 0.18252848088741302], [0.008833542466163635, 0.05021852254867554, 0.13363851606845856, 0.22666484117507935, 0.09761381149291992]], [[0.10481198877096176, 0.20528100430965424, 0.18293142318725586, 0.1444960981607437, 0.1441013216972351], [0.016716191545128822, 0.2973095774650574, 0.26472368836402893, 0.09764974564313889, 0.1523740291595459], [0.16391074657440186, 0.3313533663749695, 0.3034529983997345, 0.17541824281215668, 0.23552732169628143], [0.17204421758651733, 0.37051448225975037, 0.15207231044769287, 0.05049342289566994, 0.14801566302776337], [0.05563568323850632, 0.3051610291004181, 0.19351299107074738, -0.06662549823522568, 0.00783166941255331]]], [[[0.03799434006214142, 0.1755945235490799, 0.26152944564819336, 0.19308938086032867, -0.07216191291809082], [0.09142043441534042, 0.2024325281381607, 0.3393324911594391, 0.31646105647087097, 0.176984503865242], [0.21299605071544647, 0.31555846333503723, 0.406984806060791, 0.3599637448787689, 0.29053187370300293], [0.23772557079792023, 0.351990669965744, 0.3253001868724823, 0.34573227167129517, 0.30827823281288147], [0.05157195031642914, 0.11359400302171707, 0.14712651073932648, 0.15436166524887085, 0.21993136405944824]], [[0.0011393205495551229, 0.01730036921799183, 0.019411170855164528, 0.09811323881149292, 0.23275794088840485], [0.03299066796898842, 0.23512285947799683, 0.07155022025108337, 0.3033519983291626, 0.2775895893573761], [0.08796419948339462, 0.3254147469997406, 0.1856192946434021, 0.3452532887458801, 0.2594558894634247], [0.1638995260000229, 0.22565267980098724, 0.284354031085968, 0.2902642786502838, 0.15183694660663605], [0.12158092111349106, 0.30684739351272583, 0.31143513321876526, 0.17840871214866638, 0.1400277465581894]]], [[[-0.1228591799736023, 0.07638190686702728, 0.12823189795017242, -0.13167110085487366, 0.12804202735424042], [0.21817328035831451, 0.14674131572246552, 0.23145589232444763, 0.25538572669029236, -0.03530523553490639], [0.0640665590763092, 0.30873048305511475, 0.3994421660900116, 0.24685664474964142, 0.1276441067457199], [-0.07834113389253616, 0.21314089000225067, 0.30200397968292236, 0.3448668420314789, 0.2540266215801239], [-0.040051642805337906, 0.1744682341814041, -0.06871995329856873, 0.1570044904947281, 0.0615861602127552]], [[-0.020196635276079178, -0.12646867334842682, 0.15774399042129517, -0.11865819245576859, 0.2206045687198639], [-0.19266410171985626, 0.08957964181900024, 0.31537753343582153, 0.0493340902030468, 0.1745481640100479], [0.10787208378314972, 0.1424904763698578, 0.1649605929851532, 0.21922874450683594, 0.25163257122039795], [0.21346551179885864, 0.045109428465366364, 0.05333007499575615, 0.06877507269382477, 0.013176695443689823], [-0.07844339311122894, -0.0014169696951285005, 0.3060415983200073, -0.037054792046546936, 0.18679001927375793]]], [[[-0.03072073683142662, -0.11514110863208771, 0.0015277571510523558, -0.12962296605110168, -0.07826869189739227], [-0.08548734337091446, -0.004371945746243, -0.06627877801656723, -0.04380891099572182, 0.019324541091918945], [0.03236200287938118, -0.07225865125656128, -0.07337263226509094, -0.11771418899297714, 0.08148735761642456], [-0.12837189435958862, -0.30641254782676697, 0.05779861658811569, 0.10831817984580994, -0.09315534681081772], [-0.18159997463226318, -0.22718843817710876, -0.012001119554042816, -0.1416722983121872, -0.03683256730437279]], [[-0.18826079368591309, -0.07245320826768875, -0.04848666489124298, -0.08228946477174759, -0.0674874559044838], [-0.12077022343873978, -0.11896553635597229, 0.029526902362704277, -0.09889336675405502, -0.11959889531135559], [-0.003950941376388073, -0.24785096943378448, 0.04644821211695671, -0.24987909197807312, -0.2683272063732147], [-0.12001432478427887, -0.23602502048015594, 0.007567249704152346, -0.14380939304828644, -0.280292809009552], [-0.2019006758928299, -0.0734436959028244, -0.1857474148273468, -0.2382894903421402, -0.12764480710029602]]], [[[-0.14826029539108276, 0.08204323798418045, -0.13522738218307495, 0.1175256073474884, -0.13035140931606293], [-0.21279196441173553, -0.2553674280643463, -0.23050616681575775, -0.05942408740520477, -0.1876075118780136], [-0.005217389203608036, -0.07811500877141953, -0.29673629999160767, 0.04490583762526512, -0.14478309452533722], [-0.2471395879983902, -0.10834097862243652, 0.1081811785697937, -0.1391689032316208, -0.015975521877408028], [0.09975220263004303, -0.029302455484867096, 0.054935432970523834, -0.24168463051319122, -0.14902575314044952]], [[-0.12444986402988434, -0.1852262169122696, -0.1325797736644745, -0.020387830212712288, -0.10219734907150269], [0.04557253420352936, -0.04189152643084526, 0.12070915102958679, -0.07291959226131439, 0.12405117601156235], [-0.021309716627001762, -0.22977885603904724, 0.04925833269953728, -0.2226189374923706, 0.05299200490117073], [0.0406792126595974, 0.1417888104915619, -0.3092329502105713, -0.24364303052425385, -0.18919283151626587], [-0.08636154979467392, -0.295536607503891, 0.06038721278309822, 0.04941900074481964, -0.1731288880109787]]], [[[0.023652130737900734, -0.10469730943441391, -0.0744996964931488, -0.1117783784866333, -0.14311042428016663], [0.06378898024559021, 0.1517108827829361, 0.011015618219971657, 0.10137742757797241, -0.002138624433428049], [0.01338333822786808, 0.14497128129005432, 0.14664842188358307, -0.20815984904766083, -0.07961302250623703], [-0.03033991903066635, 0.03200395405292511, 0.2572040855884552, 0.21158301830291748, -0.0362449549138546], [-0.0672670230269432, -0.005832537077367306, 0.013546756468713284, 0.25955307483673096, 0.15836571156978607]], [[-0.07487954944372177, 0.08462953567504883, 0.21594129502773285, 0.33335018157958984, -0.044685740023851395], [0.0167625043541193, 0.06674432009458542, -0.0839461162686348, 0.18631696701049805, 0.18190902471542358], [-0.0725707858800888, -0.022293925285339355, 0.17525972425937653, 0.13887155055999756, 0.2802075445652008], [-0.07091586291790009, -0.20296935737133026, -0.1515970677137375, -0.03730021417140961, -0.08324860781431198], [-0.0865301713347435, 0.006661916151642799, -0.10977457463741302, -0.12449368834495544, 0.065242238342762]]], [[[0.24792398512363434, -0.0006794029613956809, 0.1095961332321167, -0.019112946465611458, -0.012323581613600254], [0.09156496822834015, 0.1857871562242508, 0.1957431584596634, 0.1370444893836975, 0.08952342718839645], [0.3185517191886902, 0.12462703883647919, -0.012018084526062012, 0.010050305165350437, 0.02280488796532154], [0.00030699826311320066, -0.04708738252520561, -0.09211060404777527, -0.052477214485406876, 0.025701584294438362], [-0.023276491090655327, 0.04079805687069893, -0.029894035309553146, -0.22389774024486542, -0.2306736558675766]], [[0.045411307364702225, 0.3584553897380829, 0.3744637072086334, 0.28029128909111023, -0.006610361859202385], [0.17195166647434235, 0.28520262241363525, 0.19499875605106354, 0.043624330312013626, -0.11305969208478928], [0.32335415482521057, 0.19502633810043335, -0.09718947112560272, -0.05263853818178177, 0.0663365051150322], [0.06947670131921768, -0.02551395818591118, -0.0016237176023423672, -0.13305407762527466, -0.06571467220783234], [-0.019540993496775627, -0.02464243210852146, -0.20956702530384064, -0.14566324651241302, -0.01155212800949812]]], [[[0.11521276086568832, 0.01792845129966736, 0.056885890662670135, -0.08427736163139343, -0.09627215564250946], [0.05886312946677208, 0.06190696358680725, 0.08323828130960464, 0.30221304297447205, 0.15672968327999115], [0.1750357747077942, 0.29448413848876953, 0.16690172255039215, 0.20130065083503723, 0.3099898099899292], [-0.061859071254730225, 0.028269296512007713, 0.08308988809585571, 0.18003585934638977, 0.3045913577079773], [0.14661724865436554, 0.28097644448280334, 0.09376704692840576, 0.09210819005966187, 0.21177667379379272]], [[0.0028165571857243776, -0.015509149059653282, -0.08505893498659134, 0.16571025550365448, -0.08981221914291382], [-0.10737888514995575, -0.12888336181640625, 0.15359365940093994, -0.008455685339868069, 0.045972518622875214], [0.1449076384305954, 0.2481754869222641, 0.1807624101638794, 0.32551705837249756, -0.09332554787397385], [0.24466823041439056, 0.41694745421409607, 0.3935125470161438, 0.16999074816703796, 0.2594044804573059], [-0.04628298431634903, 0.16318154335021973, 0.2887638807296753, 0.2069387286901474, 0.16644339263439178]]], [[[-0.44833964109420776, -0.34075021743774414, -0.3074758052825928, -0.3000161051750183, -0.4203850030899048], [-0.4793846011161804, -0.3415868580341339, -0.35361918807029724, -0.3151160776615143, -0.3324972987174988], [-0.1772630363702774, -0.3365490138530731, -0.3058527708053589, -0.30223605036735535, -0.23374930024147034], [-0.3099558353424072, -0.349249005317688, -0.3761632740497589, -0.39194464683532715, -0.16424676775932312], [-0.1427673101425171, -0.18079429864883423, -0.27516400814056396, -0.2886640429496765, -0.10639755427837372]], [[-0.16506411135196686, -0.4047131836414337, -0.41573572158813477, -0.2602473795413971, -0.34040582180023193], [-0.13794708251953125, -0.3281683325767517, -0.34367984533309937, -0.17839351296424866, -0.19514523446559906], [-0.1849188506603241, -0.22240670025348663, -0.2697080373764038, -0.26090237498283386, -0.30354392528533936], [-0.04160977900028229, -0.2488599270582199, -0.20220014452934265, -0.23152118921279907, -0.10893873125314713], [-0.11328541487455368, -0.15268811583518982, -0.2337987720966339, -0.2605997323989868, -0.10841510444879532]]]], "0.bias": [0.3382967710494995, 0.5737120509147644, -0.5818254351615906, 0.22530844807624817, 0.15631136298179626, 0.47593119740486145, -0.04987606778740883, 0.09970710426568985, -0.017412323504686356, 0.0726177915930748, 0.526577353477478, 0.16043539345264435], "3.weight": [[[[-0.15568484365940094, -0.02256334200501442, -0.08290181308984756, -0.04836360365152359, -0.12186636030673981], [-0.2763148546218872, -0.2629101574420929, -0.03805708885192871, -0.09030018001794815, -0.20793157815933228], [-0.32883456349372864, -0.11322946101427078, -0.05353660136461258, -0.03437378257513046, -0.12466903030872345], [-0.3038029968738556, -0.20012007653713226, -0.09954595565795898, -0.04840175434947014, -0.24574488401412964], [-0.24889332056045532, -0.2232946753501892, -0.12005828320980072, -0.17218314111232758, -0.19325216114521027]], [[-0.32309287786483765, -0.1548646241426468, -0.07572659105062485, -0.1355714350938797, -0.12639063596725464], [-0.38089025020599365, -0.24887853860855103, -0.15304355323314667, -0.11291119456291199, -0.08517447859048843], [-0.3888620138168335, -0.3184971511363983, -0.17026086151599884, -0.12899841368198395, -0.14936335384845734], [-0.4602084159851074, -0.3384012281894684, -0.1732501983642578, -0.15262213349342346, -0.17080353200435638], [-0.3939400315284729, -0.3063046634197235, -0.17669923603534698, -0.17872180044651031, -0.2766338884830475]], [[-0.0027743615210056305, 0.022196635603904724, -0.02786266803741455, -0.03837471082806587, 0.007865190505981445], [0.010071873664855957, -0.052498504519462585, -0.00017898157238960266, -0.02259213849902153, 0.00412416085600853], [0.008148081600666046, -0.005979195237159729, 0.04682512581348419, 0.02504590153694153, 0.016894489526748657], [0.0014907270669937134, -0.021351981908082962, -0.04041874036192894, 0.05208466202020645, 0.026823818683624268], [-0.003935828804969788, -0.05014106631278992, -0.02063412219285965, 0.023182794451713562, -0.04935788735747337]], [[-0.1703651398420334, -0.10177449882030487, 0.05282501131296158, -0.04201516509056091, -0.13180837035179138], [-0.21385698020458221, -0.10280188173055649, -0.06957997381687164, -0.025612352415919304, -0.046956926584243774], [-0.23808373510837555, -0.09905149042606354, -0.1223362535238266, -0.11439330130815506, -0.08916481584310532], [-0.2887272238731384, -0.18945355713367462, -0.1569630652666092, -0.0728045105934143, -0.06857489794492722], [-0.27978309988975525, -0.23661993443965912, -0.1345168650150299, -0.09979954361915588, -0.15984009206295013]], [[-0.283175528049469, 0.012711947783827782, -0.017020808532834053, 0.0398070365190506, -0.12378820776939392], [-0.27298322319984436, -0.15214046835899353, -0.1108989417552948, -0.006616335362195969, -0.16005632281303406], [-0.30713924765586853, -0.11463534832000732, -0.05918542668223381, -0.042900051921606064, -0.162013441324234], [-0.23190000653266907, -0.16963821649551392, -0.07466786354780197, -0.1364983171224594, -0.15455584228038788], [-0.233911395072937, -0.19204650819301605, -0.049260132014751434, -0.09315221756696701, -0.15263241529464722]], [[-0.1019442230463028, -0.08416027575731277, -0.039149653166532516, -0.06567440181970596, -0.012396994046866894], [-0.3179720342159271, -0.1261390894651413, -0.022317757830023766, -0.011823098175227642, -0.130051851272583], [-0.3255217969417572, -0.1374824047088623, -0.07030919939279556, -0.06750638782978058, -0.13274449110031128], [-0.30534863471984863, -0.14764682948589325, -0.09689890593290329, -0.06455479562282562, -0.16050994396209717], [-0.30629491806030273, -0.213229238986969, -0.11516600102186203, -0.11229246854782104, -0.11713866889476776]], [[0.03123634308576584, -0.041649505496025085, 0.031764037907123566, -0.05155207961797714, -0.019456207752227783], [-0.02925902046263218, -0.029198557138442993, 0.026891134679317474, 0.020314350724220276, -0.04316799342632294], [0.015155084431171417, -0.006058972328901291, 0.026674769818782806, 0.0037407763302326202, 0.02256038784980774], [-0.03301151841878891, -0.0565478689968586, -0.007627952843904495, -0.0477919764816761, -0.010461490601301193], [-0.030628152191638947, -0.041650641709566116, 0.010047592222690582, 0.04870633780956268, 0.05244142562150955]], [[-0.09872732311487198, -0.1688506305217743, 0.027244359254837036, 0.23496316373348236, 0.2361823320388794], [-0.19943799078464508, -0.20732370018959045, 0.11050913482904434, 0.017751503735780716, 0.136826291680336], [-0.20526859164237976, -0.1691664159297943, 0.03698796406388283, 0.1031959280371666, 0.07316499203443527], [-0.284274697303772, -0.2340651899576187, -0.15419061481952667, 0.10313145816326141, 0.023843880742788315], [-0.21606577932834625, -0.24288660287857056, -0.06151589751243591, -0.287083238363266, -0.1829434335231781]], [[-0.11930602043867111, -0.053198203444480896, -0.07430610805749893, -0.08778464794158936, -0.1994968056678772], [-0.2149859070777893, -0.12096723914146423, -0.031760457903146744, -0.0917167067527771, -0.18659760057926178], [-0.1799735575914383, -0.11381924897432327, -0.047733236104249954, -0.07896055281162262, -0.19521650671958923], [-0.053861670196056366, -0.1083095371723175, -0.09483202546834946, -0.11179158091545105, -0.1365375816822052], [-0.12430404871702194, -0.11806038022041321, -0.09278034418821335, -0.08897945284843445, -0.1044391542673111]], [[-0.18505191802978516, -0.16323009133338928, -0.12769977748394012, 0.06531670689582825, 0.09198179095983505], [-0.320028692483902, -0.17570070922374725, 0.015945730730891228, 0.07088590413331985, 0.17633531987667084], [-0.24916912615299225, -0.24952182173728943, -0.05701189860701561, 0.07220084220170975, 0.16508762538433075], [-0.23081040382385254, -0.25183454155921936, -0.2862500250339508, 0.028822459280490875, 0.11148600280284882], [-0.27759090065956116, -0.23456308245658875, -0.1844884157180786, -0.07920729368925095, -0.05562197417020798]], [[-0.12921908497810364, -0.16434955596923828, -0.010996139608323574, -0.05093042925000191, -0.05295957997441292], [-0.3899357318878174, -0.208984375, -0.07738099247217178, -0.037517696619033813, 0.01764352060854435], [-0.40467369556427, -0.21767190098762512, -0.1565922498703003, -0.03407461941242218, -0.04944557696580887], [-0.3884017765522003, -0.2578859329223633, -0.1653372347354889, -0.12513519823551178, -0.07047665864229202], [-0.3357184827327728, -0.2176559567451477, -0.16750980913639069, -0.07282157987356186, -0.21382178366184235]], [[0.028439179062843323, 0.04965924471616745, 0.024478018283843994, -0.03164102882146835, -0.006062902510166168], [0.010506577789783478, 0.05683267116546631, -0.05716436728835106, 0.01212882250547409, 0.034587375819683075], [-0.015252891927957535, 0.030790068209171295, 0.05447148531675339, 0.036274462938308716, -0.03180795907974243], [0.030944012105464935, 0.0398189052939415, 0.02109883725643158, 0.041085146367549896, 0.023384176194667816], [0.034939661622047424, 0.03527273237705231, -0.0050963833928108215, 0.011658407747745514, -0.029776835814118385]]], [[[-0.13480477035045624, -0.20581354200839996, -0.2896606922149658, -0.27329835295677185, -0.20075742900371552], [-0.002994112204760313, 0.03771642595529556, -0.21318939328193665, -0.2552167773246765, -0.36727771162986755], [-0.13576515018939972, -0.09102977067232132, -0.15989035367965698, -0.2168804109096527, -0.24844977259635925], [-0.35240939259529114, -0.1796872615814209, -0.26070356369018555, -0.40559688210487366, -0.3891746997833252], [-0.21195243299007416, -0.2786998450756073, -0.23627039790153503, -0.12225687503814697, -0.19244928658008575]], [[-0.12383227795362473, -0.22446878254413605, -0.3218623399734497, -0.5320566892623901, -0.592738687992096], [-0.035151656717061996, -0.041746143251657486, -0.34973829984664917, -0.6011424660682678, -0.7555668950080872], [-0.17590676248073578, -0.15082861483097076, -0.2444601207971573, -0.4568910598754883, -0.6173062920570374], [-0.17407579720020294, -0.21730509400367737, -0.29358744621276855, -0.5089491605758667, -0.5059728026390076], [-0.165919229388237, -0.1441112458705902, -0.21242108941078186, -0.3383726477622986, -0.3126855492591858]], [[0.03154616057872772, 0.013311527669429779, -0.055579908192157745, 0.038416020572185516, -0.006483234465122223], [0.00968007743358612, 0.012025579810142517, -0.03662797436118126, -0.02829814702272415, -0.022403821349143982], [-0.024708475917577744, 0.013902246952056885, 0.01384485512971878, 0.04808713495731354, 0.023838050663471222], [-0.03346202149987221, -0.017759639769792557, 0.03678007423877716, -0.005002018064260483, 0.050235994160175323], [-0.04968440905213356, 0.006521172821521759, 0.04096881300210953, 0.04793946444988251, 0.04671190679073334]], [[-0.31950855255126953, -0.03406078740954399, -0.09760194271802902, -0.09047160297632217, -0.21480420231819153], [0.019255543127655983, 0.18165883421897888, 0.05107982084155083, -0.21837781369686127, -0.20471812784671783], [-0.09763477742671967, 0.07630009949207306, -0.013175836764276028, -0.07001249492168427, -0.15089014172554016], [-0.31194865703582764, -0.0007026248495094478, -0.22633381187915802, -0.2625160813331604, -0.38879725337028503], [-0.3396298289299011, -0.13910512626171112, -0.23825572431087494, -0.19206836819648743, -0.2662942707538605]], [[-0.06670837104320526, -0.09163875877857208, -0.15648889541625977, -0.3076860308647156, -0.27885645627975464], [0.10115715116262436, 0.039769064635038376, -0.09770828485488892, -0.23507900536060333, -0.40850937366485596], [-0.023688694462180138, -0.042421601712703705, -0.18555675446987152, -0.14455483853816986, -0.3764071762561798], [-0.0868060290813446, 0.04185694828629494, -0.23017732799053192, -0.15887051820755005, -0.44724777340888977], [-0.1997385174036026, -0.12560348212718964, -0.16438256204128265, -0.10885775089263916, -0.2577655017375946]], [[-0.01604708656668663, -0.05702785402536392, -0.1107969656586647, -0.2850997745990753, -0.2847256660461426], [0.011457446962594986, 0.03973087668418884, -0.32943597435951233, -0.26709437370300293, -0.5118639469146729], [-0.11504166573286057, -0.14221812784671783, -0.09238559752702713, -0.46428295969963074, -0.44173720479011536], [-0.11180855333805084, 0.01706385612487793, -0.20460504293441772, -0.294586181640625, -0.324016809463501], [-0.2966437041759491, -0.08687994629144669, -0.08354350179433823, -0.21316060423851013, -0.21806208789348602]], [[0.005142912268638611, 0.03402493894100189, -0.05659879744052887, -0.041368938982486725, -0.027323110029101372], [-0.04370608180761337, 0.01496952772140503, -0.032579921185970306, -0.055967435240745544, -0.00014756247401237488], [0.03592221438884735, -0.01803721860051155, -0.001041419804096222, -0.04297062009572983, 0.020325452089309692], [-0.00834684818983078, -0.021680306643247604, -0.040104757994413376, -0.04005233943462372, -0.057157400995492935], [-0.04028569161891937, -0.03946855664253235, -0.0028715096414089203, 0.006743155419826508, 0.032244086265563965]], [[0.01691979356110096, 0.1721538007259369, 0.19116546213626862, 0.05691520869731903, -0.11942051351070404], [0.031726326793432236, 0.07083624601364136, 0.026552751660346985, 0.0030965995974838734, -0.23441526293754578], [0.047146156430244446, 0.09264381229877472, 0.0752314105629921, -0.02447524666786194, -0.013632266782224178], [0.179465189576149, 0.06769895553588867, 0.00408007949590683, -0.06632744520902634, -0.08038779348134995], [-0.008688362315297127, 0.18862952291965485, 0.04899781569838524, 0.10468176007270813, -0.2176644206047058]], [[0.03948606178164482, 0.014611097052693367, 0.012378969229757786, -0.10173502564430237, -0.23709513247013092], [0.04046744108200073, 0.04251839220523834, -0.06073665991425514, -0.13372886180877686, -0.09032108634710312], [0.08676847815513611, 0.05270180106163025, -0.06937412172555923, -0.04964632913470268, -0.12238817662000656], [-0.03413649648427963, -0.01802300289273262, 0.03983857110142708, -0.03881973400712013, -0.14915989339351654], [-0.020730774849653244, 0.015537013299763203, -0.11194596439599991, -0.11475448310375214, -0.08542997390031815]], [[0.021091297268867493, -0.026643509045243263, 0.14018523693084717, 0.053685784339904785, -0.005580300930887461], [-0.09671968966722488, 0.006395374424755573, 0.12665395438671112, 0.10213614255189896, -0.051168374717235565], [-0.01491548866033554, 0.029487600550055504, 0.17699496448040009, 0.017536001279950142, 0.03757823631167412], [0.001074471278116107, 0.0172957144677639, 0.10637420415878296, 0.05646497756242752, 0.0015840973937883973], [-0.09221772104501724, -0.002990491222590208, 0.0028357140254229307, -0.021082744002342224, -0.04016882926225662]], [[-0.14198747277259827, 0.02136884070932865, -0.1591659039258957, -0.37068745493888855, -0.4406200647354126], [-0.11196527630090714, 0.027334431186318398, -0.15090195834636688, -0.27788037061691284, -0.42585381865501404], [-0.013589576818048954, -0.042595382779836655, -0.056784167885780334, -0.18246859312057495, -0.45054811239242554], [-0.12184404581785202, -0.12783728539943695, -0.23994754254817963, -0.24079395830631256, -0.44285494089126587], [-0.09786397963762283, -0.17912669479846954, -0.1041560024023056, -0.1687527298927307, -0.2136031687259674]], [[-0.025435026735067368, -0.022841129451990128, 0.04656217247247696, 0.04577736556529999, -0.04965246096253395], [-0.02362343668937683, 0.033200234174728394, 0.03962042182683945, -0.035147834569215775, -0.05041826143860817], [-0.045456353574991226, -0.04769408702850342, -0.04166576266288757, 0.010673582553863525, 0.020166464149951935], [-0.03247455507516861, 0.013889782130718231, -0.04458370804786682, -0.000945165753364563, 0.05445175617933273], [0.012679852545261383, -0.03079209476709366, -0.024436932057142258, -0.04640002176165581, -0.03972882032394409]]], [[[-0.19461143016815186, -0.12996222078800201, -0.10684584826231003, -0.06249671056866646, -0.04943929985165596], [-0.27644631266593933, -0.12267722189426422, -0.13486041128635406, -0.04667168855667114, -0.05748134106397629], [-0.33501124382019043, -0.1404142826795578, -0.052481211721897125, -0.040614861994981766, 0.0011459626257419586], [-0.2983861267566681, -0.21073591709136963, -0.1587834358215332, -0.17161454260349274, -0.11017419397830963], [-0.2023419588804245, -0.11737629771232605, -0.1258188933134079, -0.1311361938714981, -0.1163952574133873]], [[-0.44725847244262695, -0.3692302703857422, -0.24879035353660583, -0.20692209899425507, -0.12551851570606232], [-0.4838545024394989, -0.3646194338798523, -0.2168472707271576, -0.1277247965335846, -0.08155572414398193], [-0.46319663524627686, -0.329980731010437, -0.22038303315639496, -0.20710664987564087, -0.08357343822717667], [-0.5137082934379578, -0.3633621335029602, -0.22975985705852509, -0.18708071112632751, -0.25500190258026123], [-0.4463845193386078, -0.35205215215682983, -0.26053696870803833, -0.26073139905929565, -0.14123952388763428]], [[-0.01914328709244728, 0.014265209436416626, -0.020464688539505005, -0.057194072753190994, 0.04585586488246918], [-0.03434247896075249, -0.032911449670791626, 0.024714641273021698, -0.04774615913629532, 0.031645528972148895], [-0.00632607564330101, -0.04933018982410431, -0.022226862609386444, -0.05709841102361679, 0.021671444177627563], [0.05599193274974823, -0.04275655001401901, -0.055823519825935364, -0.02796490676701069, 0.045418545603752136], [0.029706448316574097, 0.05047919601202011, -0.015777237713336945, 0.0003042444586753845, -0.042120229452848434]], [[-0.2350039780139923, -0.12828592956066132, -0.012697159312665462, -0.1307981163263321, -0.062030840665102005], [-0.21115796267986298, -0.12250413000583649, -0.09759528189897537, -0.017179450020194054, -0.09261184930801392], [-0.22932465374469757, -0.18868204951286316, -0.11739979684352875, -0.0898890271782875, -0.0714242234826088], [-0.27530694007873535, -0.13085122406482697, -0.10615993291139603, -0.025533810257911682, -0.10957318544387817], [-0.21512793004512787, -0.19902651011943817, -0.2425849735736847, -0.10435263812541962, -0.14454255998134613]], [[-0.22928304970264435, -0.169246107339859, -0.1261255294084549, -0.03905324637889862, 0.013137368485331535], [-0.2085094302892685, -0.15095296502113342, -0.10342246294021606, -0.055166952311992645, -0.012385555543005466], [-0.2544722259044647, -0.16846537590026855, -0.09381826221942902, -0.022784680128097534, -0.10529188811779022], [-0.24419602751731873, -0.24138672649860382, -0.12002457678318024, -0.09986516833305359, -0.12101767212152481], [-0.231167733669281, -0.22396105527877808, -0.16417162120342255, -0.12719307839870453, -0.15004128217697144]], [[-0.31459662318229675, -0.1934487521648407, -0.1260148137807846, -0.023925816640257835, 0.0187048502266407], [-0.35255712270736694, -0.18707908689975739, -0.14659155905246735, -0.1455458551645279, -0.007065938785672188], [-0.3455682694911957, -0.17201635241508484, -0.06969679147005081, 0.008848253637552261, -0.06483428925275803], [-0.3515160083770752, -0.20461677014827728, -0.18807560205459595, -0.037226468324661255, -0.06657227873802185], [-0.26912087202072144, -0.2451266348361969, -0.1722109019756317, -0.13651145994663239, -0.05651291832327843]], [[0.05133938789367676, -0.04753756895661354, -0.0003270097076892853, -0.03597581386566162, -0.037943147122859955], [-0.033684805035591125, -0.021971315145492554, 0.029442712664604187, 0.028480343520641327, -0.05658775940537453], [-0.048321519047021866, 0.015499770641326904, 0.023705124855041504, -0.03690163791179657, -0.035757675766944885], [0.017681442201137543, 0.052865222096443176, -0.021170735359191895, -0.04582921043038368, -0.018827218562364578], [0.03149542212486267, 0.05115595459938049, -0.03338479995727539, -0.030975906178355217, -0.023328188806772232]], [[-0.05437648668885231, -0.19613754749298096, -0.0726747140288353, -0.16071902215480804, -0.06295513361692429], [-0.17111815512180328, -0.17559613287448883, -0.15972791612148285, 0.04061585292220116, -0.020162120461463928], [-0.16461113095283508, -0.1856648027896881, -0.17390209436416626, 0.24348744750022888, 0.10310584306716919], [-0.19756315648555756, -0.10764604061841965, -0.23796680569648743, 0.025601591914892197, -0.16820962727069855], [-0.2255910485982895, -0.22854271531105042, -0.19163170456886292, -0.07315566390752792, -0.1239614337682724]], [[-0.2169615477323532, -0.07286901026964188, -0.051244720816612244, -0.11020094901323318, -0.11961573362350464], [-0.038688432425260544, -0.04153427854180336, -0.08587446808815002, -0.02429697848856449, -0.07090718299150467], [-0.05501202121376991, -0.08606788516044617, -0.10784422606229782, -0.009736902080476284, -0.07101038843393326], [-0.13874080777168274, -0.16347220540046692, -0.1492462456226349, -0.12048840522766113, -0.09747705608606339], [-0.054753825068473816, -0.1019730418920517, -0.20181457698345184, -0.07576749473810196, -0.04730469733476639]], [[-0.16390381753444672, -0.20904108881950378, -0.16857342422008514, -0.1439143419265747, -0.009702816605567932], [-0.2004731148481369, -0.2066989690065384, -0.09520911425352097, -0.1152365654706955, 0.08937490731477737], [-0.16711603105068207, -0.18127739429473877, -0.1281062215566635, 0.0020521325059235096, 0.177212655544281], [-0.2038259506225586, -0.15690596401691437, -0.23829051852226257, -0.037863731384277344, 0.08806554228067398], [-0.13332109153270721, -0.2059711515903473, -0.16292671859264374, -0.17834079265594482, -0.12459539622068405]], [[-0.4053102433681488, -0.22163620591163635, -0.11339356005191803, -0.089238241314888, -0.07380480319261551], [-0.39573609828948975, -0.24101288616657257, -0.12390060722827911, 0.002087944420054555, 0.014433941803872585], [-0.37487179040908813, -0.24650365114212036, -0.10728660225868225, -0.10526971518993378, -0.07441483438014984], [-0.334799200296402, -0.2614913582801819, -0.12147276103496552, -0.0940212532877922, -0.08340699970722198], [-0.3182891011238098, -0.26234251260757446, -0.21718378365039825, -0.17488856613636017, -0.18331289291381836]], [[-0.014734778553247452, 0.035600848495960236, -0.002974335104227066, -0.02253499999642372, 0.04847627133131027], [-0.008786339312791824, 0.01709824800491333, -0.04467887431383133, -0.056978631764650345, 0.0028460510075092316], [0.0026133470237255096, -0.03904452174901962, -0.009337097406387329, -0.012834828346967697, -0.0307913925498724], [0.029510989785194397, 0.04651157557964325, -0.003835901618003845, 0.03653644025325775, 0.018839575350284576], [0.001944947987794876, -0.02006705477833748, -0.008406389504671097, -0.014653529971837997, -0.05177338048815727]]], [[[0.381910115480423, 0.8229157328605652, 0.7726548314094543, 0.8728138208389282, 0.313849538564682], [0.06139187514781952, 0.1933552771806717, 0.23015066981315613, 0.1943856030702591, -0.006572267971932888], [-0.4192233979701996, -0.5249940156936646, -0.9563460350036621, -0.6735537052154541, -0.6214284300804138], [-0.7268237471580505, -0.3173239827156067, -0.5727711319923401, -0.7340739965438843, -0.5290541052818298], [-0.11402183026075363, -0.41838639974594116, -0.6074211001396179, -0.5997380018234253, -0.36372119188308716]], [[0.0883132815361023, 0.07043910026550293, 0.03678762540221214, -0.10182354599237442, -0.3145029842853546], [-0.15566444396972656, -0.1936226487159729, -0.34113410115242004, -0.3216891288757324, -0.5612149238586426], [-0.5633708238601685, -0.655040442943573, -0.8064633011817932, -0.6574883460998535, -0.7849003076553345], [-0.6450501084327698, -0.6586443781852722, -0.7087966799736023, -0.7105687260627747, -0.7760433554649353], [-0.5469538569450378, -0.5951310992240906, -0.5955682396888733, -0.5848579406738281, -0.7797420024871826]], [[0.01991364359855652, 0.00532194972038269, -0.03063054010272026, -0.033399052917957306, -0.0028175152838230133], [0.010520875453948975, -0.04399881511926651, 0.04378819465637207, -0.05004493147134781, 0.015406541526317596], [0.013849973678588867, -0.04995514079928398, 0.0478590652346611, -0.015235230326652527, 0.023099005222320557], [-0.03671899437904358, -0.014480412006378174, 0.03635523468255997, -0.037460699677467346, 0.006287269294261932], [0.030780084431171417, 0.05295206606388092, 0.030312806367874146, -0.05386151373386383, -0.01016077771782875]], [[0.5613852739334106, 0.6999700665473938, 0.9175624847412109, 0.850163459777832, 0.22920197248458862], [0.07976389676332474, 0.11134979873895645, 0.4487404525279999, 0.0899965912103653, 0.14153790473937988], [-0.5600849986076355, -0.4944469928741455, -0.21308963000774384, -0.646100640296936, -0.8242146372795105], [-0.5381155014038086, -0.6668065190315247, -0.27876484394073486, -0.7445807456970215, -0.3960959315299988], [-0.04116590693593025, -0.3019249737262726, -0.3061748147010803, -0.5284698009490967, -0.46928149461746216]], [[0.5666074752807617, 0.6500595808029175, 0.6426945328712463, 0.6777752041816711, 0.45270460844039917], [0.06781367212533951, 0.12271744757890701, 0.1080283373594284, 0.2835857570171356, 0.08760966360569], [-0.43579691648483276, -0.46146494150161743, -0.33328256011009216, -0.6028911471366882, -0.46289876103401184], [-0.5087834596633911, -0.28133970499038696, -0.5051913857460022, -0.3905407190322876, -0.5474106669425964], [-0.03278478607535362, -0.11369825154542923, -0.4477502405643463, -0.35207319259643555, -0.2152479737997055]], [[0.44732072949409485, 0.40211763978004456, 0.4075654149055481, 0.2797074615955353, 0.03835642710328102], [-0.03408559039235115, -0.13022230565547943, 0.0448966808617115, -0.1999986171722412, -0.3564639687538147], [-0.4209280014038086, -0.7074288725852966, -0.6109249591827393, -0.8232293128967285, -0.6271178722381592], [-0.5390825271606445, -0.6220913529396057, -0.707483172416687, -0.6886579394340515, -0.5568432807922363], [-0.3722708821296692, -0.41031938791275024, -0.5308578014373779, -0.6280298233032227, -0.40302345156669617]], [[0.014858096837997437, 0.0356440544128418, -0.013244032859802246, -0.003971278667449951, -0.05220552906394005], [0.0353340208530426, -0.04875854030251503, 0.0010673031210899353, -0.05067823454737663, -0.020807452499866486], [0.0487336590886116, 0.028817713260650635, 0.0021269433200359344, -0.01790410280227661, 0.007947839796543121], [-0.0005257390439510345, -0.051898758858442307, 0.028777502477169037, -0.036557022482156754, -0.050676606595516205], [-0.05221685767173767, -0.041541434824466705, 0.010418765246868134, 0.020532235503196716, 0.03892949968576431]], [[0.20876489579677582, 0.16430515050888062, 0.22345373034477234, 0.1142016276717186, 0.06857714056968689], [0.048890963196754456, 0.003835332812741399, 0.16400717198848724, 0.02140677161514759, 0.16590484976768494], [0.07774203270673752, 0.29918333888053894, 0.26975730061531067, 0.2120390087366104, 0.11870695650577545], [0.07185787707567215, 0.20224961638450623, 0.12208376824855804, 0.05768084153532982, 0.10194387286901474], [0.11920319497585297, 0.05765506997704506, 0.1345168501138687, 0.18357905745506287, 0.10004551708698273]], [[0.5275573134422302, 0.23001430928707123, 0.019611040130257607, -0.04464895278215408, 0.44116276502609253], [0.005212477408349514, 0.22015784680843353, 0.2544456422328949, -0.30794039368629456, 0.2461666613817215], [-0.3657068610191345, -0.004316787701100111, -0.15250302851200104, -0.06890483945608139, -0.004715580493211746], [-0.19296135008335114, -0.16491961479187012, -0.05911468714475632, -0.09822382032871246, -0.20881390571594238], [-0.019642898812890053, -0.10370128601789474, -0.04309847950935364, -0.1593909114599228, -0.3550596833229065]], [[1.154489278793335, 1.622265338897705, 1.8110466003417969, 1.1469249725341797, 0.8965927362442017], [0.7049435973167419, 0.6327275037765503, 1.504536747932434, 0.881092369556427, 0.3766346573829651], [0.1421811878681183, -0.11668528616428375, 0.35586050152778625, 0.15075218677520752, 0.09105871617794037], [-0.3572733998298645, -0.13681182265281677, 0.11782971769571304, 0.24703030288219452, 0.19776670634746552], [-0.12234574556350708, 0.08104174584150314, 0.10644062608480453, 0.12278463691473007, 0.08046973496675491]], [[0.09808780252933502, 0.04980658367276192, 0.11286858469247818, 0.06392405927181244, -0.19114431738853455], [-0.17885597050189972, -0.18721874058246613, -0.10374388843774796, -0.4265977442264557, -0.37947797775268555], [-0.42632919549942017, -0.47219616174697876, -0.6018354892730713, -0.5072002410888672, -0.8077839016914368], [-0.5055466294288635, -0.6299351453781128, -0.3394300043582916, -0.6733294129371643, -0.5902037024497986], [-0.317732572555542, -0.24725103378295898, -0.3769240081310272, -0.42195823788642883, -0.5622346997261047]], [[0.048237867653369904, -0.00127362459897995, 0.0013145394623279572, -0.019758153706789017, -0.007645454257726669], [-0.04719964414834976, -0.014688894152641296, -0.03998151421546936, 0.005248218774795532, -0.03462743014097214], [-0.009853363037109375, 0.003790978342294693, -0.014649000018835068, 0.03713001310825348, 0.02952618896961212], [0.03377669304609299, 0.02517583966255188, 0.044546276330947876, -0.02240923047065735, -0.044972263276576996], [0.05119636654853821, 0.015881508588790894, -0.054127197712659836, 0.025616399943828583, 0.03611087054014206]]], [[[0.04253232106566429, -0.06917253136634827, -0.06994197517633438, -0.01934167370200157, -0.1024014875292778], [-0.050205815583467484, 0.06143728271126747, -0.1012972742319107, -0.09423229843378067, -0.1353597790002823], [-0.09308253973722458, -0.09079111367464066, -0.10162998735904694, 0.038258254528045654, -0.08972431719303131], [-0.0649319738149643, -0.11372320353984833, -0.10683761537075043, 0.0653781071305275, 0.0443715862929821], [-0.12580743432044983, -0.045422643423080444, -0.11318451166152954, -0.07088957726955414, -0.11997926235198975]], [[-0.17003270983695984, -0.048964858055114746, -0.14694558084011078, 0.06608026474714279, -0.07311305403709412], [-0.13165690004825592, -0.19737829267978668, 0.06833379715681076, 0.07287068665027618, -0.2428501695394516], [-0.25471484661102295, 0.09145556390285492, 0.09749481081962585, 0.2373887151479721, 0.07296043634414673], [-0.15079404413700104, -0.10306942462921143, 0.031167441979050636, 0.17673008143901825, -0.012861134484410286], [-0.20790812373161316, -0.22121773660182953, -0.07929868251085281, -0.18267160654067993, -0.17086030542850494]], [[0.0549655482172966, 0.05293753743171692, 0.02414591610431671, 0.01062396913766861, -0.05569766089320183], [0.01868806779384613, 0.010349519550800323, -0.02459169179201126, 0.02745920419692993, 0.024176329374313354], [0.03874620795249939, -0.047419607639312744, 0.02243078500032425, 0.04922649264335632, 0.04099971801042557], [-0.04081606864929199, 0.0435551181435585, 0.038499027490615845, 0.05399176478385925, -0.03615283966064453], [-0.034616969525814056, -0.0246853306889534, 0.04630414396524429, -0.02295900136232376, 0.03685556352138519]], [[-0.0019430795218795538, -0.09471837431192398, 0.04384838044643402, -0.02196212112903595, -0.056201186031103134], [-0.15721572935581207, -0.04204237461090088, -0.19056861102581024, -0.01897691749036312, -0.035162899643182755], [-0.07208658754825592, -0.05585900694131851, 0.00949931051582098, -0.06730373203754425, 0.006562999449670315], [-0.15474259853363037, -0.10167362540960312, 0.06380225718021393, -0.055333126336336136, -0.12810967862606049], [-0.21314311027526855, -0.17739100754261017, -0.20654228329658508, -0.1043633297085762, -0.036475375294685364]], [[0.02390645444393158, 0.056250300258398056, -0.09549297392368317, -0.07672693580389023, -0.13546599447727203], [0.0060969749465584755, -0.05959093198180199, -0.13369500637054443, 0.012701325118541718, -0.20412102341651917], [-0.023741818964481354, -0.02757728286087513, -0.21676026284694672, -0.07860945165157318, -0.11084829270839691], [0.024828316643834114, -0.08009180426597595, -0.09985551983118057, -0.10120947659015656, -0.1732492744922638], [-0.22105403244495392, -0.08967871963977814, -0.214859277009964, -0.16086545586585999, -0.17312654852867126]], [[-0.05674482882022858, -0.0008440519450232387, 0.017664819955825806, -0.1164313554763794, -0.1417524218559265], [-0.11179634928703308, 0.08780427277088165, 0.032081250101327896, 0.0752444863319397, 0.03208349645137787], [0.011182175017893314, 0.0542658232152462, 0.058100976049900055, 0.07966987788677216, 0.06260396540164948], [-0.19525200128555298, -0.10996337980031967, 0.18861505389213562, 0.1353713423013687, 0.15573635697364807], [-0.34573203325271606, -0.15471605956554413, -0.09946044534444809, -0.07047969102859497, -0.10785127431154251]], [[-0.02239631861448288, 0.009139351546764374, 0.05664888769388199, -0.020998362451791763, -0.017691634595394135], [-0.006546158343553543, -0.030163655057549477, -0.010111711919307709, -0.029135458171367645, -0.03233718127012253], [-0.02863226644694805, -0.03865095227956772, -0.04007483273744583, -0.0070658400654792786, -0.04389381408691406], [0.057369597256183624, 0.04710310697555542, 0.04058470577001572, 0.05458667129278183, -0.0002812333405017853], [-0.009921059012413025, 0.013492412865161896, -0.05705045163631439, 0.021509163081645966, 0.04168268293142319]], [[0.14666526019573212, 0.05366681143641472, 0.044685348868370056, 0.0011748024262487888, 0.08868274092674255], [0.07822002470493317, 0.17061489820480347, 0.03657491132616997, 0.03987095504999161, 0.08623114228248596], [0.18856902420520782, 0.04399508610367775, 0.11595039069652557, 0.04428701475262642, 0.20361733436584473], [0.08274904638528824, 0.08038986474275589, 0.0637081116437912, -0.014968190342187881, 0.012463374063372612], [0.15808537602424622, 0.039828211069107056, 0.05309821665287018, 0.0313880555331707, 0.006104843225330114]], [[-0.015323850326240063, 0.06695067882537842, -0.022921666502952576, 0.08431040495634079, -0.04208638146519661], [0.07620107382535934, 0.023688843473792076, 0.0630253404378891, -0.041617389768362045, -0.007154169958084822], [0.09825816005468369, -0.012810234911739826, -0.039769094437360764, 0.059233471751213074, -0.025599993765354156], [0.10573816299438477, -0.01361929439008236, 0.01566203683614731, 0.045928750187158585, 0.03874529153108597], [0.07980430871248245, 0.014242386445403099, -0.011062473058700562, -0.05500446632504463, -0.03979300335049629]], [[-0.016863476485013962, 0.060632165521383286, -0.011134552769362926, 0.06664004176855087, 0.11060724407434464], [0.010479739867150784, 0.0022832704707980156, 0.09893976151943207, 0.04810973256826401, 0.07293949276208878], [0.06714978814125061, 0.08614517003297806, 0.0802781954407692, 0.0510893352329731, 0.09100528061389923], [0.05091945827007294, 0.017919132485985756, 0.05711499974131584, 0.07322963327169418, 0.06399458646774292], [0.0032265533227473497, 0.08802621811628342, 0.07682802528142929, 0.08310512453317642, 0.06378594785928726]], [[0.0005640536546707153, 0.002810815814882517, 0.042396917939186096, -0.03255655989050865, 0.020087089389562607], [-0.014057304710149765, -0.017826402559876442, -0.0006935636629350483, 0.17670682072639465, -0.041969213634729385], [-0.18905192613601685, -0.06979387253522873, 0.1036570593714714, 0.25339406728744507, 0.16934999823570251], [-0.08478861302137375, -0.09520306438207626, 0.08288578689098358, 0.040729161351919174, 0.007270685397088528], [-0.1969025731086731, -0.2072630673646927, -0.07748657464981079, 0.018905168399214745, -0.1390550434589386]], [[-0.027921808883547783, -0.046721842139959335, 0.011045694351196289, 0.04659121483564377, -0.0072132982313632965], [0.037720292806625366, -0.017544277012348175, 0.03469783812761307, -0.041715770959854126, 0.005679510533809662], [0.02756056934595108, 0.003047063946723938, -0.0382455512881279, -0.03764769434928894, 0.011536963284015656], [0.036951079964637756, -0.026383310556411743, 0.009152784943580627, 0.03586209565401077, 0.053716182708740234], [-0.038648732006549835, -0.05335601791739464, 0.043570585548877716, -0.008552905172109604, 0.04134805500507355]]], [[[-0.1490645408630371, -0.2479909211397171, -0.4342772960662842, -0.6071943640708923, -0.24377840757369995], [0.18020546436309814, -0.185370072722435, -0.3610008656978607, -0.648770272731781, -0.6517975330352783], [0.3607363998889923, 0.2575148940086365, 0.046477060765028, -0.3462047278881073, -0.7187953591346741], [0.11649265885353088, 0.31499820947647095, 0.36641645431518555, 0.06316419690847397, -0.4053652286529541], [-0.19544443488121033, 0.006099334452301264, 0.23576143383979797, 0.2963884472846985, 0.00016971200238913298]], [[-0.1534637212753296, -0.20870432257652283, -0.3952333331108093, -0.4622443616390228, -0.3750744163990021], [0.023739304393529892, -0.12105538696050644, -0.3083591163158417, -0.6398128271102905, -0.6341326832771301], [0.03697824105620384, 0.045267730951309204, -0.05556430295109749, -0.5192480683326721, -0.5672071576118469], [0.1286206990480423, 0.11999450623989105, 0.1390807032585144, -0.19218537211418152, -0.41286298632621765], [-0.09999710321426392, 0.13699571788311005, 0.1370193511247635, -0.0590030662715435, -0.1819504201412201]], [[-0.054492365568876266, -0.05090928450226784, 0.04220163822174072, -0.0236014723777771, -0.03917400538921356], [0.022720739245414734, 0.027214258909225464, -0.013304971158504486, 0.035517796874046326, 0.03395303338766098], [-0.012078560888767242, -0.026246938854455948, -0.04901294782757759, -0.05617506057024002, 0.00511140376329422], [-0.0037551671266555786, 0.01979653537273407, 0.02080520987510681, 0.05412307381629944, -0.03614548593759537], [-0.05376575514674187, -0.015456896275281906, 0.012081511318683624, -0.05314034968614578, -0.015888191759586334]], [[-0.030383799225091934, -0.0542280487716198, -0.2646474540233612, -0.2722615897655487, -0.2935197949409485], [0.11165095865726471, -0.007892856374382973, -0.2114928513765335, -0.20993897318840027, -0.4562602937221527], [0.2791164815425873, 0.377844899892807, 0.30485427379608154, -0.13998393714427948, -0.6666598916053772], [0.141958087682724, 0.43958479166030884, 0.460683137178421, 0.12125083804130554, -0.3569529950618744], [-0.15877653658390045, 0.03312565013766289, 0.4035080373287201, 0.2911342680454254, 0.13996745645999908]], [[-0.044047676026821136, -0.12959031760692596, -0.41899219155311584, -0.46103981137275696, -0.21402311325073242], [0.114407978951931, 0.03990912809967995, -0.3284982442855835, -0.3123359680175781, -0.6407467126846313], [0.3316723704338074, 0.2881490886211395, -0.003842736827209592, -0.38814878463745117, -0.6322867274284363], [0.10156427323818207, 0.45714783668518066, 0.36111047863960266, 0.08104167133569717, -0.4849899411201477], [-0.268798828125, 0.15516404807567596, 0.33971309661865234, 0.21276766061782837, 0.04597042500972748]], [[-0.12589994072914124, -0.16755737364292145, -0.2634233832359314, -0.43517953157424927, -0.43479570746421814], [0.15085558593273163, 0.11960261315107346, -0.3929489552974701, -0.4730820953845978, -0.5919440388679504], [0.25523707270622253, 0.07431366294622421, 0.10784384608268738, -0.36227455735206604, -0.7268928289413452], [0.22234350442886353, 0.18011033535003662, 0.34907329082489014, 0.07542302459478378, -0.30964988470077515], [-0.09610411524772644, 0.12801198661327362, 0.2876676619052887, 0.18117502331733704, 0.013085915707051754]], [[-0.0299135223031044, -0.025153592228889465, 0.04895620793104172, -0.027435556054115295, 0.048846207559108734], [-0.04197712987661362, -0.025294318795204163, -0.010259371250867844, -0.02383967861533165, -0.04488806426525116], [0.03466786444187164, -0.05162711814045906, -0.0034391433000564575, -0.04490926116704941, 0.043038882315158844], [0.04058239609003067, 0.020973138511180878, 0.03622974455356598, -0.05124523490667343, -0.04111015424132347], [-0.045548904687166214, -0.01267186552286148, 0.03413388133049011, 0.015899188816547394, 0.026854924857616425]], [[0.022262558341026306, 0.07669583708047867, 0.09307704120874405, 0.057229623198509216, -0.07866726815700531], [0.1797429472208023, 0.05300221964716911, 0.062436990439891815, 0.056373462080955505, -0.07563887536525726], [0.07595808804035187, 0.20153506100177765, 0.12081107497215271, 0.06775791943073273, 0.006115562282502651], [0.03791971504688263, 0.04610482603311539, 0.21354523301124573, 0.0918656513094902, -0.012217245995998383], [0.016009720042347908, 0.08518575876951218, 0.057501014322042465, 0.03866446390748024, 0.03471218794584274]], [[0.13852949440479279, -0.023084400221705437, -0.0535876639187336, 0.018646614626049995, -0.0572299100458622], [0.18021947145462036, 0.09667104482650757, -0.027549557387828827, -0.13113757967948914, -0.16879646480083466], [0.2853778302669525, 0.18886004388332367, 0.006193692795932293, 0.05038278177380562, -0.05048711970448494], [0.0910593569278717, 0.2317296713590622, 0.1983773112297058, 0.058064740151166916, -0.14229923486709595], [0.09694202244281769, 0.13341279327869415, 0.20492573082447052, 0.20021992921829224, 0.09611266106367111]], [[-0.06031535193324089, 0.08343960344791412, 0.04521417245268822, 0.10889802873134613, 0.11781565099954605], [0.052344806492328644, -0.01257447712123394, 0.030167823657393456, 0.06663735210895538, 0.008516805246472359], [0.05061201751232147, 0.07550045102834702, 0.08910463005304337, 0.05624689161777496, -0.06469926983118057], [0.20179730653762817, 0.06901605427265167, 0.00012282002717256546, -0.04305925965309143, -0.11682641506195068], [-0.009206036105751991, 0.13849197328090668, 0.11799479275941849, 0.08904009312391281, -0.18292079865932465]], [[0.015371156856417656, -0.03903182968497276, -0.30876612663269043, -0.39479222893714905, -0.28982430696487427], [0.2025822401046753, 0.0800904855132103, -0.04802338033914566, -0.3916216492652893, -0.5497747659683228], [0.20846380293369293, 0.25343841314315796, 0.2233213633298874, -0.09384148567914963, -0.43774327635765076], [0.14491809904575348, 0.2329314649105072, 0.2115735411643982, 0.05093008652329445, -0.17906366288661957], [-0.20774486660957336, 0.12800811231136322, 0.22877223789691925, 0.16588319838047028, 0.08010774850845337]], [[-0.004433099180459976, -0.0016128979623317719, 0.03026421368122101, 0.04253444820642471, -0.04652461037039757], [-0.0023492760956287384, 0.04258812218904495, 0.0010710544884204865, -0.0020998455584049225, 0.02300877869129181], [0.03954199701547623, 0.04136662930250168, -0.04245658963918686, 0.03374193608760834, -0.029693996533751488], [-0.010178964585065842, -0.014131125062704086, -0.038383398205041885, 0.03149428963661194, 0.032721057534217834], [-0.03934890031814575, 0.03004898875951767, 0.015278182923793793, 0.010989926755428314, 0.04425835609436035]]], [[[-0.07957597076892853, 0.018847845494747162, 0.04553745314478874, 0.006482576951384544, -0.0831541195511818], [-0.15049900114536285, -0.08765148371458054, 0.009034059941768646, -0.0021701131481677294, -0.13765794038772583], [-0.038117580115795135, -0.19163864850997925, -0.014159420505166054, -0.07124274224042892, -0.18928563594818115], [0.03113623708486557, -0.007216733414679766, 0.0898316279053688, 0.10154791176319122, 0.016276944428682327], [-0.11437670141458511, -0.08352312445640564, -0.044707950204610825, -0.0737701952457428, -0.04112878441810608]], [[-0.13632893562316895, -0.07601625472307205, 0.031634390354156494, 0.05547824129462242, 0.026430893689393997], [-0.23253969848155975, -0.05477824807167053, -0.024903086945414543, 0.009650537744164467, 0.026429427787661552], [-0.2039175033569336, -0.06267320364713669, 0.04138952121138573, 0.04297337681055069, -0.22693507373332977], [-0.09839563071727753, -0.08272943645715714, 0.2033005803823471, 0.05192772299051285, 0.0007264270097948611], [-0.20398378372192383, -0.08751139044761658, 0.10412893444299698, -0.004658631049096584, -0.07934539765119553]], [[-0.029753373935818672, -0.055830217897892, 0.019094057381153107, 0.018466591835021973, -0.035512104630470276], [-0.02292706072330475, -0.05583440884947777, 0.01481078565120697, 0.03792136162519455, 0.047375619411468506], [-0.007476735860109329, -0.025057807564735413, -0.01633736863732338, -0.053393878042697906, -0.052614323794841766], [-0.02436988800764084, -0.04924062266945839, 0.024638064205646515, -0.01950908824801445, 0.018094107508659363], [0.0265435129404068, -0.046801742166280746, 0.004657167941331863, 0.02210550755262375, -0.05591067671775818]], [[-0.10734406858682632, -0.08932837843894958, -0.01507564727216959, 0.05219798907637596, -0.03984716162085533], [-0.10698610544204712, -0.09068275988101959, 0.030548570677638054, 0.03241105005145073, -0.15204226970672607], [-0.03362221270799637, -0.09519356489181519, 0.07436462491750717, -0.007187304086983204, -0.10210473835468292], [-0.0589747279882431, -0.12033026665449142, 0.08210393041372299, -0.09054931253194809, -0.05545613169670105], [-0.0925949439406395, -0.09450113773345947, -0.23239761590957642, 0.02738492377102375, 0.02151249162852764]], [[-0.028723252937197685, -0.04293573275208473, 0.04810408875346184, 0.025566160678863525, -0.06665553897619247], [-0.08341837674379349, -0.0547206737101078, 0.010430228896439075, -0.04322263225913048, -0.10406259447336197], [-0.0005317626637406647, -0.08788729459047318, 0.004449296742677689, -0.0422339104115963, -0.12523868680000305], [-0.07192825525999069, -0.0737040787935257, -0.014685542322695255, -0.09176699072122574, -0.10153307020664215], [-0.09832219779491425, -0.12562410533428192, -0.10782449692487717, -0.13787198066711426, -0.1446026712656021]], [[-0.05091850459575653, -0.050951190292835236, -0.06459181755781174, 0.08469906449317932, -0.00019301005522720516], [-0.11728305369615555, -0.02418028749525547, 0.09390118718147278, 0.05729660764336586, -0.010881210677325726], [-0.1840401291847229, -0.1443873792886734, 0.10128142684698105, 0.12026078999042511, -0.05904543399810791], [-0.0931483805179596, 0.04324126988649368, 0.21791678667068481, 0.11386595666408539, 0.08174734562635422], [-0.11373584717512131, -0.06698928028345108, -0.08705887943506241, 0.03743046894669533, 0.007236005272716284]], [[-0.01200484111905098, -0.015035238116979599, 0.03488034009933472, 0.019558727741241455, 0.043493568897247314], [-0.05033287778496742, -0.025533296167850494, 0.034857772290706635, -0.0420573428273201, 0.03966273367404938], [-0.006751891225576401, -0.05404730513691902, -0.0423467680811882, -0.0027089938521385193, 0.016810476779937744], [-0.03228798508644104, 0.050901859998703, -0.009982280433177948, 0.04688285291194916, 0.0020190775394439697], [-0.019759971648454666, -0.008293475955724716, -0.02883097343146801, 0.039222367107868195, 0.007464423775672913]], [[0.1628398597240448, 0.051970258355140686, 0.13831545412540436, 0.06914009898900986, 0.07803209125995636], [-0.031218992546200752, 0.037516843527555466, 0.05776381865143776, 0.041266582906246185, 0.029603611677885056], [0.03763996809720993, 0.07028312981128693, 0.17389152944087982, 0.14684167504310608, 0.07335331290960312], [0.015536521561443806, 0.033691663295030594, 0.06721722334623337, 0.17423710227012634, 0.014276369474828243], [-0.007262782193720341, 0.18407437205314636, 0.040174033492803574, 0.059245381504297256, 0.14955320954322815]], [[0.05322087183594704, 0.10507861524820328, 0.06415557116270065, -0.013746156357228756, 0.07296793162822723], [0.0012902681482955813, -0.008082683198153973, 0.022302787750959396, 0.03836868703365326, 0.03602973744273186], [-0.025153473019599915, -0.0816507637500763, 0.023195788264274597, 0.07241594046354294, 0.0005957692628726363], [0.0773206427693367, -0.03018936514854431, 0.03376993164420128, 0.044796399772167206, -0.034961603581905365], [0.032878149300813675, -0.0358169786632061, 0.049930330365896225, 0.034825649112463, -0.032263707369565964]], [[0.012469029985368252, -0.01640218123793602, 0.08643171936273575, 0.01609509065747261, 0.13210853934288025], [0.022141143679618835, 0.08380644768476486, 0.000683576159644872, 0.11447349190711975, 0.09076697379350662], [0.06085697561502457, 0.01533049438148737, 0.055013228207826614, 0.15040439367294312, 0.03624976798892021], [-0.0315958634018898, -0.01662931963801384, 0.03310296684503555, 0.03329676389694214, 0.008524948731064796], [0.024079781025648117, 0.030780024826526642, 0.07120558619499207, 0.09860106557607651, 0.014568991027772427]], [[-0.0726432055234909, -0.11413323134183884, -0.04091650992631912, 0.0911436378955841, -0.10669496655464172], [-0.12215489894151688, -0.10110080242156982, -0.09310753643512726, -0.005162913352251053, 0.06023789942264557], [-0.1680181473493576, -0.08898089826107025, 0.10248805582523346, 0.20880626142024994, 0.1089429035782814], [-0.0880211666226387, -0.013831453397870064, 0.1956249326467514, 0.0773681104183197, 0.09351911395788193], [-0.12090520560741425, -0.040656283497810364, 0.0938013568520546, -0.018500395119190216, -0.04039377719163895]], [[-0.019875679165124893, -0.0048818886280059814, -0.023720301687717438, 0.044338107109069824, -0.039106108248233795], [0.022275924682617188, -0.006484609097242355, -0.04362836852669716, -0.055000368505716324, 0.052918434143066406], [0.03822583705186844, -0.016423482447862625, -0.03792624920606613, -0.0038444884121418, -0.018081996589899063], [0.05259577929973602, -0.01927172765135765, 0.01797240972518921, -0.013883508741855621, -0.021500594913959503], [0.027258068323135376, -0.02607596293091774, -0.005351368337869644, -0.01915346458554268, 0.04933366924524307]]], [[[-0.127097025513649, -0.10879906266927719, -0.22673992812633514, -0.21043725311756134, -0.2788015604019165], [-0.13717420399188995, -0.1076134517788887, -0.217057466506958, -0.1282687783241272, -0.29750874638557434], [-0.19179175794124603, -0.15322574973106384, -0.023432575166225433, -0.04330739006400108, -0.17007678747177124], [-0.04458967223763466, -0.03396911174058914, -0.14014188945293427, 0.033722154796123505, -0.21311935782432556], [-0.19814372062683105, -0.14255772531032562, -0.3588961660861969, -0.15305227041244507, -0.16203536093235016]], [[-0.1022665947675705, -0.03713495656847954, -0.18317493796348572, 0.04375213012099266, -0.26760348677635193], [-0.16057105362415314, -0.03448812663555145, 0.13711504638195038, 0.07256666570901871, -0.32046836614608765], [0.1637299805879593, 0.13274824619293213, -0.04887774959206581, 0.24110402166843414, -0.03267836570739746], [-0.11036967486143112, -0.01957601122558117, 0.073514424264431, 0.14592084288597107, -0.08789796382188797], [-0.17442625761032104, -0.1877128928899765, -0.18146422505378723, -0.054094042629003525, -0.11614961177110672]], [[-0.05538349226117134, -0.021804165095090866, 0.021707870066165924, 0.009607546031475067, -0.030459729954600334], [0.02811340242624283, 0.013897880911827087, -0.012437209486961365, -0.05640782043337822, -0.028023719787597656], [-0.05220863223075867, 0.02899283915758133, -0.02258632332086563, -0.05204864218831062, -0.039682719856500626], [-0.013688866049051285, -0.015247948467731476, -0.023488793522119522, 0.032275520265102386, -0.015801526606082916], [-0.050269294530153275, -0.008243735879659653, 0.02410394698381424, 0.013239927589893341, 0.020545944571495056]], [[-0.21546687185764313, -0.10932018607854843, -0.15213394165039062, -0.2794737219810486, -0.20468103885650635], [-0.09792842715978622, -0.152482807636261, -0.08424097299575806, -0.18145237863063812, -0.11312659829854965], [-0.08150504529476166, -0.06398028880357742, -0.15987052023410797, -0.03981182351708412, -0.20510631799697876], [-0.1328563243150711, -0.1281118392944336, -0.14418134093284607, -0.11084916442632675, -0.1398889571428299], [-0.19188089668750763, -0.20376580953598022, -0.09890711307525635, -0.16539329290390015, -0.09944283217191696]], [[-0.16084228456020355, -0.20136190950870514, -0.24576471745967865, -0.09522560238838196, -0.27879953384399414], [-0.0940742939710617, -0.13950912654399872, -0.21069982647895813, -0.14207740128040314, -0.17423753440380096], [-0.23006018996238708, -0.05698593705892563, -0.22420668601989746, -0.11067252606153488, -0.1289415806531906], [-0.05222518369555473, -0.1352301388978958, -0.21254868805408478, -0.039937105029821396, -0.07898018509149551], [-0.2576577961444855, -0.23761112987995148, -0.32967498898506165, -0.15339185297489166, -0.30955877900123596]], [[-0.12244981527328491, -0.012110339477658272, -0.11429697275161743, -0.2103547900915146, -0.2453199326992035], [-0.014831751585006714, 0.04941254109144211, 0.10867303609848022, 0.14789743721485138, -0.09728188067674637], [-0.15664653480052948, -0.0013107878621667624, 0.007530859671533108, 0.04745813459157944, -0.06015064939856529], [-0.010143636725842953, 0.04696827381849289, 0.11069591343402863, 0.17810644209384918, -0.10866019874811172], [-0.24841216206550598, -0.08892631530761719, -0.22970643639564514, -0.1821649819612503, -0.09865264594554901]], [[0.01814417541027069, -0.0351567268371582, 0.04258470982313156, -0.0015214420855045319, -0.024111244827508926], [-0.043072618544101715, -0.026142291724681854, -0.03225543349981308, -0.05308743193745613, -0.0013232044875621796], [-0.036703646183013916, -0.02803257666528225, 0.02769795060157776, 0.01869254559278488, -0.030536310747265816], [0.012650474905967712, 0.01965547353029251, 0.03916468471288681, -0.0318179652094841, 0.012300163507461548], [0.0024280063807964325, -0.03287169337272644, 0.007551707327365875, 0.04215262830257416, -0.052821848541498184]], [[0.040889184921979904, 0.057147711515426636, 0.04237208515405655, 0.037132494151592255, 0.07774163037538528], [0.08106011152267456, 0.052208300679922104, 0.08379555493593216, 0.03681186959147453, 0.16761340200901031], [0.07136911153793335, 0.06720876693725586, 0.10830838233232498, 0.18844307959079742, 0.04832402989268303], [0.1974351555109024, 0.05202290415763855, 0.03578643500804901, 0.15088118612766266, 0.15297643840312958], [0.10172268748283386, 0.16024737060070038, 0.04658009111881256, 0.022582972422242165, 0.01882096938788891]], [[0.017557259649038315, -0.03357987478375435, -0.02015877701342106, 0.06345987319946289, 0.00574735039845109], [0.05553103983402252, 0.10637396574020386, 0.02640722133219242, 0.05825047194957733, 0.0049666534177958965], [0.05810730904340744, 0.04610573127865791, -0.02381475642323494, 0.08872559666633606, 0.0067571536637842655], [0.0006129202665761113, 0.05699753388762474, -0.0012993909185752273, 0.0570848174393177, 0.08833815902471542], [0.08029408007860184, 0.0766071230173111, -0.011659733019769192, 0.03524243086576462, -0.06509360671043396]], [[0.039382632821798325, 0.08670764416456223, 0.027248792350292206, 0.06558515876531601, 0.07500317692756653], [0.060426026582717896, 0.13191184401512146, 0.018936948850750923, 0.03919992595911026, 0.07188130170106888], [0.07866796851158142, 0.07788045704364777, -0.002008538693189621, -0.01211476232856512, 0.034491755068302155], [-0.007084188517183065, 0.03037324734032154, 0.07341035455465317, 0.06316870450973511, -0.009425925090909004], [-0.01838861219584942, 0.06505082547664642, 0.09668546915054321, 0.0481751449406147, 0.05835913121700287]], [[-0.013379956595599651, -0.1262190043926239, 0.027869105339050293, -0.0896625816822052, -0.1528262495994568], [0.004084730986505747, -0.027910055592656136, 0.012604521587491035, -0.02371256984770298, 0.04474938288331032], [-0.03203090280294418, 0.13413503766059875, 0.10909324139356613, 0.08871711045503616, 0.022547509521245956], [-0.05032338574528694, -0.02042861096560955, -0.09691711515188217, 0.08911944925785065, -0.1343456208705902], [-0.2200813740491867, -0.2507812976837158, -0.2668576240539551, -0.09682290256023407, -0.15476323664188385]], [[-0.050895072519779205, 0.022389881312847137, -0.04477900266647339, -0.04380425810813904, -0.007791139185428619], [-0.03441276401281357, -0.03165150433778763, 0.05428919941186905, 0.05530928820371628, 0.02555699646472931], [0.05482956022024155, 0.005173586308956146, 0.017733514308929443, 0.0283876433968544, -0.018600590527057648], [0.03874954581260681, -0.052262041717767715, 0.05136074870824814, -0.011334501206874847, -0.016945578157901764], [0.03382621705532074, -0.019439678639173508, 0.04543326050043106, -0.0020362772047519684, -0.04122649133205414]]], [[[0.04871052876114845, -0.09822578728199005, -0.03409544378519058, -0.15364329516887665, -0.11388561874628067], [-0.061560261994600296, -0.18503251671791077, -0.22244609892368317, -0.12988585233688354, -0.08656980097293854], [-0.02365296334028244, -0.03728453069925308, 0.06211959943175316, 0.08877945691347122, -0.0879313051700592], [0.05075383558869362, 0.12709163129329681, 0.15712343156337738, -0.07937173545360565, 0.016918310895562172], [-0.09439970552921295, -0.1694539189338684, -0.14095313847064972, -0.14216919243335724, -0.028698036447167397]], [[-0.131392240524292, -0.1179690882563591, -0.19973929226398468, -0.12368672341108322, -0.22640573978424072], [-0.2193647176027298, -0.1053033396601677, 0.005006609484553337, -0.08171728253364563, -0.24371621012687683], [-0.051372066140174866, 0.03319120779633522, 0.09700524061918259, 0.07006780803203583, -0.09447744488716125], [-0.13119232654571533, -0.005662215873599052, -0.0716540589928627, -0.0563589483499527, -0.11155368387699127], [-0.2537896931171417, -0.050030842423439026, -0.07830244302749634, -0.06747220456600189, -0.10637500137090683]], [[0.031169243156909943, -0.03206489980220795, -0.012409068644046783, -0.04169011116027832, 0.051766589283943176], [0.05239395797252655, -0.051964469254016876, 0.04348196089267731, 0.005790941417217255, 0.00018357858061790466], [-0.044936321675777435, -0.036561205983161926, 0.057117193937301636, -0.026705332100391388, 0.029603466391563416], [-0.03976637125015259, -0.03573431819677353, -0.035494156181812286, -0.05508195981383324, 0.042442262172698975], [0.04530218988656998, -0.03612903133034706, 0.03822658210992813, 0.021691031754016876, -0.020074840635061264]], [[-0.10239455103874207, -0.0864558294415474, -0.0009705648990347981, -0.11103220283985138, 0.017401842400431633], [-0.10079268366098404, -0.11148124188184738, -0.07016827166080475, 0.008201245218515396, -0.18134935200214386], [-0.05666306987404823, 0.023119276389479637, 0.22514882683753967, 0.11796244233846664, -0.06995745003223419], [-0.058352481573820114, -0.0635022521018982, 0.14503629505634308, 0.0022315310779958963, -0.06915175914764404], [-0.19073043763637543, -0.205811008810997, -0.24709297716617584, -0.033994581550359726, -0.1066952794790268]], [[0.009087415412068367, -0.08249495178461075, -0.10093381255865097, -0.09764216840267181, -0.09365547448396683], [-0.05339542776346207, -0.18317395448684692, 0.030302656814455986, -0.09963556379079819, -0.22584235668182373], [-0.0008921122644096613, 0.0730159804224968, 0.13831663131713867, 0.10963483154773712, -0.03043108992278576], [-0.04910219833254814, 0.026070358231663704, 0.07727601379156113, -0.023166507482528687, -0.12440688908100128], [-0.23449352383613586, -0.17057918012142181, -0.09444042295217514, -0.18973201513290405, -0.0972028598189354]], [[-0.013097154907882214, -0.0037667914293706417, -0.05433018505573273, -0.08363661170005798, -0.17752626538276672], [-0.1305006444454193, -0.09681248664855957, 0.03525194153189659, -0.0389714390039444, -0.07745473831892014], [0.03144526854157448, -0.15146222710609436, 0.194246307015419, 0.08341043442487717, -0.08178780972957611], [-0.09821262955665588, 0.08297064900398254, 0.12317004054784775, 0.10466326773166656, 0.05901329964399338], [-0.16175299882888794, -0.05447383224964142, -0.09003273397684097, -0.20860587060451508, 0.005965294316411018]], [[-0.017523236572742462, -0.023449134081602097, -0.004434481263160706, -0.05105810612440109, 0.02144833654165268], [-0.04813869297504425, 0.02901243418455124, -0.04636046662926674, 0.05372844636440277, -0.040897585451602936], [-0.03652503341436386, 0.04315432906150818, -0.024053126573562622, 0.030328825116157532, -0.015256151556968689], [-0.03359086066484451, 0.0026679933071136475, -0.056012239307165146, -0.01601022481918335, -0.05489397048950195], [-0.031506381928920746, 0.0012919865548610687, -0.021087709814310074, -0.05516740679740906, 0.0007267072796821594]], [[0.03615768998861313, 0.015978647395968437, 0.18701668083667755, 0.03127807378768921, 0.06846820563077927], [0.1719239503145218, 0.04148578271269798, 0.18548761308193207, 0.071256123483181, 0.18374748528003693], [0.09543611854314804, 0.0366135835647583, 0.06046878919005394, 0.1219935193657875, 0.05192142352461815], [0.04290710389614105, 0.015211852267384529, 0.08430472016334534, 0.04134972766041756, 0.05266931653022766], [0.045609671622514725, 0.06216445565223694, 0.194931298494339, 0.09316657483577728, 0.15723013877868652]], [[0.02979087084531784, 0.03464093059301376, 0.004036806058138609, 0.014057951979339123, -0.03333686664700508], [0.02164461836218834, -0.020469054579734802, -0.00785710010677576, 0.10342873632907867, -0.005858888849616051], [0.05804789811372757, -0.04220636561512947, -0.014713296666741371, -0.005682412534952164, 0.03810093551874161], [0.02600075677037239, -0.013841921463608742, 0.05478731542825699, 0.05064480006694794, 0.0332878977060318], [0.01817559078335762, 0.07285655289888382, 0.09621405601501465, 0.10837796330451965, -0.04516658931970596]], [[0.006439539138227701, 0.05832580476999283, 0.0141329700127244, 0.01867358572781086, 0.009920742362737656], [0.05236132815480232, 0.06529205292463303, 0.02867748960852623, 0.010564479976892471, 0.06284432858228683], [-0.06644702702760696, -0.06945697963237762, -0.02067645452916622, 0.0696820393204689, 0.05471387878060341], [-0.022309403866529465, 0.01790713332593441, 0.04564548283815384, 0.09098012000322342, 0.08506320416927338], [0.024538293480873108, 0.02376887947320938, 0.016256224364042282, -0.01486983522772789, 0.016583802178502083]], [[-0.059626173228025436, -0.06331270933151245, -0.1555836945772171, -0.038713522255420685, -0.1401737779378891], [0.019231023266911507, -0.12185488641262054, 0.07807321846485138, 0.11086899787187576, -0.06961653381586075], [0.06896591186523438, 0.130890354514122, 0.0602552555501461, 0.1231740191578865, -0.15560537576675415], [0.011196913197636604, 0.023240195587277412, 0.09102941304445267, 0.07546789944171906, 0.005925500765442848], [-0.25344595313072205, -0.18694156408309937, -0.08405641466379166, -0.09480159729719162, -0.029499994590878487]], [[0.050333671271800995, -0.03883844614028931, 0.0002293810248374939, -0.04856294393539429, 0.04339645802974701], [-0.016202226281166077, 0.02350383996963501, -0.021754346787929535, -0.011354096233844757, 0.0356878861784935], [-0.01166607066988945, -0.055016983300447464, -0.016665209084749222, -0.043449752032756805, 0.025973908603191376], [0.029736779630184174, -0.0481095016002655, 0.05270160734653473, 0.0020667053759098053, -0.004942387342453003], [0.021837912499904633, -0.04954448714852333, 0.05550919473171234, -0.047017041593790054, 0.011507585644721985]]], [[[-0.03303953632712364, -0.10004565119743347, -0.09947165846824646, -0.11881160736083984, -0.1937137097120285], [-0.07455851882696152, -0.1131071224808693, -0.14168934524059296, -0.07507354021072388, -0.09748464077711105], [-0.12160512059926987, -0.118302121758461, -0.18089623749256134, -0.3145684599876404, -0.23588155210018158], [-0.1727416068315506, -0.17217646539211273, -0.24948087334632874, -0.10432334244251251, -0.1855553388595581], [-0.2641467750072479, -0.08142413198947906, -0.046666424721479416, -0.03014381416141987, 0.013706651516258717]], [[-0.19516311585903168, -0.26441189646720886, -0.2867722809314728, -0.2768583297729492, -0.23101864755153656], [-0.3805510699748993, -0.2692955732345581, -0.35854220390319824, -0.341766357421875, -0.312616229057312], [-0.32276177406311035, -0.30973535776138306, -0.2982092499732971, -0.3866726756095886, -0.3662879168987274], [-0.3245469033718109, -0.37076103687286377, -0.45634835958480835, -0.3467177748680115, -0.3691518008708954], [-0.36547383666038513, -0.3468959629535675, -0.296888142824173, -0.2443062961101532, -0.20605695247650146]], [[-0.006968136876821518, 0.0066961199045181274, 0.007537312805652618, 0.008211329579353333, 0.01782960444688797], [0.017756789922714233, 0.0010253749787807465, 0.044363319873809814, -0.02112555131316185, -0.057525914162397385], [0.00918346643447876, 0.05745159834623337, 0.0350458100438118, 0.02651354670524597, -0.048569925129413605], [-0.05135105922818184, 0.03453119844198227, -0.0020343437790870667, -0.01569066196680069, -0.026941541582345963], [0.021468013525009155, -0.03610404580831528, 0.054412879049777985, -0.03793633356690407, 0.0017950460314750671]], [[-0.035155873745679855, -0.12957388162612915, -0.10224944353103638, -0.11674564331769943, -0.07498861104249954], [-0.09880796819925308, -0.19171029329299927, -0.13125848770141602, -0.14491154253482819, -0.19586887955665588], [-0.15746694803237915, -0.17898935079574585, -0.16382376849651337, -0.11687760800123215, -0.2433399111032486], [-0.23243272304534912, -0.20369663834571838, -0.15868283808231354, -0.25993943214416504, -0.210626482963562], [-0.3462406396865845, -0.17659105360507965, -0.09628342092037201, -0.11925984174013138, -0.18580009043216705]], [[-0.04442143067717552, -0.15114662051200867, -0.14169378578662872, -0.12562528252601624, -0.10667885839939117], [-0.06995177268981934, -0.1852165162563324, -0.1916911005973816, -0.2038545161485672, -0.13727550208568573], [-0.1332545131444931, -0.15761226415634155, -0.16742536425590515, -0.15923330187797546, -0.1768159717321396], [-0.13881538808345795, -0.13498938083648682, -0.170301154255867, -0.17079699039459229, -0.17434093356132507], [-0.2604367434978485, -0.1623028814792633, -0.05697803944349289, 0.023089665919542313, -0.16589169204235077]], [[-0.11972486972808838, -0.13498054444789886, -0.1522040218114853, -0.19001536071300507, -0.18893744051456451], [-0.15299685299396515, -0.22005748748779297, -0.22545959055423737, -0.21329434216022491, -0.21421827375888824], [-0.17838740348815918, -0.22047960758209229, -0.2606782615184784, -0.23138470947742462, -0.2023392617702484], [-0.1603957861661911, -0.23529323935508728, -0.29773131012916565, -0.2282043695449829, -0.23130016028881073], [-0.2924761474132538, -0.1509336233139038, -0.1709786206483841, -0.0520598404109478, -0.0965459868311882]], [[-0.014530200511217117, 0.007890775799751282, 0.03780834376811981, -0.03646739199757576, -0.055134404450654984], [-0.045757610350847244, -0.023984182626008987, 0.03730609267950058, 0.014579132199287415, 0.03094370663166046], [-0.04384759068489075, -0.046209339052438736, -0.007005728781223297, 0.004600580781698227, 0.04906828701496124], [-0.04042906314134598, -0.035828422755002975, -0.03588609769940376, -0.021007806062698364, -0.04566992074251175], [-0.050897471606731415, -0.011978831142187119, -0.05165044590830803, 0.012434273958206177, 0.015091374516487122]], [[-0.012077179737389088, -0.12804657220840454, -0.11377208679914474, -0.06353740394115448, -0.25125181674957275], [-0.08630991727113724, -0.10307490825653076, -0.11193108558654785, -0.14674372971057892, -0.15010175108909607], [-0.12367641180753708, -0.1765318065881729, -0.19338510930538177, -0.1576942354440689, -0.17961519956588745], [-0.1524905115365982, -0.10571945458650589, -0.2284984439611435, -0.25767630338668823, -0.23546870052814484], [0.0008678521262481809, -0.1216830238699913, -0.1240755021572113, -0.176411971449852, -0.16682156920433044]], [[-0.1228766217827797, -0.133884459733963, -0.0790989026427269, -0.05350907891988754, -0.042821988463401794], [-0.07843656837940216, -0.10538221895694733, -0.05062791332602501, -0.06088390201330185, -0.11146124452352524], [-0.11653211712837219, -0.1313367635011673, -0.1484869122505188, -0.1417674869298935, -0.04988003894686699], [-0.1189696416258812, -0.11580804735422134, -0.09490498900413513, 0.10529489070177078, -0.17734239995479584], [-0.16769810020923615, 0.1213744729757309, -0.04277348890900612, -0.11127834022045135, 0.2080150991678238]], [[0.015188888646662235, 0.03763597458600998, -0.0458243265748024, -0.11082153022289276, -0.18783755600452423], [-0.00453097652643919, -0.06427159160375595, -0.14035308361053467, -0.127255380153656, -0.11372921615839005], [0.12534336745738983, -0.09360671043395996, -0.07569357752799988, -0.1452932506799698, -0.08909980952739716], [-0.10402403026819229, -0.15994414687156677, -0.1576838344335556, -0.061116017401218414, -0.06298906356096268], [-0.009179356507956982, -0.14931809902191162, -0.1554889976978302, -0.1091381311416626, -0.17975890636444092]], [[-0.1487426906824112, -0.22266866266727448, -0.21346178650856018, -0.167357936501503, -0.17496460676193237], [-0.18949945271015167, -0.23870033025741577, -0.27390626072883606, -0.2654610574245453, -0.20882081985473633], [-0.2516632080078125, -0.25065821409225464, -0.22700828313827515, -0.29757967591285706, -0.24463200569152832], [-0.28937509655952454, -0.22604283690452576, -0.2013091892004013, -0.14001335203647614, -0.3058964014053345], [-0.1717272400856018, -0.11229202151298523, 0.008602181449532509, 0.0463467612862587, 0.06252596527338028]], [[-0.01863144338130951, -0.016951151192188263, -0.03722957894206047, 0.010058999061584473, 0.011076182126998901], [-0.050237685441970825, -0.04104698449373245, -0.050710756331682205, -0.011855125427246094, 0.055893346667289734], [0.03620553016662598, -0.03672827035188675, 0.009015873074531555, -0.019745979458093643, -0.01961740478873253], [0.0472513809800148, -0.05675055831670761, 0.010061807930469513, -0.05231058597564697, -0.009609218686819077], [-0.012909449636936188, -0.014861665666103363, 0.004470705986022949, -0.03535386174917221, 0.0047472380101680756]]], [[[-0.1464720070362091, -0.2555234432220459, -0.2708757817745209, -0.3169151544570923, -0.3762403130531311], [0.15724776685237885, 0.1697358340024948, 0.12013982236385345, 0.1378747671842575, 0.12200762331485748], [0.23377171158790588, 0.29724401235580444, 0.31419703364372253, 0.37918561697006226, 0.27457594871520996], [-0.21645201742649078, -0.009918480180203915, 0.16169624030590057, 0.17202316224575043, 0.14806339144706726], [-0.6018670797348022, -0.4322728216648102, -0.19681842625141144, -0.03993811458349228, 0.009958196431398392]], [[-0.24084073305130005, -0.23847417533397675, -0.2852244973182678, -0.29883629083633423, -0.3048819303512573], [-0.03827168419957161, -0.03768707439303398, -0.07713200896978378, -0.1385134607553482, -0.11038680374622345], [-0.03148146718740463, -0.003276728792116046, 0.011553877033293247, -0.029500991106033325, -0.04920481890439987], [-0.16464421153068542, -0.024508915841579437, 0.020377743989229202, 0.004980703815817833, -0.04177330061793327], [-0.3534332811832428, -0.21313723921775818, -0.1366463005542755, -0.09895699471235275, -0.151463583111763]], [[-0.0008435584604740143, 0.03858896344900131, -0.0026471130549907684, -0.05283864215016365, -0.05736777186393738], [-0.050195205956697464, -0.04753193259239197, 0.003954742103815079, 0.01842060685157776, 0.0073698535561561584], [-0.02587302401661873, -0.030629990622401237, 0.004907324910163879, -0.04140510410070419, -0.028026899322867393], [-0.046470772475004196, 0.05409567058086395, 0.007355093955993652, -0.014819063246250153, -0.04066234081983566], [0.03090129792690277, 0.0571475476026535, 0.05514086037874222, -0.017208002507686615, 0.054641641676425934]], [[-0.14155606925487518, -0.19450365006923676, -0.32755663990974426, -0.4343254566192627, -0.25628092885017395], [0.13530203700065613, 0.21228840947151184, 0.22486643493175507, 0.17792494595050812, -0.027585072442889214], [0.17464928328990936, 0.36193618178367615, 0.4885973036289215, 0.3394078016281128, 0.3654085397720337], [-0.13782642781734467, 0.11833652853965759, 0.36433348059654236, 0.3906770944595337, 0.26844340562820435], [-0.47560009360313416, -0.4702528119087219, -0.14504124224185944, -0.041585419327020645, 0.044645264744758606]], [[0.004157037008553743, -0.18071739375591278, -0.21388055384159088, -0.2809189558029175, -0.22360679507255554], [0.2984296977519989, 0.2747945189476013, 0.18458275496959686, 0.151797354221344, 0.1258103996515274], [0.301637202501297, 0.3537180721759796, 0.47716760635375977, 0.3911859691143036, 0.3892063498497009], [-0.21540550887584686, 0.01785792037844658, 0.34360215067863464, 0.3765362799167633, 0.28074997663497925], [-0.4881741404533386, -0.4462938904762268, -0.14783073961734772, 0.0268916804343462, 0.09619908034801483]], [[-0.023313917219638824, -0.06432655453681946, -0.15614786744117737, -0.21938076615333557, -0.2583601176738739], [0.10865581035614014, 0.08300095796585083, 0.05242986977100372, 0.07519462704658508, 0.035063426941633224], [0.08003801107406616, 0.1518191397190094, 0.1383112519979477, 0.17927676439285278, 0.16214405000209808], [-0.10791376233100891, -0.028956210240721703, 0.04103363677859306, 0.08181782811880112, 0.035762328654527664], [-0.39005130529403687, -0.2136669158935547, -0.13790708780288696, -0.08158458024263382, -0.04124724119901657]], [[0.01959381252527237, 0.019753053784370422, -0.031095676124095917, 0.042740873992443085, 0.022588171064853668], [0.036808282136917114, -0.03453525900840759, -0.05486895143985748, 0.017649918794631958, -0.03069184347987175], [-0.009964194148778915, 0.03980540484189987, -0.041174598038196564, -0.03529151529073715, 0.03090251237154007], [0.024358399212360382, -0.04760829359292984, -0.004630152136087418, -0.010204613208770752, 0.01055832952260971], [-0.024364423006772995, -0.0033637285232543945, 0.05750416964292526, 0.04641471058130264, 0.023366644978523254]], [[-0.11997786164283752, -0.14389637112617493, -0.1335696130990982, -0.0985080674290657, -0.1661720722913742], [-0.13297688961029053, -0.09871432185173035, -0.10683759301900864, -0.08080102503299713, -0.10625670850276947], [-0.07893116772174835, -0.07893424481153488, -0.10859761387109756, -0.0019411937100812793, -0.10384339094161987], [-0.12886616587638855, -0.15081694722175598, -0.1379908174276352, -0.13824597001075745, -0.13731960952281952], [-0.1355249434709549, -0.060295138508081436, -0.006753094028681517, -0.11747178435325623, -0.10796136409044266]], [[-0.14497311413288116, 0.4770940840244293, -0.616865873336792, -0.5236991047859192, -0.15852166712284088], [0.7969660758972168, 0.5090981125831604, 0.5780743360519409, 0.6189479827880859, 0.5208795070648193], [0.43863445520401, 0.7498207688331604, 1.1057642698287964, 0.8601357936859131, 0.3638612627983093], [0.22185270488262177, 0.5324516296386719, 0.33780795335769653, 0.458119660615921, 0.3624350428581238], [0.11900832504034042, -0.13616488873958588, 0.40955033898353577, 0.17844608426094055, -0.4826318025588989]], [[-0.0829695463180542, -0.13834719359874725, -0.11168922483921051, -0.19731509685516357, -0.07573360204696655], [-0.22720415890216827, -0.1030631959438324, -0.13162709772586823, -0.045704301446676254, -0.09328839927911758], [-0.1061386913061142, -0.02047981321811676, -0.0006510599050670862, -0.06352967023849487, 0.01707797311246395], [-0.03374611213803291, 0.06796588748693466, 0.06015576049685478, 0.05493604391813278, 0.04841890186071396], [-0.19760827720165253, -0.02282547764480114, -0.06860145181417465, -0.12779578566551208, 0.02095576375722885]], [[-0.06186261773109436, -0.05971377715468407, -0.17902874946594238, -0.12530845403671265, -0.22180816531181335], [0.09362625330686569, 0.12017147243022919, 0.030501101166009903, 0.01880534738302231, 0.06598244607448578], [0.012202084995806217, 0.08397413790225983, 0.14943157136440277, 0.06485825031995773, 0.03508339822292328], [-0.13447491824626923, -0.0017933379858732224, 0.03826340287923813, 0.032488252967596054, 0.006726869381964207], [-0.42031022906303406, -0.24406209588050842, -0.16214457154273987, -0.1606006920337677, -0.11225586384534836]], [[-0.027544012293219566, 0.03327757865190506, 0.02691580355167389, 0.03620987385511398, 0.03282011300325394], [0.05763212591409683, -0.0471763089299202, 0.04105846583843231, 0.04953096807003021, -0.026362325996160507], [0.0402446985244751, -0.027575768530368805, -0.02549828216433525, 0.021898873150348663, -0.021153293550014496], [-0.04413255676627159, 0.022431544959545135, -0.056216128170490265, 0.027257494628429413, -0.020562071353197098], [0.04674269258975983, -0.014311075210571289, -0.01084829866886139, -0.019766665995121002, 0.05462995171546936]]], [[[-0.3169390559196472, -0.24988341331481934, 0.019325677305459976, 0.047906626015901566, -0.1699693202972412], [-0.16809144616127014, 0.22134123742580414, 0.16403131186962128, 0.057722195982933044, -0.21887320280075073], [0.1645655781030655, 0.20358236134052277, 0.12428218871355057, -0.10633926838636398, -0.24178239703178406], [0.1832900047302246, -0.05292956903576851, -0.18494094908237457, -0.2848915755748749, -0.26632991433143616], [-0.041473109275102615, -0.20208890736103058, -0.2596127688884735, -0.2236131727695465, -0.054023563861846924]], [[-0.26492971181869507, 0.013603733852505684, -0.03206395357847214, -0.14725713431835175, -0.28979671001434326], [0.027730729430913925, 0.16575782001018524, -0.12877528369426727, -0.21657969057559967, -0.2613074481487274], [0.07622482627630234, 0.08061069995164871, -0.21150919795036316, -0.5038851499557495, -0.49004918336868286], [-0.13509425520896912, -0.22805559635162354, -0.5193259716033936, -0.6212798953056335, -0.6014857292175293], [-0.03658023849129677, -0.2564697861671448, -0.5033489465713501, -0.4390667676925659, -0.41586071252822876]], [[0.016102902591228485, -0.021677929908037186, -0.05172048881649971, -0.0504993237555027, 0.03864316642284393], [-0.04811476916074753, 0.0475631058216095, 0.012239590287208557, 0.0441153347492218, -0.011455930769443512], [-0.028849748894572258, -0.0031265653669834137, -0.05594706907868385, 0.0067245736718177795, 0.034128762781620026], [0.05105769634246826, -0.017141256481409073, 0.004281647503376007, -0.004647683352231979, -0.015878576785326004], [-0.01029181107878685, 0.03480309993028641, -0.05195371061563492, 0.007757000625133514, -0.023529287427663803]], [[-0.6202710270881653, 0.0934048667550087, 0.1828315109014511, 0.12191975861787796, -0.10904783755540848], [0.03337014466524124, 0.3067432940006256, 0.1809106469154358, -0.16077081859111786, -0.1490040272474289], [0.2042427957057953, 0.21195191144943237, 0.0330725759267807, -0.13036541640758514, -0.1630818396806717], [0.14677393436431885, 0.10796838998794556, -0.15985240042209625, -0.2524203360080719, -0.15235726535320282], [0.023602910339832306, -0.249121755361557, -0.250401109457016, -0.20132288336753845, -0.04364606738090515]], [[-0.22459928691387177, 0.07989001274108887, 0.0794873908162117, -0.0656081810593605, -0.29430487751960754], [0.10290393978357315, 0.37508490681648254, 0.22355924546718597, -0.23950637876987457, -0.07053395360708237], [0.34646284580230713, 0.3233164846897125, -0.06220279261469841, -0.17847885191440582, -0.10370179265737534], [0.24030552804470062, -0.06847535073757172, -0.28616416454315186, -0.31035757064819336, -0.35588860511779785], [-0.06807392835617065, -0.05184865742921829, -0.2681368589401245, -0.11550062894821167, -0.10016784071922302]], [[-0.1315566897392273, 0.04566061496734619, 0.1338369995355606, 0.03617676720023155, -0.07185152173042297], [0.07312781363725662, 0.23962236940860748, 0.1410611867904663, -0.15100932121276855, -0.18619559705257416], [0.1884307563304901, 0.0930447056889534, -0.14531059563159943, -0.23044751584529877, -0.3873139023780823], [0.08584985882043839, 0.03622334823012352, -0.31606897711753845, -0.3306751847267151, -0.48748934268951416], [0.009227775037288666, -0.048047855496406555, -0.2784445285797119, -0.07568308711051941, -0.08776416629552841]], [[0.022982701659202576, -0.0029654502868652344, -0.02652735635638237, 0.039930760860443115, -0.017434928566217422], [-0.0396258570253849, -0.015309643000364304, 0.03742174059152603, 0.0176437646150589, 0.04165760427713394], [-0.042319316416978836, -0.03150523081421852, 0.024329043924808502, -0.05327187851071358, -0.03573507443070412], [-0.013827003538608551, -0.005668468773365021, -0.012367408722639084, 0.017008207738399506, -0.04769251495599747], [0.034999825060367584, -0.019971080124378204, -0.018747732043266296, -0.018804829567670822, 0.05495351552963257]], [[0.036501601338386536, 0.08408065140247345, 0.03642541542649269, 0.044218018651008606, -0.02092004381120205], [0.13276979327201843, 0.04759414866566658, 0.19200272858142853, 0.04137134924530983, -0.05809389054775238], [0.0976109579205513, 0.22879473865032196, 0.059234436601400375, 0.03922847658395767, -0.08746509999036789], [0.03178107365965843, 0.1649649292230606, 0.11954869329929352, 0.008658812381327152, -0.05629373714327812], [0.05580820143222809, 0.05377591773867607, -0.06201426684856415, 0.03997788950800896, -0.17577481269836426]], [[-0.1563490331172943, -0.01294470764696598, 0.029214683920145035, -0.04617344215512276, -0.2270546555519104], [0.008501667529344559, -0.04260548949241638, 0.001051711617037654, 0.03768950328230858, -0.027988646179437637], [0.0013328520581126213, -0.03750407695770264, -0.06784704327583313, -0.02382773533463478, -0.04025142639875412], [-0.14590255916118622, -0.03770577535033226, -0.04326486960053444, -0.12043429166078568, -0.07823168486356735], [-0.10307452082633972, -0.10581370443105698, -0.11178529262542725, 0.008862045593559742, -0.0020266808569431305]], [[-0.054048746824264526, 0.02773507684469223, 0.03722550719976425, 0.22730636596679688, 0.15816959738731384], [-0.1319209784269333, -0.013718751259148121, 0.15825606882572174, 0.15045291185379028, 0.01044145692139864], [0.05150126293301582, 0.17274267971515656, 0.24849791824817657, -0.0018987348303198814, -0.033693064004182816], [0.02928078919649124, 0.23593994975090027, 0.05739869922399521, 0.004386411979794502, -0.021212849766016006], [0.056220803409814835, 0.04884341359138489, -0.03315502777695656, -0.017336655408143997, -0.16092362999916077]], [[-0.026936978101730347, 0.17259514331817627, 0.13994695246219635, 0.05978088825941086, -0.17689025402069092], [0.06664477288722992, 0.21729440987110138, 0.0067227003164589405, -0.14068211615085602, -0.22636361420154572], [0.13463124632835388, 0.17904028296470642, -0.0119861401617527, -0.2826012372970581, -0.4102960228919983], [-0.002004021778702736, 0.03716525435447693, -0.32524529099464417, -0.44369152188301086, -0.43055465817451477], [0.016454745084047318, -0.1954263299703598, -0.2756883203983307, -0.22717341780662537, -0.24906986951828003]], [[-0.046436063945293427, -0.025171540677547455, 0.010678350925445557, -0.029814917594194412, -0.05717312917113304], [0.02399308979511261, -0.029969636350870132, 0.05647900700569153, 0.029593847692012787, -0.03859994560480118], [0.038515813648700714, -0.019877009093761444, 0.015013761818408966, 0.0262657031416893, -0.054000064730644226], [-0.0477631650865078, 0.04222775995731354, -0.042708639055490494, -0.025773655623197556, 0.03587713837623596], [0.020075030624866486, 0.013888396322727203, -0.05724119767546654, -0.013287100940942764, 0.027709364891052246]]], [[[-0.5762432217597961, -0.25833800435066223, -0.1868964433670044, -0.212312713265419, -0.5381918549537659], [-0.47688138484954834, -0.27662721276283264, -0.06373559683561325, -0.19482845067977905, -0.4493953585624695], [-0.48734554648399353, -0.19998320937156677, -0.17792999744415283, -0.16995686292648315, -0.3289734721183777], [-0.30746012926101685, -0.07128453254699707, -0.22824883460998535, -0.23210258781909943, -0.35484570264816284], [-0.1824861615896225, -0.13055384159088135, -0.3578678369522095, -0.5491056442260742, -0.5803372859954834]], [[-0.40745508670806885, -0.2123154103755951, -0.25793197751045227, -0.46183204650878906, -0.6341803669929504], [-0.43994319438934326, -0.15779872238636017, -0.17842431366443634, -0.2168607860803604, -0.513927161693573], [-0.3053473234176636, -0.13943317532539368, -0.19532106816768646, -0.2903982996940613, -0.3890892267227173], [-0.3474251627922058, -0.12439093738794327, -0.23183970153331757, -0.2864212095737457, -0.5316321849822998], [-0.23540981113910675, -0.13606825470924377, -0.18841677904129028, -0.46210819482803345, -0.6022062301635742]], [[0.008347086608409882, 0.03458081930875778, 0.02077547460794449, -0.0008181855082511902, -0.04779849946498871], [0.043162740767002106, -0.0063481405377388, 0.026523016393184662, 0.009557582437992096, -0.028045976534485817], [-0.03855687379837036, -0.053568653762340546, -0.053586382418870926, -0.030854636803269386, 0.054053567349910736], [0.03443065285682678, 0.007915876805782318, 0.011501409113407135, 0.045016005635261536, 0.047904983162879944], [-0.019841674715280533, 0.026987336575984955, 0.04279790073633194, 0.032552897930145264, 0.01843385398387909]], [[-0.4124196767807007, -0.16956889629364014, -0.030777089297771454, -0.042582906782627106, -0.3386373519897461], [-0.4884478747844696, -0.18745049834251404, 0.05493203550577164, -0.021749643608927727, -0.36278244853019714], [-0.35685330629348755, -0.22197900712490082, 0.0853053480386734, -0.1141773983836174, -0.3733968734741211], [-0.37043023109436035, -0.028217433020472527, -0.16412827372550964, -0.15531529486179352, -0.33196040987968445], [-0.2869702875614166, -0.07712207734584808, -0.37320733070373535, -0.5180065631866455, -0.4088557958602905]], [[-0.4790700078010559, -0.10716564953327179, -0.07724140584468842, -0.2636701762676239, -0.4341987073421478], [-0.4807053506374359, -0.08608772605657578, -0.03825324401259422, -0.3259567618370056, -0.3954596519470215], [-0.26965126395225525, -0.12824782729148865, 0.02718585729598999, -0.12492202967405319, -0.18101945519447327], [-0.234257310628891, 0.0683424323797226, -0.04684888944029808, -0.32578763365745544, -0.33037176728248596], [-0.05889325216412544, -0.05126434564590454, -0.43830934166908264, -0.501623809337616, -0.6180248856544495]], [[-0.22625534236431122, -0.18560034036636353, -0.13143697381019592, -0.27765926718711853, -0.5553532838821411], [-0.27268287539482117, -0.20348630845546722, -0.020356666296720505, -0.1502515971660614, -0.283807635307312], [-0.3064902722835541, -0.22909976541996002, -0.08253492414951324, -0.21163421869277954, -0.36795371770858765], [-0.23832909762859344, -0.08106368035078049, -0.01909738779067993, -0.18108314275741577, -0.3654941916465759], [-0.24041412770748138, -0.08734914660453796, -0.17244192957878113, -0.41893890500068665, -0.5175278782844543]], [[-0.007167510688304901, 0.0026565194129943848, 0.049768149852752686, -0.038860663771629333, 0.026676610112190247], [0.019956238567829132, -0.05329278111457825, -0.030205467715859413, 0.03216294199228287, 0.043082959949970245], [-0.020863421261310577, 0.02069348841905594, 0.02088037133216858, -0.05771631374955177, 0.008610658347606659], [-0.01633961871266365, -0.03725507855415344, -0.046031784266233444, 0.020618624985218048, 0.02082347869873047], [-0.04158640652894974, -0.002736978232860565, -0.05735462158918381, 0.035166241228580475, -0.004340913146734238]], [[0.026768935844302177, 0.1581636369228363, 0.1955338716506958, 0.05524352565407753, -0.014126581139862537], [-0.015847697854042053, 0.06173966825008392, 0.19348600506782532, 0.07723423093557358, -0.05795180797576904], [-0.047320228070020676, 0.06778614223003387, 0.20561851561069489, 0.10432815551757812, 0.042901553213596344], [0.06600312143564224, 0.09464150667190552, 0.19122476875782013, 0.03708706796169281, 0.019445473328232765], [-0.0009836714016273618, 0.02140074595808983, 0.06495463103055954, 0.0565246157348156, -0.16500523686408997]], [[0.04982823505997658, 0.07665494829416275, 0.014532114379107952, -0.10760270804166794, -0.09916485846042633], [0.022016506642103195, -0.0023507627192884684, 0.007169987075030804, -0.004579627886414528, -0.045847468078136444], [0.05090375244617462, -0.08178693801164627, 0.010559945367276669, 0.0008233956759795547, -0.058172449469566345], [0.028832469135522842, 0.018725847825407982, -0.037199877202510834, -0.01766134612262249, -0.058927301317453384], [0.028022192418575287, -0.037166111171245575, -0.066368468105793, 0.028018087148666382, -0.12179156392812729]], [[-0.14747832715511322, -0.15038995444774628, -0.09923360496759415, -0.1321129947900772, -0.08031142503023148], [-0.19639091193675995, -0.0668414831161499, -0.06407543271780014, 0.029009955003857613, -0.050726279616355896], [-0.07850271463394165, -0.1078520193696022, -0.039889853447675705, 0.1311454325914383, 0.08378096669912338], [-0.12265034019947052, 0.0478961206972599, 0.11484522372484207, 0.17906776070594788, 0.01209728978574276], [-0.20372657477855682, -0.014949258416891098, 0.09004519134759903, 0.012897794134914875, -0.03925671428442001]], [[-0.3430018424987793, -0.07872648537158966, -0.12814001739025116, -0.1876649707555771, -0.4816453754901886], [-0.41061973571777344, -0.16567060351371765, -0.07814383506774902, -0.048386577516794205, -0.2243269383907318], [-0.2821049690246582, -0.052469395101070404, -0.0088761355727911, -0.25216883420944214, -0.3267260789871216], [-0.22552604973316193, -0.04552271589636803, -0.09225472807884216, -0.12511302530765533, -0.5077967643737793], [-0.17113114893436432, -0.16932934522628784, -0.2086951583623886, -0.5062777400016785, -0.4701698422431946]], [[-0.04991716146469116, -0.010330669581890106, 0.030378177762031555, -0.05031074211001396, 0.01580742746591568], [-0.04370744526386261, -0.0034013986587524414, -0.002095639705657959, 0.008633844554424286, 0.004056967794895172], [-0.0035133548080921173, -0.01995999738574028, -0.0008222460746765137, 0.01866322010755539, -2.134963870048523e-05], [-0.041407741606235504, 0.002696733921766281, -0.011006735265254974, 0.009506113827228546, 0.006615109741687775], [0.03319808840751648, -0.04127514362335205, -0.044249363243579865, 0.0509936660528183, 0.02899909019470215]]], [[[-0.31053194403648376, -0.15209536254405975, -0.19136014580726624, -0.1747821420431137, -0.3591260313987732], [-0.2447967529296875, 