{"0.weight": [[[[0.03236078470945358, 0.8505628108978271, 2.110074996948242, 0.05026450380682945, 2.3353030681610107], [0.9790924191474915, -2.078310251235962, -1.7489101886749268, -0.5265849828720093, -0.3957742750644684], [-2.944720983505249, -2.9109811782836914, -2.4026403427124023, -0.08454980701208115, 1.3612264394760132], [-4.367631912231445, -2.7917797565460205, -2.4171149730682373, 0.28909751772880554, 1.4018373489379883], [-2.883664131164551, -2.329050064086914, -1.1152889728546143, 1.1774083375930786, 2.3703408241271973]], [[-1.1812158823013306, -1.2324265241622925, -2.3789634704589844, -1.6928850412368774, -1.477292537689209], [-0.10353703051805496, -2.1993136405944824, -2.1579482555389404, -0.955213189125061, -2.2002549171447754], [-0.4054259657859802, -2.7758750915527344, -2.4023375511169434, -3.0682036876678467, -1.6476651430130005], [-1.015871286392212, -1.764336109161377, -3.5734333992004395, -2.3116438388824463, -2.30493426322937], [0.5151495933532715, -0.2857033312320709, -1.6287884712219238, -3.433344841003418, -2.7867937088012695]]], [[[-0.0680437758564949, -0.29131263494491577, -0.21414119005203247, -0.012238269671797752, -0.45866984128952026], [0.24373048543930054, 0.06484929472208023, -0.3028860092163086, 0.03929460793733597, 0.09250365197658539], [-0.040598656982183456, -0.08074652403593063, -0.13136518001556396, -0.23438982665538788, 0.11915381252765656], [-0.30152052640914917, -0.7285500764846802, -0.6511723399162292, -0.3569266200065613, -0.37012603878974915], [-0.37497150897979736, -0.432265043258667, -0.46784356236457825, -0.22927163541316986, -0.18970562517642975]], [[-0.09698784351348877, -0.14032898843288422, 0.241178497672081, -0.027931638062000275, -0.6830892562866211], [-0.05175400525331497, 0.3170408606529236, -0.010695153847336769, -0.30658388137817383, -0.6085890531539917], [0.0023078853264451027, 0.5811154246330261, 0.145657479763031, 0.3336586654186249, 0.018337734043598175], [0.062884122133255, 0.4132065176963806, 0.20442922413349152, -0.05703289061784744, -0.08968047797679901], [-0.1380416452884674, 0.19575171172618866, -0.04529097303748131, -0.2757273018360138, -0.4855975806713104]]], [[[-3.142446994781494, -2.822429895401001, -4.090864658355713, -4.053133487701416, -3.4695651531219482], [-4.160180568695068, -4.1617512702941895, -4.315430164337158, -2.8399763107299805, -3.5596041679382324], [-4.457629203796387, -4.637686729431152, -3.624398946762085, -2.7159006595611572, -2.178544044494629], [-3.579080104827881, -2.787651777267456, -1.4514530897140503, -0.8643012046813965, 0.5560253858566284], [-2.58644700050354, -1.3411067724227905, 0.33132755756378174, 0.07481510192155838, -0.013237573206424713]], [[1.6576327085494995, -0.364498496055603, 0.4448668658733368, -0.04287996515631676, 0.08535929024219513], [0.4186120629310608, -2.0917601585388184, -1.800276756286621, -2.8174455165863037, -3.9628570079803467], [-2.057321786880493, -4.399441242218018, -4.513629913330078, -4.822131156921387, -3.2668023109436035], [-2.17122745513916, -4.298542499542236, -4.304408550262451, -5.230815887451172, -4.720872402191162], [-1.7907447814941406, -2.7393813133239746, -4.2534613609313965, -4.045557498931885, -3.2458808422088623]]], [[[-1.26508629322052, -1.5202730894088745, -1.3568915128707886, -1.3482943773269653, -0.7171421051025391], [-1.4839236736297607, -1.5170148611068726, -1.5683485269546509, -1.269491195678711, -0.7403777837753296], [-1.5964235067367554, -1.5065499544143677, -1.3078752756118774, -1.509096622467041, -0.9908237457275391], [-1.0583956241607666, -1.6152820587158203, -0.9699890613555908, -1.0137356519699097, -0.26351574063301086], [-0.6748374104499817, -0.9794665575027466, -0.8592899441719055, -0.9520379304885864, -0.2813507616519928]], [[-0.7037113904953003, -0.7290771007537842, -0.5177295804023743, -0.5329422950744629, -0.48374417424201965], [-0.9470257759094238, -0.6873719096183777, -0.7960834503173828, -0.3721453845500946, -0.4051692485809326], [-0.6834676861763, -0.9371659755706787, -0.5821607112884521, -0.520456075668335, 0.003100090892985463], [-0.620841920375824, -0.6108152866363525, 0.1064828559756279, -0.19230975210666656, -0.18491621315479279], [-0.599145233631134, -0.4320169687271118, 0.6455502510070801, -0.01850942149758339, 0.8026529550552368]]], [[[-1.5218065977096558, -3.165389060974121, -2.9092235565185547, -3.537315845489502, -3.544762134552002], [-2.352524995803833, -3.7693932056427, -4.883168697357178, -4.274017333984375, -4.787234306335449], [-2.6268041133880615, -4.1293416023254395, -4.118223667144775, -3.809797525405884, -3.6584770679473877], [0.05050226300954819, 0.13635669648647308, -0.9502527117729187, -1.1269848346710205, -1.8145772218704224], [1.140756607055664, 3.1383235454559326, 3.008277177810669, 1.0130064487457275, 1.457647442817688]], [[-0.6009811758995056, -1.3899405002593994, -0.7427141070365906, -1.1327968835830688, -0.8133193254470825], [-0.1933344453573227, -1.799532413482666, -0.7781968712806702, -1.0510984659194946, -1.1409966945648193], [-1.3705730438232422, 0.30266934633255005, 0.6761370301246643, 0.8952885866165161, 0.8747752904891968], [-0.7162193655967712, 0.16226254403591156, 0.17217788100242615, 0.6455618739128113, 0.25538530945777893], [-1.5937620401382446, -2.413693428039551, -2.6628193855285645, -1.7403000593185425, -0.1529085487127304]]], [[[-0.482692152261734, -0.6315126419067383, -0.25453972816467285, -0.5032981634140015, -0.5880566239356995], [-0.4068848192691803, -0.5281826853752136, -0.6416707634925842, -0.8615719676017761, -0.900810956954956], [-0.7386089563369751, -0.6779068112373352, -0.6419552564620972, -0.5315576195716858, -0.730738639831543], [-0.6489865183830261, -0.4284112751483917, -0.49279260635375977, -0.7280710935592651, -0.35210728645324707], [-0.5112956166267395, -0.48834508657455444, -0.774042546749115, -0.5120223760604858, -0.13681310415267944]], [[-1.074775218963623, -0.9474316239356995, -1.003812313079834, -0.8908792734146118, -0.6789435744285583], [-0.9178227782249451, -0.9055759310722351, -1.0848885774612427, -0.6178867816925049, -0.5698847770690918], [-0.7971190214157104, -0.8182191252708435, -0.7209752798080444, -0.8617991805076599, -0.24756892025470734], [-0.705327570438385, -0.6125224232673645, -0.6263219714164734, -0.5369871258735657, -0.3204139471054077], [-0.643818199634552, -0.48096421360969543, -0.44095465540885925, -0.4058783948421478, -0.2595546841621399]]], [[[-1.4123263359069824, -1.1745896339416504, -1.0963249206542969, -1.1750959157943726, -1.2873387336730957], [-1.323872685432434, -1.8112765550613403, -1.711255669593811, -1.575230598449707, -1.1768628358840942], [-0.9453778862953186, -1.3617188930511475, -1.2851111888885498, -1.1263551712036133, -1.2482728958129883], [-1.1083416938781738, -1.098065733909607, -0.9058008790016174, -1.2502713203430176, -1.232568621635437], [-0.6874132752418518, -0.9205156564712524, -0.5464093685150146, -0.516059398651123, -0.5772784352302551]], [[-0.9435191750526428, -1.0369404554367065, -0.803638219833374, -0.8959459662437439, -1.1207681894302368], [-0.9922524690628052, -1.3822871446609497, -1.3257728815078735, -0.9692230820655823, -0.8405627608299255], [-0.5771533846855164, -0.9624873995780945, -1.347316861152649, -1.485935091972351, -1.2185534238815308], [-0.5417898893356323, -0.5804036259651184, -0.996311604976654, -1.1604323387145996, -1.1547315120697021], [-0.6142024397850037, -0.3262932002544403, -1.1150357723236084, -0.7942221760749817, -0.5861809849739075]]], [[[-0.7422683835029602, -0.5529954433441162, -0.5806142091751099, -0.1087648794054985, -0.2568407952785492], [-0.722295880317688, -0.7494328618049622, -0.5318254828453064, -0.29345715045928955, -0.5825921893119812], [-0.7648506164550781, -0.6298208236694336, -0.5460684895515442, -0.11525597423315048, -0.11765258759260178], [-0.5293084383010864, -0.4830118715763092, -0.4508463442325592, -0.5373694896697998, -0.009948746301233768], [-0.608586311340332, -0.4698719084262848, -0.4862697124481201, -0.578872561454773, -0.22349777817726135]], [[-0.644035279750824, -0.39388707280158997, -0.4457356631755829, -0.11021627485752106, -0.006967855151742697], [-0.5398882031440735, -0.5245576500892639, -0.3559580147266388, -0.10622327774763107, -0.1982056200504303], [-0.5334453582763672, -0.5345755219459534, -0.3467714786529541, -0.5161762237548828, -0.10889346152544022], [-0.4788230359554291, -0.5008884072303772, -0.26795873045921326, -0.123515784740448, 0.20424802601337433], [-0.4976957142353058, -0.6102645397186279, -0.0697760060429573, -0.28986477851867676, -0.0046907407231628895]]], [[[-2.2490577697753906, -2.4607410430908203, -1.7700409889221191, -2.470255136489868, -1.9974865913391113], [-0.4494543969631195, -0.2821858525276184, -0.7860199213027954, -0.7344297170639038, -0.542934000492096], [0.9530289769172668, 1.2076361179351807, 1.2419353723526, 1.4112285375595093, 1.3711562156677246], [0.9710891246795654, 0.3004015386104584, -0.11647551506757736, -0.0235566645860672, 0.5511451363563538], [-0.20624344050884247, -1.1959174871444702, -1.654288411140442, -2.0707011222839355, -0.397702693939209]], [[-0.030466895550489426, 0.4819980263710022, 0.5478006601333618, 1.1329052448272705, 2.228846788406372], [-0.5124397873878479, -0.2172924280166626, -0.6426749229431152, -0.39402279257774353, 0.3553391993045807], [-2.6318185329437256, -2.6161510944366455, -2.6357357501983643, -3.115447759628296, -2.490525484085083], [-2.6974549293518066, -2.4477219581604004, -2.276630163192749, -2.4005284309387207, -2.440901517868042], [-1.0984668731689453, -1.0922605991363525, -0.29805585741996765, 0.17106525599956512, -0.4510948061943054]]], [[[-0.13994958996772766, -0.2003438025712967, 0.12716415524482727, -0.20147964358329773, -0.2371947467327118], [-0.44951239228248596, -0.04989803582429886, 1.253108263015747, 0.43807896971702576, 0.06958463042974472], [0.10452142357826233, 0.8162931203842163, 0.9272982478141785, 1.8189387321472168, 1.481719732284546], [0.056631557643413544, 0.5319592952728271, 1.609815239906311, 0.863843560218811, 0.8469849824905396], [-0.24381336569786072, -0.603508710861206, -1.2186540365219116, -0.6410461664199829, -0.5226849913597107]], [[-0.16813308000564575, -0.2251921147108078, 0.9201482534408569, 1.8487823009490967, 0.784046471118927], [-0.5614104866981506, 0.24122563004493713, 0.5447964072227478, 0.13080625236034393, 0.5270030498504639], [0.04310354217886925, 0.2265343964099884, 2.073242425918579, 0.48081254959106445, 0.46713802218437195], [-0.07860078662633896, 0.18832294642925262, 0.2551480233669281, 0.09138129651546478, 0.07152892649173737], [-0.011222124099731445, 0.07944414019584656, 0.29646244645118713, 0.1221749484539032, -0.09763617813587189]]], [[[-0.5172669887542725, -0.23748882114887238, -0.20475181937217712, -0.28107255697250366, -0.04291719198226929], [-0.2860087454319, -0.26099565625190735, -0.2786930203437805, -0.10869821161031723, -0.19134624302387238], [-0.2369844913482666, -0.07026707381010056, 0.058935727924108505, -0.13355652987957, -0.2878638207912445], [-0.21215617656707764, -0.10163464397192001, 0.02167677879333496, -0.30982133746147156, -0.15963633358478546], [-0.32308822870254517, -0.3120417892932892, -0.06991221755743027, -0.013215147890150547, -0.060658928006887436]], [[-0.28669965267181396, -0.3567957878112793, -0.23134909570217133, -0.2756342589855194, -0.27356356382369995], [-0.26064008474349976, -0.49294668436050415, -0.23494373261928558, -0.14171960949897766, 0.010170319117605686], [-0.16410745680332184, -0.18053096532821655, -0.19889038801193237, -0.06995519250631332, -0.1153671070933342], [-0.173639714717865, -0.13230694830417633, -0.018849743530154228, -0.5813758373260498, -0.14676101505756378], [-0.31858471035957336, -0.27544331550598145, -0.08612290024757385, -0.19300170242786407, 0.10752993077039719]]], [[[-0.0062413690611720085, -0.1294431835412979, 0.1565980464220047, -0.151550754904747, -0.11543247848749161], [0.06276656687259674, -0.0022833743132650852, 0.3540847599506378, 0.20873749256134033, 0.0950491726398468], [-0.1501920223236084, 0.18534982204437256, 0.9366313219070435, 0.4159727692604065, 0.10289657115936279], [-0.09857890754938126, 0.27621808648109436, 0.5446144342422485, 0.4566161632537842, 0.5516809225082397], [-0.11325331032276154, 0.13810774683952332, 0.26556071639060974, 0.04337109252810478, 0.1452198028564453]], [[0.01689569465816021, 0.10748984664678574, 0.2619473934173584, -0.37920325994491577, 0.015791291370987892], [0.13743993639945984, 0.3939535617828369, 0.3213313817977905, 0.1614372581243515, 0.053620826452970505], [0.44494181871414185, 0.5202943682670593, 0.46320971846580505, 0.2041560858488083, 0.04411127045750618], [0.3275061249732971, 0.4481464624404907, 1.0894699096679688, 0.3472113609313965, 0.14799533784389496], [0.26891040802001953, 0.3494059145450592, 0.21793857216835022, 0.09977273643016815, -0.4398978650569916]]]], "0.bias": [-0.21753670275211334, 0.49687623977661133, 1.641318440437317, 0.7895311713218689, -0.6720322370529175, -0.8359887003898621, 0.850102961063385, -1.1076710224151611, -0.773236870765686, -0.02495277300477028, 0.06949374824762344, 0.11445555835962296], "3.weight": [[[[-0.8657054901123047, -0.524622917175293, 1.4295835494995117, -0.9989847540855408, -0.6805887818336487], [0.37188324332237244, -0.3019481897354126, -0.6999292373657227, -0.9483329653739929, -1.0332125425338745], [0.7063215970993042, -0.0686570554971695, -0.6386666297912598, -1.4709676504135132, -0.8359003067016602], [0.36604684591293335, -0.31264370679855347, -0.5498780608177185, -0.9253931045532227, -1.340140700340271], [0.7156241536140442, 0.1957164853811264, -0.8962175846099854, -0.02227620780467987, 0.24861356616020203]], [[-0.11794979870319366, -0.031033212319016457, -0.41126498579978943, -0.5218367576599121, -0.7412611246109009], [-0.19546304643154144, -0.20623809099197388, -0.48946645855903625, -0.7129737138748169, -0.5529664754867554], [-0.1535620242357254, -0.2718846797943115, -0.4656391441822052, -0.6246726512908936, -0.6822025179862976], [-0.2277841567993164, -0.4656134247779846, -0.7469497323036194, -0.5530600547790527, -0.9191782474517822], [-0.4154892861843109, -0.4377400279045105, -0.5660744309425354, -0.6177515387535095, -0.8318573832511902]], [[-1.9917190074920654, -2.008498191833496, -1.9268304109573364, -1.4538965225219727, -1.2026513814926147], [-1.4383131265640259, -2.2394702434539795, -1.4797848463058472, -1.1509816646575928, -1.4472992420196533], [-2.1261119842529297, -1.3220511674880981, -1.453780174255371, -1.0822025537490845, -1.0320823192596436], [-1.483736276626587, -1.9399744272232056, -1.9562768936157227, -1.4184725284576416, -1.8461439609527588], [-1.6769626140594482, -1.4048560857772827, -1.1122081279754639, -0.8968878388404846, -1.315744161605835]], [[-0.30794835090637207, -0.3855929672718048, -0.9474951028823853, -1.1791439056396484, -1.1285432577133179], [-0.1484970599412918, -0.7214887738227844, -1.0447591543197632, -1.2188305854797363, -1.3208550214767456], [-0.812147855758667, -0.9017276167869568, -0.993101954460144, -0.9030898809432983, -1.0556986331939697], [-0.797171950340271, -0.5736066699028015, -1.229355812072754, -1.252021312713623, -1.0722455978393555], [-0.5336283445358276, -1.06337308883667, -1.2468281984329224, -1.1163967847824097, -1.323606014251709]], [[-1.1373995542526245, -0.33372822403907776, -0.38092467188835144, -1.2331236600875854, -1.1059075593948364], [-1.2425389289855957, 0.02273215726017952, -0.1919029951095581, 0.0664236918091774, -0.6722413897514343], [-1.8707281351089478, -1.8056919574737549, -1.527877926826477, -1.4050227403640747, -2.351613759994507], [-1.2268877029418945, -1.428282618522644, -1.0232642889022827, -1.2339770793914795, -1.5875399112701416], [-0.2608025372028351, -1.622502088546753, -1.5779725313186646, -0.7826710343360901, -1.5923017263412476]], [[0.27466294169425964, -0.2697494924068451, 0.20250630378723145, 0.17461179196834564, 0.021830901503562927], [0.21243418753147125, 0.13985177874565125, 0.2876865267753601, 0.35791897773742676, 0.1009591743350029], [0.3411811888217926, -0.23565909266471863, 0.2371557652950287, 0.40746766328811646, 0.2835882902145386], [0.37172746658325195, 0.003300584154203534, 0.2970868945121765, 0.31225717067718506, -0.1911441683769226], [-0.2522439658641815, 0.4021128714084625, 0.30648404359817505, 0.0879938080906868, 0.06079605221748352]], [[-0.2831288278102875, -0.5857463479042053, -0.7157835364341736, -0.6110755801200867, -0.7876408100128174], [-0.3926161825656891, -0.59474116563797, -1.0037846565246582, -0.7170804142951965, -0.569838285446167], [-0.4831220209598541, -0.7496843934059143, -0.9413620233535767, -0.870010495185852, -0.9264929294586182], [-0.6025846600532532, -0.8617749810218811, -0.9209744930267334, -0.7841842770576477, -0.7932060360908508], [-0.9423920512199402, -0.7637267112731934, -1.1537915468215942, -0.7269551157951355, -0.8073656558990479]], [[0.10361210256814957, -0.015633773058652878, -0.344481498003006, -0.3459511995315552, -0.3151262104511261], [0.02123008295893669, -0.12198877334594727, -0.23912501335144043, -0.3476157486438751, -0.4444046914577484], [-0.17335744202136993, -0.03122386708855629, -0.3823976218700409, -0.3847665786743164, -0.5039923787117004], [-0.08059139549732208, -0.19279584288597107, -0.4436645209789276, -0.29120224714279175, -0.3529674708843231], [-0.13302169740200043, -0.1609249860048294, -0.2362573742866516, -0.3256244361400604, -0.32574737071990967]], [[-0.320019394159317, -0.19890692830085754, -0.03779051452875137, -0.10915118455886841, -0.11836196482181549], [-0.024044018238782883, -0.02627292089164257, 0.09031268209218979, 0.00824639480561018, -0.10773248970508575], [0.11568694561719894, 0.055623460561037064, 0.02284162864089012, 0.0010636579245328903, -0.24426111578941345], [0.027137067168951035, 0.03334379196166992, -0.06865708529949188, -0.19726423919200897, -0.30115994811058044], [-0.04325530678033829, -0.030125705525279045, -0.2287985384464264, -0.32931551337242126, -0.4323771297931671]], [[0.00019239928224124014, -0.017252491787075996, -0.10211388021707535, -0.1895618587732315, -0.26035377383232117], [-0.08734971284866333, -0.11502781510353088, -0.18038782477378845, -0.24203400313854218, -0.29055196046829224], [-0.00490063801407814, -0.06455923616886139, -0.35557734966278076, -0.21691067516803741, -0.3265147805213928], [-0.027385495603084564, -0.12849770486354828, -0.2930508852005005, -0.31768709421157837, -0.41696131229400635], [-0.14552582800388336, -0.23442862927913666, -0.40908005833625793, -0.4440125823020935, -0.6506590843200684]], [[0.11613878607749939, 0.051448315382003784, 0.1379096806049347, -0.011673171073198318, -0.041658665984869], [0.12475655227899551, 0.12388741970062256, 0.10747277736663818, 0.01139525044709444, -0.1400156468153], [0.16754265129566193, 0.0785820260643959, -0.09524542093276978, 0.2329547107219696, 0.18901869654655457], [0.11882755905389786, -0.13187208771705627, 0.08586598187685013, 0.058136433362960815, 0.14020708203315735], [0.18254786729812622, 0.1108432188630104, 0.08101648837327957, 0.11804477870464325, 0.08981890976428986]], [[0.04067040979862213, -0.042453669011592865, -0.15257775783538818, -0.3255667984485626, -0.26850199699401855], [-0.0619872622191906, -0.09613222628831863, -0.19470317661762238, -0.271762877702713, -0.26176944375038147], [0.024307874962687492, -0.20837795734405518, -0.32967859506607056, -0.36963212490081787, -0.42945727705955505], [-0.12388025969266891, -0.11551127582788467, -0.29532405734062195, -0.41431698203086853, -0.45247969031333923], [-0.0741596445441246, -0.1937093883752823, -0.3661341369152069, -0.42590057849884033, -0.5039588809013367]]], [[[-0.25038477778434753, -1.0430673360824585, -0.8421595692634583, -0.7458674907684326, -0.8153541684150696], [-0.9314437508583069, -2.152390241622925, -1.70527184009552, -0.46076247096061707, -0.5194541811943054], [-1.263437032699585, -1.0328024625778198, -1.1468337774276733, -0.7135982513427734, -0.8061074614524841], [-1.1253759860992432, -1.5077260732650757, -0.3421628475189209, -2.0364110469818115, -1.5551356077194214], [-0.4947793483734131, -0.44847145676612854, -1.2099133729934692, -1.7737475633621216, -0.0674460157752037]], [[-1.4196842908859253, -1.3338961601257324, -1.180387258529663, -0.8490588068962097, -0.9335898160934448], [-1.3713525533676147, -1.2796859741210938, -1.0917820930480957, -0.8896148800849915, -0.7751988768577576], [-0.8872387409210205, -0.752481997013092, -0.56143718957901, -0.271564245223999, -0.42738088965415955], [-0.6380700469017029, -0.47532811760902405, -0.41135621070861816, -0.13155387341976166, -0.26565271615982056], [-0.6422563195228577, -0.1974630206823349, -0.21696655452251434, -0.1168288066983223, -0.02217794954776764]], [[-0.92186439037323, -1.5917959213256836, -1.6808116436004639, -2.052593946456909, -1.7052147388458252], [-0.8536410331726074, -1.3465274572372437, -1.8798123598098755, -1.8911290168762207, -1.6218862533569336], [-1.6401857137680054, -1.5037002563476562, -1.6444889307022095, -2.060338258743286, -2.018645763397217], [-1.295440912246704, -1.4481277465820312, -1.7359862327575684, -2.0491316318511963, -1.696894645690918], [-1.723307490348816, -1.7478303909301758, -1.878729224205017, -1.798076868057251, -1.7461286783218384]], [[-0.437444269657135, -0.3054996430873871, -0.42627954483032227, -0.290633887052536, -0.33772867918014526], [-0.47716501355171204, -0.3713175654411316, -0.1440926343202591, -0.2667061388492584, -0.4602845013141632], [-0.23907428979873657, -0.11936327069997787, 0.11838996410369873, -0.05206286534667015, -0.29277437925338745], [0.009123189374804497, 0.057100459933280945, -0.03631231188774109, -0.050620630383491516, -0.24773265421390533], [-0.09637618809938431, -0.08399395644664764, 0.1195615604519844, 0.08563066273927689, 0.008984728716313839]], [[-0.4532541334629059, -0.364269495010376, -0.09883648157119751, 0.3101003170013428, 0.3112923502922058], [-0.2927412688732147, 0.32278963923454285, -0.38780638575553894, -0.443964421749115, -0.09439793974161148], [0.41554638743400574, -0.3307906687259674, -0.25507599115371704, -0.5769467353820801, -0.45547664165496826], [-0.46891501545906067, -0.3172384798526764, -0.3218079209327698, -0.08333168923854828, -0.38827842473983765], [0.10334375500679016, 0.3111431896686554, -0.45606520771980286, 0.19921506941318512, -0.3273133635520935]], [[0.3165280818939209, 0.15486972033977509, 0.04511038213968277, 0.32686132192611694, 0.021027017384767532], [-0.10376079380512238, 0.272378534078598, 0.29745811223983765, 0.04901118203997612, 0.38193365931510925], [0.29315829277038574, 0.43824899196624756, 0.43585458397865295, 0.34758156538009644, 0.17212511599063873], [-0.01521306112408638, 0.2969614863395691, 0.12303312867879868, -0.1403014063835144, -0.2567828893661499], [0.3907484710216522, -0.1996305137872696, -0.05408131331205368, 0.3384047746658325, -0.13739335536956787]], [[-1.758386254310608, -1.7332929372787476, -1.873744010925293, -1.7229583263397217, -1.7869277000427246], [-1.5798474550247192, -1.8699101209640503, -1.7698969841003418, -1.733545184135437, -1.4287818670272827], [-1.7574900388717651, -1.558619499206543, -1.6579899787902832, -0.7422938346862793, -1.6501131057739258], [-1.617638349533081, -1.9507522583007812, -1.35276460647583, -0.9781199097633362, -0.6573575735092163], [-1.8744869232177734, -1.513683795928955, -1.6147915124893188, -1.5676711797714233, -0.9537729024887085]], [[0.4011947214603424, 0.006923859938979149, 0.05536077171564102, 0.13006097078323364, 0.3209242820739746], [0.28078073263168335, 0.35460805892944336, 0.25305721163749695, 0.36395272612571716, 0.5365492701530457], [0.27737367153167725, 0.3875999450683594, 0.3296625316143036, 0.4410964250564575, 0.5639081597328186], [0.21822747588157654, 0.3454459309577942, 0.34595543146133423, 0.5390675067901611, 0.5769661068916321], [0.4663589596748352, 0.4226362407207489, 0.18039675056934357, 0.5091235637664795, 0.24491533637046814]], [[0.9433339834213257, 1.0448468923568726, 0.5567134022712708, 0.14490339159965515, 0.16814438998699188], [0.8088763952255249, 0.7814922332763672, 0.10973261296749115, 1.4411834478378296, 1.8214470148086548], [0.6406184434890747, 1.2120716571807861, 1.067325472831726, 0.7085845470428467, 0.3688639998435974], [0.5395952463150024, 0.9900966882705688, 0.7431250214576721, 1.0033941268920898, 0.5415346026420593], [0.06229836121201515, 0.33488690853118896, -0.11605006456375122, 0.4359916150569916, 0.2151796817779541]], [[-0.4715600609779358, -0.43060511350631714, -0.19837899506092072, -0.24213258922100067, -0.38566869497299194], [-0.5967475175857544, -0.20483975112438202, -0.055321820080280304, -0.3126783072948456, -0.32585105299949646], [-0.4313013553619385, -0.37781384587287903, -0.23943263292312622, -0.2259475737810135, -0.3732343316078186], [-0.36387136578559875, -0.16498692333698273, -0.2220599502325058, 0.08187638968229294, -0.06148965656757355], [-0.3678182363510132, 0.03675446659326553, 0.06066856160759926, 0.019077230244874954, 0.030391212552785873]], [[-0.09042374044656754, -0.1575467735528946, 0.13972686231136322, 0.13730353116989136, -0.10358835011720657], [0.03596805781126022, -0.17908762395381927, 0.11794501543045044, -0.20047593116760254, 0.1298418492078781], [0.18592379987239838, -0.07760771363973618, 0.15836216509342194, 0.07303713262081146, 0.04292577877640724], [0.034094974398612976, 0.13807688653469086, 0.2077026665210724, 0.2156619429588318, 0.003333323635160923], [0.07555428892374039, 0.039492201060056686, 0.20371460914611816, -0.16089288890361786, 0.07164263725280762]], [[-0.9169061779975891, -0.6460825204849243, -0.476500004529953, -0.4629471004009247, -0.4650973379611969], [-0.6288677453994751, -0.5236532092094421, -0.4058269262313843, -0.4261437952518463, -0.4463624060153961], [-0.6037554740905762, -0.31157535314559937, -0.33664631843566895, -0.2941233217716217, -0.1573728322982788], [-0.2856591045856476, -0.26418182253837585, -0.04993915557861328, -0.03596719354391098, -0.06810829788446426], [-0.17994235455989838, -0.13781264424324036, -0.17004626989364624, -0.04618041217327118, -0.03936868906021118]]], [[[-0.05158376321196556, -0.05953286588191986, -2.4815402030944824, 1.9203052520751953, -0.8786115050315857], [1.124216914176941, -2.8921971321105957, 0.3788054585456848, -1.9787660837173462, -1.1100250482559204], [-0.4039705693721771, 1.9904069900512695, -0.05675794184207916, 0.06300817430019379, -1.0725939273834229], [-0.4453413188457489, -1.1563187837600708, 1.2356061935424805, 0.4093920886516571, -0.14494086802005768], [-2.0806047916412354, 0.27798694372177124, 0.04585079476237297, -1.0771818161010742, -1.3386567831039429]], [[-1.15519380569458, -0.9338967204093933, -0.829687237739563, -0.70183265209198, -0.48250722885131836], [-1.113472580909729, -0.8872323036193848, -1.0729620456695557, -0.8562606573104858, -0.6615259051322937], [-0.6710418462753296, -0.9430477023124695, -0.6308627128601074, -0.7109105587005615, -0.7815432548522949], [-0.9033032655715942, -0.7139881253242493, -0.8586558699607849, -0.8906872272491455, -0.375418484210968], [-0.40909433364868164, -0.5651676058769226, -0.8481279015541077, -1.0185803174972534, -0.6766301393508911]], [[-2.305208206176758, -2.2059171199798584, -2.434957981109619, -2.6271064281463623, -2.3601717948913574], [-3.2482166290283203, -2.5767719745635986, -3.0009589195251465, -2.3233814239501953, -0.9680876135826111], [-1.9192501306533813, -2.995591640472412, -2.217567205429077, -2.000681161880493, -2.466262102127075], [-2.3345658779144287, -2.4176552295684814, -3.384169340133667, -2.9845263957977295, -3.880037307739258], [-2.7458770275115967, -2.352360963821411, -2.6171562671661377, -2.918494701385498, -3.1234991550445557]], [[-0.9270113706588745, -0.8539699912071228, -0.5916867852210999, -0.3978751301765442, 0.16227175295352936], [-0.7024053335189819, -0.8979246020317078, -0.9127305746078491, -0.9496782422065735, -0.4505607783794403], [-1.1158905029296875, -1.2382597923278809, -0.30520594120025635, -0.5165901184082031, -0.6319445371627808], [-0.6999645829200745, -0.6521279215812683, -0.42949968576431274, -0.32119324803352356, -0.8292396068572998], [-0.4485390782356262, -0.5973175764083862, -0.6586799621582031, -0.6380979418754578, -0.4831520915031433]], [[-0.2615182399749756, -0.3902119994163513, 1.879478096961975, 2.0997660160064697, -2.011049509048462], [-1.4502846002578735, 0.14102648198604584, -1.6096177101135254, -0.4916934370994568, -1.5346705913543701], [-0.6378100514411926, -1.5341410636901855, -1.748888373374939, -1.9586131572723389, -2.1880075931549072], [-0.7200356125831604, -1.648903250694275, -1.7319611310958862, -2.8047890663146973, -2.4005165100097656], [-0.02591235563158989, 0.37913286685943604, -1.9542951583862305, -2.336167573928833, -1.557627558708191]], [[0.2548060417175293, 0.2658868134021759, -0.2736967206001282, 0.26982030272483826, 0.01766999438405037], [0.20425142347812653, 0.052286483347415924, 0.023823287338018417, 0.054378461092710495, -0.2976360023021698], [0.08501912653446198, 0.02628357894718647, -0.034506622701883316, 0.11868531256914139, -0.009121449664235115], [0.06488176435232162, 0.0103698605671525, -0.1777448207139969, 0.05822737514972687, 0.3234458565711975], [0.43546149134635925, -0.31933268904685974, 0.1913323849439621, 0.2988305687904358, -0.12402836978435516]], [[-1.0265326499938965, -1.1010645627975464, -0.9754176139831543, -0.5787854194641113, -0.7204118371009827], [-0.7974069118499756, -0.7756322622299194, -0.9995891451835632, -0.8934726715087891, -0.8901296854019165], [-1.230546236038208, -1.018886685371399, -0.6600790619850159, -1.3651432991027832, -0.7863641381263733], [-0.44507190585136414, -1.11432683467865, -0.6799733638763428, -0.8720306754112244, -0.585334062576294], [-0.8820428252220154, -0.8546295762062073, -0.6907344460487366, -1.0705212354660034, -1.1287195682525635]], [[-0.28585749864578247, -0.1802467554807663, -0.11875366419553757, -0.028951985761523247, 0.043144404888153076], [-0.17179609835147858, -0.410355806350708, -0.0911056399345398, -0.09251531213521957, -0.2236800342798233], [-0.06385636329650879, -0.0669361799955368, -0.16294439136981964, -0.0790911465883255, -0.0714769959449768], [-0.1483098864555359, -0.0364033579826355, 0.012622319161891937, -0.071693554520607, -0.06225069239735603], [-0.1561814695596695, -0.054173629730939865, 0.0722547322511673, -0.14637012779712677, -0.22067023813724518]], [[0.5451868772506714, -0.8245946764945984, -0.8496536612510681, -1.1930019855499268, -0.9361027479171753], [-0.3245176374912262, -0.3627055287361145, 2.5186777114868164, 1.0641419887542725, 0.02162860333919525], [-1.0300499200820923, -0.7073070406913757, -1.0648497343063354, -1.754533052444458, 0.02163119800388813], [-0.7627308964729309, -0.22284109890460968, -0.7848830223083496, -0.9353318810462952, -0.6212970614433289], [-1.2648587226867676, -0.9973627924919128, -0.29241037368774414, -1.0069725513458252, -1.6120496988296509]], [[-1.3743648529052734, -0.28734681010246277, 0.1277533322572708, 0.30875542759895325, -0.32222580909729004], [-0.4977259635925293, 0.38247859477996826, -0.014077076688408852, 0.5854688882827759, -0.07771790772676468], [-0.5583757162094116, -0.520950973033905, -0.2131223827600479, 0.25763261318206787, -0.918099045753479], [-0.5598416328430176, -0.378778338432312, -0.24946199357509613, -0.3460974097251892, -0.7138190269470215], [-0.5801992416381836, -0.13475939631462097, -0.21292871236801147, -0.47026771306991577, -0.2790903151035309]], [[0.1258321851491928, -0.11456240713596344, -0.10094956308603287, -0.013671549037098885, -0.18340642750263214], [-0.059323351830244064, -0.17707446217536926, 0.06269144266843796, 0.04655849561095238, 0.020709635689854622], [0.11594202369451523, -0.03319164365530014, -0.04516948014497757, -0.10701527446508408, -0.12221463769674301], [-0.1575746238231659, -0.017831891775131226, -0.004881373140960932, 0.0262300968170166, -0.046404045075178146], [0.17799656093120575, -0.06441597640514374, 0.14016245305538177, 0.04739629849791527, -0.029334288090467453]], [[-0.5784828066825867, -0.40727853775024414, -0.4171904921531677, -0.26139023900032043, -0.12485507875680923], [-0.3343440592288971, -0.4801298677921295, -0.2232946902513504, -0.3870081305503845, -0.36073440313339233], [-0.38406163454055786, -0.4143878221511841, -0.40725329518318176, -0.3107347786426544, -0.39611366391181946], [-0.42021581530570984, -0.40592968463897705, -0.4618666172027588, -0.39355915784835815, -0.4398964047431946], [-0.326555997133255, -0.41709935665130615, -0.3882153630256653, -0.4253315031528473, -0.4172831177711487]]], [[[-1.3370496034622192, 0.3005383312702179, 0.39005908370018005, -1.7127104997634888, -2.6071090698242188], [-0.8318526148796082, -2.0051052570343018, -1.630260705947876, -0.3846043050289154, -0.1935991793870926], [-1.4574469327926636, -1.945706844329834, -0.9452300071716309, -0.26845553517341614, 0.6027713418006897], [-1.017815113067627, -1.3356246948242188, -1.7505261898040771, -0.0014318113680928946, -0.7329875826835632], [0.5582772493362427, -0.8830171227455139, 0.6283140182495117, -1.2574005126953125, -1.8736282587051392]], [[-1.3474549055099487, -1.4816960096359253, -1.5518379211425781, -1.180654764175415, -1.2910912036895752], [-0.8913460373878479, -1.0177685022354126, -1.6372630596160889, -1.2528189420700073, -1.3144434690475464], [-0.6225681304931641, -1.0773272514343262, -1.2297898530960083, -1.300700068473816, -1.388130784034729], [-0.9267129302024841, -1.136046290397644, -1.3652468919754028, -1.224538803100586, -1.1991034746170044], [-1.1436961889266968, -1.0854237079620361, -1.3360052108764648, -1.1824829578399658, -1.342471718788147]], [[-1.6489835977554321, -0.8277014493942261, -1.5033817291259766, -1.4045249223709106, -1.4059689044952393], [-1.139958381652832, -0.5728862285614014, -1.7251204252243042, -1.1647329330444336, -0.36667895317077637], [-1.5794702768325806, -0.9248671531677246, -0.839066207408905, -0.983962893486023, -1.0506932735443115], [-0.8388310670852661, -0.8618612289428711, -1.255043625831604, -1.174668312072754, -0.819390058517456], [-1.580412745475769, -1.3030858039855957, -0.7036160826683044, -0.5548445582389832, -0.9552075862884521]], [[-1.0440846681594849, -1.617652177810669, -1.4046640396118164, -1.30867600440979, -1.169296145439148], [-1.0020817518234253, -1.4802772998809814, -1.3927019834518433, -1.569054365158081, -1.4206379652023315], [-1.5032519102096558, -1.584990382194519, -1.5315061807632446, -1.5571057796478271, -1.5885331630706787], [-1.4742496013641357, -1.1734579801559448, -1.5364351272583008, -1.5053751468658447, -1.4478594064712524], [-1.0934089422225952, -1.3856827020645142, -1.4839037656784058, -1.664015293121338, -1.1351737976074219]], [[-0.25092583894729614, -0.0771072581410408, 0.054653286933898926, 0.11420734971761703, -0.16800040006637573], [-0.224246084690094, -0.5617924928665161, 0.1655970960855484, -0.1532895267009735, -0.5803659558296204], [-0.7695112228393555, -0.7426285743713379, -0.4781523048877716, -1.0636354684829712, -0.8776454925537109], [-0.06505632400512695, -0.4591140151023865, -0.6612735986709595, -0.7277057766914368, -0.8462679982185364], [0.1439993977546692, -0.026588520035147667, 0.29063737392425537, -0.39652058482170105, 0.20147913694381714]], [[-0.30755022168159485, -0.15585096180438995, -0.04741424694657326, 0.16740302741527557, -0.24885402619838715], [0.20752733945846558, -0.20255103707313538, -0.29835760593414307, 0.2216784805059433, 0.3388672173023224], [0.19220596551895142, -0.3954300582408905, 0.1155809611082077, -0.37558940052986145, 0.16608071327209473], [0.28616663813591003, -0.3840225338935852, -0.021957045421004295, -0.09105697274208069, 0.027819225564599037], [-0.2221500724554062, -0.3065483570098877, -0.29125842452049255, 0.2224397361278534, -0.30783864855766296]], [[-1.2226057052612305, -1.6966233253479004, -1.063614010810852, -0.8455598950386047, -0.9360674619674683], [-1.3249516487121582, -1.6680552959442139, -1.212530493736267, -1.8194390535354614, -1.1988497972488403], [-1.2205144166946411, -2.1418285369873047, -1.6263220310211182, -1.3683586120605469, -1.305713415145874], [-1.8837649822235107, -1.3571404218673706, -1.4029449224472046, -1.2305119037628174, -1.8308212757110596], [-2.1085362434387207, -1.405800461769104, -1.898128867149353, -1.4764751195907593, -1.4549601078033447]], [[-0.1518440693616867, -0.23659692704677582, -0.08680445700883865, -0.3450985252857208, -0.054056745022535324], [-0.31128284335136414, -0.3103734254837036, -0.2813253700733185, -0.3742949068546295, -0.2701202929019928], [-0.3663231134414673, -0.4313832223415375, -0.40233200788497925, -0.1701747626066208, -0.2716093063354492], [-0.2579847574234009, -0.2907482981681824, -0.26350876688957214, -0.13480333983898163, -0.12490927428007126], [-0.21444791555404663, -0.3653728663921356, -0.10409430414438248, -0.016783392056822777, 0.0812009871006012]], [[0.6755103468894958, 0.8298278450965881, 0.8492035865783691, 0.09079630672931671, 1.4169903993606567], [0.9407422542572021, 0.7518777251243591, 0.722191572189331, 0.6823840141296387, 0.29930979013442993], [1.288839340209961, 1.2721995115280151, 0.7567557692527771, 0.8522884249687195, 0.9003630876541138], [0.9619414806365967, 0.31528177857398987, 0.20521511137485504, 0.2778208553791046, 0.3510849177837372], [0.4560728967189789, 0.2508506774902344, 0.11257531493902206, 0.016755513846874237, 0.5630889534950256]], [[-0.39059364795684814, -0.9157680869102478, -1.0035704374313354, -0.9904508590698242, -1.0718152523040771], [-0.2428429126739502, -0.7439281940460205, -0.781258761882782, -0.8300725221633911, -1.0861830711364746], [-0.08430708944797516, -0.5485678911209106, -0.46120044589042664, -0.6485874652862549, -0.9141979813575745], [-0.7747042775154114, -0.5898894667625427, -0.4819710850715637, -0.3504326641559601, -0.7466978430747986], [-0.5438188314437866, -0.3635129928588867, -0.38526245951652527, -0.4319285750389099, -0.8692835569381714]], [[0.1564093977212906, 0.23885390162467957, -0.08728005737066269, 0.15565140545368195, 0.06407041847705841], [0.17288751900196075, -0.06921239197254181, -0.09064670652151108, 0.07587983459234238, 0.14872761070728302], [0.10802733898162842, 0.16678722202777863, -0.15520229935646057, -0.009859137237071991, 0.04786253720521927], [-0.10201692581176758, -0.06781408190727234, -0.0719955638051033, 0.05394408106803894, 0.08760035783052444], [0.12508152425289154, 0.00684599531814456, -0.07890503108501434, 0.040468066930770874, 0.08283205330371857]], [[-0.27612122893333435, -0.43083518743515015, -0.759828507900238, -0.6887992024421692, -0.651919960975647], [-0.12887358665466309, -0.34700334072113037, -0.6292135715484619, -0.6491371393203735, -0.7715756297111511], [-0.07248985022306442, -0.5350269675254822, -0.42656365036964417, -0.5417613983154297, -0.6517647504806519], [-0.6723707914352417, -0.5427720546722412, -0.5601552128791809, -0.49691957235336304, -0.6813990473747253], [-0.6670167446136475, -0.5048155188560486, -0.4279181659221649, -0.5028738379478455, -0.6724154949188232]]], [[[2.1366002559661865, 1.0193325281143188, 1.1949373483657837, 1.2502930164337158, -0.8275277018547058], [0.723648190498352, 0.5196144580841064, 0.10693229734897614, 1.1848734617233276, -0.05673015117645264], [0.20018179714679718, 0.7470145225524902, 1.2562817335128784, 0.10218493640422821, 0.3495907485485077], [1.7689862251281738, -0.5004605054855347, 0.7304155826568604, -0.05679657310247421, -0.27266398072242737], [0.038379229605197906, 1.1220990419387817, 0.9505209922790527, 0.330855131149292, 0.5621439218521118]], [[-1.7606968879699707, -1.3593982458114624, -1.135746955871582, -0.9920780658721924, -0.9824568629264832], [-1.570245385169983, -1.4134553670883179, -1.0472670793533325, -1.0115160942077637, -0.9459954500198364], [-1.504585862159729, -1.5345667600631714, -1.3712984323501587, -1.0684254169464111, -0.612769603729248], [-1.561143159866333, -1.4630566835403442, -1.0970309972763062, -0.8189800381660461, -0.4089719355106354], [-1.0161454677581787, -1.0161552429199219, -0.9675399661064148, -0.45235130190849304, -0.3282547891139984]], [[-2.3413238525390625, -1.7103320360183716, -2.1380715370178223, -1.1353869438171387, -1.4574973583221436], [-1.4656111001968384, -2.3884692192077637, -1.6969821453094482, -1.929375410079956, -1.492775559425354], [-1.9302650690078735, -1.6961826086044312, -1.8577529191970825, -2.29311203956604, -2.1051342487335205], [-2.5574581623077393, -1.8322526216506958, -2.781115770339966, -1.7025394439697266, -2.2497143745422363], [-2.7244021892547607, -2.1209299564361572, -2.3130218982696533, -1.690406084060669, -2.0892624855041504]], [[-1.5921931266784668, -1.1946061849594116, -1.3087704181671143, -0.7547546029090881, -0.5358433127403259], [-1.23676335811615, -1.4734649658203125, -0.9165822267532349, -0.8025327324867249, -0.46442943811416626], [-1.76087486743927, -1.5263383388519287, -0.766505777835846, -0.4718414545059204, -0.23035478591918945], [-1.5952188968658447, -1.1010150909423828, -0.858289897441864, -0.5544252395629883, -0.5512663722038269], [-1.0894453525543213, -1.17812979221344, -0.47327932715415955, -0.553164541721344, -0.24703086912631989]], [[-1.0990642309188843, -1.586995244026184, -0.6581270098686218, -0.7339226007461548, -1.2975276708602905], [0.4025838375091553, 0.8023795485496521, -1.0002249479293823, -0.8715278506278992, -1.7748521566390991], [0.16586489975452423, -0.6489704251289368, -0.12842737138271332, -0.7190757393836975, -1.4003859758377075], [0.8553484082221985, -0.49488863348960876, -0.0675431489944458, -0.542509913444519, -1.6619420051574707], [0.17256851494312286, -1.1544654369354248, -0.7598076462745667, -1.5608412027359009, -0.46574750542640686]], [[0.35322660207748413, 0.021530713886022568, 0.38284942507743835, -0.2678627669811249, 0.2539450228214264], [0.2772842049598694, 0.00981395784765482, -0.1416635513305664, 0.012913979589939117, -0.24162426590919495], [0.23721110820770264, -0.05214759707450867, 0.008846074342727661, -0.0759962946176529, 0.030309386551380157], [0.3216816484928131, -0.061868999153375626, -0.076607346534729, 0.012802054174244404, 0.05530543997883797], [-0.15977026522159576, 0.14640095829963684, -0.16163170337677002, -0.1089581698179245, -0.05436495691537857]], [[-1.2363488674163818, -1.1949628591537476, -1.0589301586151123, -0.8941913843154907, -1.1369783878326416], [-1.3505115509033203, -1.1613779067993164, -1.2181817293167114, -1.302262306213379, -0.6966578364372253], [-1.5042154788970947, -1.0544525384902954, -1.0496902465820312, -0.952296793460846, -1.2551212310791016], [-1.2034740447998047, -0.9306155443191528, -1.1411223411560059, -1.323282241821289, -0.9347231388092041], [-1.2878334522247314, -1.1868325471878052, -0.8781647682189941, -1.1694031953811646, -0.6123737692832947]], [[-0.3342897891998291, -0.40104904770851135, -0.42463862895965576, -0.3143935799598694, -0.40758606791496277], [-0.40258529782295227, -0.43494024872779846, -0.3863321840763092, -0.29268500208854675, -0.40759822726249695], [-0.47233834862709045, -0.34673425555229187, -0.48561468720436096, -0.2979741096496582, -0.2589218020439148], [-0.4944106638431549, -0.3846662640571594, -0.24156638979911804, -0.2414216548204422, -0.2654288709163666], [-0.3518967926502228, -0.33606892824172974, -0.3168221414089203, -0.19397857785224915, -0.21782533824443817]], [[-0.4050280749797821, 0.09071510285139084, -1.121989369392395, -0.9097965359687805, -0.5169069170951843], [-0.7163573503494263, -0.8946347832679749, -0.4086638391017914, -1.4382493495941162, -1.7452412843704224], [-1.2478313446044922, -0.8196180462837219, -0.49570825695991516, -1.5898215770721436, -1.2355481386184692], [0.3902245759963989, 0.03449634462594986, -0.08775842189788818, -1.1272077560424805, -1.068418025970459], [1.8606919050216675, 1.634935975074768, 0.6316959857940674, -0.690406084060669, 0.06364575028419495]], [[-0.6373085975646973, -0.8764568567276001, -0.7322956323623657, -0.8302465081214905, -0.8701382279396057], [-1.1913238763809204, -1.0141147375106812, -0.8901787996292114, -1.1599547863006592, -0.7975859045982361], [-1.3892686367034912, -1.0505774021148682, -0.9106558561325073, -0.610771894454956, -0.22147370874881744], [-0.3518375754356384, -0.43477073311805725, -0.37839198112487793, -0.28294962644577026, -0.011594264768064022], [-0.5936298966407776, -0.24368740618228912, -0.277323842048645, -0.2886539399623871, -0.03253529965877533]], [[-0.1493079960346222, 0.18052980303764343, -0.09472497552633286, -0.09018491953611374, -0.1463635116815567], [-0.086921326816082, 0.13354232907295227, 0.126051127910614, 0.14333215355873108, 0.01739461161196232], [-0.0030658836476504803, 0.08092470467090607, -0.1793954223394394, 0.17527250945568085, -0.07090388238430023], [-0.10576535761356354, 0.08652059733867645, 0.09331048280000687, 0.06331470608711243, -0.13160750269889832], [0.11357574164867401, -0.18026821315288544, -0.11446072161197662, -0.003801655024290085, 0.0028513604775071144]], [[-0.7336555123329163, -0.7138891220092773, -0.5290451645851135, -0.4855748116970062, -0.47075754404067993], [-0.7121343612670898, -0.6770234107971191, -0.6157271265983582, -0.4441741704940796, -0.41824740171432495], [-0.8394187092781067, -0.6261603236198425, -0.5663275122642517, -0.44433754682540894, -0.25080567598342896], [-0.7152844071388245, -0.5851147174835205, -0.5925520658493042, -0.4126836657524109, -0.2756519317626953], [-0.5441648364067078, -0.5481908917427063, -0.40763047337532043, -0.23545300960540771, -0.10115675628185272]]], [[[0.5823636651039124, -0.8662579655647278, 0.008448423817753792, -0.7488343119621277, 2.2335705757141113], [-0.03256376087665558, 1.5742172002792358, -0.5312278866767883, 0.40660807490348816, 2.0661840438842773], [0.004794884938746691, 0.29244399070739746, -0.03763953968882561, 0.03436042368412018, 1.0650689601898193], [0.5800642967224121, -0.07507754117250443, 0.994635820388794, 0.5331562757492065, 0.498593270778656], [0.45818883180618286, 0.6815314292907715, 1.2201151847839355, 0.061169203370809555, 1.0652620792388916]], [[-1.215772271156311, -1.3362882137298584, -1.377809762954712, -1.5822854042053223, -0.86417555809021], [-1.3258756399154663, -1.387965202331543, -1.7021938562393188, -1.2625815868377686, -1.0157452821731567], [-1.4835933446884155, -1.4994542598724365, -1.5113253593444824, -1.214148759841919, -1.0617597103118896], [-1.5229179859161377, -1.6284782886505127, -1.4413394927978516, -0.828376293182373, -0.7207740545272827], [-1.7052102088928223, -1.8012847900390625, -1.3848590850830078, -0.9219033122062683, -0.6318259835243225]], [[-1.5797704458236694, -1.0185524225234985, -1.3624241352081299, -1.2713686227798462, -0.707695722579956], [-1.3297841548919678, -1.2267606258392334, -1.0880807638168335, -1.6086252927780151, -0.8755069375038147], [-0.9283313155174255, -1.008459448814392, -1.1945544481277466, -1.3535387516021729, -1.1282951831817627], [-0.8006503582000732, -0.9758410453796387, -1.5374897718429565, -1.1035465002059937, -1.506597876548767], [-0.9323930144309998, -0.9158274531364441, -1.1085397005081177, -1.0515769720077515, -1.5799070596694946]], [[-1.1080927848815918, -1.0235124826431274, -0.5089073777198792, -0.5175871849060059, 0.3694668412208557], [-1.386232852935791, -0.6411491632461548, -0.9667360782623291, -0.18869778513908386, 0.26882240176200867], [-1.3206955194473267, -0.5103041529655457, -1.0025641918182373, -0.06099711358547211, -0.10632777959108353], [-1.6609976291656494, -0.9731980562210083, -0.6448132395744324, -0.14575020968914032, -0.24200445413589478], [-0.6137793064117432, -0.7483425140380859, -0.529609203338623, -0.12991684675216675, -0.8399430513381958]], [[-0.6105018258094788, -0.19310766458511353, 0.3563307821750641, 0.4272935390472412, -1.1606690883636475], [-1.2317452430725098, -0.20313477516174316, 0.9342973828315735, -0.12068822234869003, -0.9500014781951904], [-0.8828357458114624, -0.5688959956169128, -0.10890139639377594, -0.414353609085083, -1.5866897106170654], [-0.07178802043199539, -0.3153805434703827, 0.8282551169395447, 0.09298580884933472, -0.9166536927223206], [-1.1465972661972046, -0.6411619782447815, -0.09918000549077988, 0.32460883259773254, -1.1701948642730713]], [[0.27518779039382935, 0.009307597763836384, 0.09436734765768051, 0.06878753751516342, 0.18145079910755157], [0.27798017859458923, 0.3499094843864441, 0.3249337077140808, -0.013452363200485706, -0.2337750941514969], [0.2193233072757721, 0.36062073707580566, 0.19259858131408691, 0.03203149512410164, -0.08571944385766983], [-0.30995529890060425, 0.07104489207267761, 0.1800268590450287, 0.3957981765270233, -0.24177199602127075], [0.30288267135620117, -0.28617554903030396, 0.2974337637424469, 0.42059603333473206, -0.04777394235134125]], [[-1.2112843990325928, -1.2032517194747925, -1.060712456703186, -1.1300584077835083, -0.9046288728713989], [-1.302425742149353, -0.889306366443634, -1.62378990650177, -0.8895009160041809, -0.3730994760990143], [-0.9175947904586792, -1.045676589012146, -1.836411714553833, -0.9857780933380127, -1.4176688194274902], [-1.2138904333114624, -1.3437039852142334, -1.2483890056610107, -0.7877122163772583, -0.6165308356285095], [-1.2181191444396973, -1.443210244178772, -1.1264358758926392, -0.9547922611236572, -1.4496489763259888]], [[-0.1445421725511551, -0.16344378888607025, -0.07026808708906174, 0.09286430478096008, 0.035477302968502045], [-0.2791682779788971, -0.08397680521011353, -0.03074505366384983, 0.02635354734957218, -0.062161631882190704], [-0.29533788561820984, -0.2666938006877899, -0.21676217019557953, -0.08238092064857483, -0.20825926959514618], [-0.16048242151737213, -0.4413869380950928, -0.2150259017944336, 0.055061277002096176, -0.14483949542045593], [-0.27486997842788696, -0.17575345933437347, -0.1529947966337204, -0.12668223679065704, -0.5080180764198303]], [[-0.21442195773124695, 0.1495601236820221, -0.91124027967453, -1.0918453931808472, -0.4383297860622406], [-0.1645907610654831, -0.3108798563480377, -0.4987453520298004, -0.840530276298523, -0.14121705293655396], [-0.2496076077222824, -0.3389657437801361, -0.6215205192565918, -0.921981930732727, -0.6779941320419312], [-0.8387936949729919, -0.6693246364593506, -0.32865309715270996, -0.6435147523880005, -0.6945879459381104], [-0.7114771604537964, 0.15269823372364044, 0.6923696994781494, 0.1539536565542221, -0.7156442403793335]], [[-0.9118935465812683, -0.6743148565292358, -0.9203315377235413, -0.8000110983848572, -1.2612401247024536], [-1.1718124151229858, -0.9173205494880676, -0.8407995700836182, -0.6589595675468445, -0.6781856417655945], [-1.2872759103775024, -1.259843349456787, -1.038957118988037, -0.7337716221809387, -0.9409299492835999], [-1.5326284170150757, -1.0925981998443604, -0.8704850077629089, -0.8426167964935303, -0.6787282824516296], [-1.4091280698776245, -1.0360628366470337, -0.6994978189468384, -0.64737868309021, -0.4097523093223572]], [[0.14273780584335327, -0.1952798068523407, -0.20467962324619293, 0.2071794718503952, 0.19713111221790314], [0.056508876383304596, -0.2062198668718338, -0.06847527623176575, -0.1592026948928833, 0.07671452313661575], [0.05106682330369949, 0.1791050285100937, -0.11542003601789474, -0.19524063169956207, -0.21474501490592957], [0.13147948682308197, -0.11221135407686234, -0.14627182483673096, -0.012589707039296627, 0.04168088734149933], [0.025993868708610535, 0.10178572684526443, -0.12565258145332336, -0.07990814745426178, -0.2058875411748886]], [[-0.5480965971946716, -0.9433844685554504, -0.9882498383522034, -0.8698618412017822, -0.5462512373924255], [-0.8129597306251526, -0.6926579475402832, -0.7256471514701843, -0.827822208404541, -0.539216935634613], [-0.911515474319458, -0.9351539611816406, -0.6802956461906433, -0.8022947311401367, -0.5352052450180054], [-1.1444281339645386, -1.058014988899231, -0.6114030480384827, -0.8829534649848938, -0.5414508581161499], [-1.07069993019104, -0.9376800656318665, -0.9177312254905701, -0.620030403137207, -0.4249550998210907]]], [[[0.09735530614852905, 1.5913448333740234, 0.3424188494682312, 0.30862733721733093, -0.010415413416922092], [0.4233478009700775, 0.5732877850532532, -0.24540098011493683, 0.1410607397556305, 0.2057364284992218], [0.3727058470249176, 0.40109020471572876, -0.14308913052082062, 0.8018420934677124, -1.0155549049377441], [0.9234037399291992, 0.9488155841827393, 0.012957175262272358, 0.08383483439683914, -1.102859616279602], [0.7842428684234619, 1.3417434692382812, -0.18132460117340088, -0.6463502645492554, 0.4415616989135742]], [[-0.3410147428512573, -0.30332136154174805, -0.11641589552164078, -0.38772279024124146, -0.3547758460044861], [-0.32454124093055725, -0.152756929397583, -0.23498737812042236, -0.23914286494255066, -0.3994845151901245], [-0.16647087037563324, -0.10435829311609268, -0.16296939551830292, -0.21760165691375732, -0.4336079955101013], [-0.22109226882457733, -0.147075816988945, -0.3169374465942383, -0.36395227909088135, -0.47577908635139465], [-0.22125227749347687, -0.23583552241325378, -0.44068560004234314, -0.5363693237304688, -0.6884841918945312]], [[-0.6735267639160156, -1.2324837446212769, -0.8270571827888489, -0.5141642689704895, -1.1432374715805054], [-1.2504788637161255, -1.1677742004394531, -0.8216907978057861, -1.015938401222229, -1.2341927289962769], [-1.351940631866455, -0.818494975566864, -1.1078882217407227, -1.0085817575454712, -0.6206510066986084], [-1.2979676723480225, -1.2658913135528564, -1.1927452087402344, -0.8691985607147217, -1.0578383207321167], [-1.847019076347351, -1.450447678565979, -0.5979329347610474, -0.5213318467140198, -0.5935938358306885]], [[-0.4583647847175598, -0.42394718527793884, -0.4331406354904175, -0.672530472278595, -0.8327433466911316], [-0.48484471440315247, -0.5100311040878296, -0.50291907787323, -0.7200725674629211, -0.7119186520576477], [-0.4991864860057831, -0.5131810903549194, -0.33252066373825073, -0.701440691947937, -0.8844883441925049], [-0.500089704990387, -0.3482569754123688, -0.4944860637187958, -0.7255382537841797, -0.9567860960960388], [-0.5705174803733826, -0.7095080614089966, -0.892646074295044, -1.01503324508667, -0.768902599811554]], [[0.06439962983131409, -1.1133677959442139, -0.9634710550308228, -1.0284814834594727, -0.6803916692733765], [-1.1905080080032349, -1.5068327188491821, -0.7794384956359863, -1.4424324035644531, -1.3946834802627563], [-1.1473476886749268, -0.5567289590835571, -0.08929803222417831, -1.6153743267059326, -0.9736485481262207], [-2.8903114795684814, -2.244391918182373, -2.1661012172698975, -2.0467143058776855, -2.06553053855896], [-2.233971118927002, -2.4417061805725098, -2.334914207458496, -2.2421300411224365, -1.7167807817459106]], [[0.402863085269928, -0.08421820402145386, 0.18149204552173615, -0.14799663424491882, 0.1644536256790161], [-0.17154864966869354, 0.25520193576812744, 0.09457462280988693, 0.2391154021024704, 0.32801899313926697], [-0.16175028681755066, 0.037558119744062424, 0.26046377420425415, 0.2669190764427185, 0.289902001619339], [0.32504457235336304, 0.11418280750513077, 0.28659817576408386, 0.2584516108036041, -0.2707407772541046], [0.1294274926185608, 0.2254999577999115, 0.24263277649879456, 0.29948893189430237, 0.1832892894744873]], [[-1.2384763956069946, -1.3178637027740479, -1.602230191230774, -1.4667816162109375, -1.0530250072479248], [-1.0532411336898804, -1.2764301300048828, -1.303812861442566, -1.4832618236541748, -0.9787023663520813], [-1.3689926862716675, -1.3750859498977661, -0.7788657546043396, -1.2120424509048462, -1.1514477729797363], [-1.1805349588394165, -1.3622756004333496, -1.199485182762146, -1.261623501777649, -0.9644862413406372], [-1.2609151601791382, -1.516186237335205, -1.070806860923767, -1.2105772495269775, -0.6395833492279053]], [[0.3782579004764557, 0.3483765125274658, 0.1923227161169052, 0.11102152615785599, -0.03812693431973457], [0.352504700422287, 0.27637219429016113, 0.20302386581897736, 0.057677797973155975, -0.21490946412086487], [0.27250146865844727, 0.3495097756385803, 0.09323069453239441, 0.09900252521038055, -0.2392124980688095], [0.04612094908952713, -0.0804889053106308, -0.07447243481874466, 0.0702393651008606, -0.04287275671958923], [0.3463379442691803, 0.19423696398735046, 0.10889005661010742, 0.03277691826224327, -0.16473400592803955]], [[-0.024487851187586784, 0.1620177924633026, 0.11042596399784088, -0.033807799220085144, -0.11019422858953476], [0.04528895020484924, 0.09136594831943512, 0.15471044182777405, -0.055539652705192566, 0.007380357477813959], [0.09460852295160294, 0.1228337287902832, 0.09886045753955841, -0.046576179563999176, -0.13785937428474426], [0.07445192337036133, 0.12925253808498383, 0.03931741416454315, -0.07949253171682358, -0.17829905450344086], [-0.09128731489181519, -0.17267994582653046, -0.07827470451593399, -0.2626461088657379, -0.2719185948371887]], [[-0.11091650277376175, -0.06294799596071243, -0.039467159658670425, -0.09542953968048096, -0.2503378987312317], [-0.11180008202791214, -0.12214420735836029, -0.07443542033433914, -0.20733310282230377, -0.23593805730342865], [-0.05850987881422043, -0.037699684500694275, -0.13323107361793518, -0.23080436885356903, -0.21483899652957916], [-0.025877445936203003, -0.15080279111862183, -0.11654816567897797, -0.32037031650543213, -0.22797639667987823], [-0.20838721096515656, -0.16167818009853363, -0.2974739670753479, -0.28507018089294434, -0.31679537892341614]], [[0.11674030870199203, 0.16273246705532074, 0.13989759981632233, 0.14369437098503113, 0.2223590910434723], [0.09102277457714081, 0.13801342248916626, 0.12843625247478485, 0.20734691619873047, 0.19697748124599457], [0.13449661433696747, 0.10188636928796768, 0.11735659837722778, 0.2200303077697754, 0.10650599747896194], [0.15516166388988495, 0.08199691027402878, 0.13489313423633575, -0.0382392443716526, 0.15059016644954681], [0.11961763352155685, 0.12159141898155212, -0.0148694459348917, 0.21129801869392395, 0.1533164232969284]], [[-0.1728689819574356, -0.10800832509994507, -0.16475602984428406, -0.1214594617486, -0.1866515576839447], [-0.01854407973587513, -0.07398216426372528, -0.10370421409606934, -0.13473328948020935, -0.31142663955688477], [-0.10653219372034073, -0.16847315430641174, -0.14273881912231445, -0.2723459005355835, -0.27056705951690674], [-0.10715808719396591, -0.11820666491985321, -0.1936427354812622, -0.21898585557937622, -0.3244882822036743], [-0.10770002007484436, -0.31126001477241516, -0.2418709546327591, -0.3738034665584564, -0.32781532406806946]]], [[[2.6211795806884766, 1.139666199684143, 0.7983879446983337, 1.2396095991134644, 1.702959656715393], [-1.530820369720459, -2.6317825317382812, -2.6442759037017822, -2.4879884719848633, -0.25450313091278076], [-1.709529995918274, -2.0125844478607178, -0.8668847680091858, -1.0235737562179565, 1.8995237350463867], [-2.6018106937408447, 0.06521390378475189, 0.44035255908966064, 1.1097166538238525, -0.7387828826904297], [1.4854285717010498, 2.8599648475646973, 2.5798468589782715, 1.5783486366271973, -1.3825974464416504]], [[-0.5078644752502441, -0.4552058279514313, -0.5370360612869263, -0.43556371331214905, -0.4204272925853729], [-0.6340910196304321, -0.7352120876312256, -0.6490060687065125, -0.5387178063392639, -0.4196087121963501], [-0.37104013562202454, -0.3745017647743225, -0.3360865116119385, -0.5798034071922302, -0.5731770992279053], [-0.1331273466348648, -0.2643173336982727, -0.28992313146591187, -0.3692972958087921, -0.47577351331710815], [-0.296263724565506, -0.2056669145822525, -0.26676133275032043, -0.36686843633651733, -0.6710973381996155]], [[-0.8525964021682739, -1.149293303489685, -1.170376181602478, -0.9681238532066345, -1.3195085525512695], [-0.3528400957584381, -0.8144144415855408, -0.9472272992134094, -1.117266058921814, -1.0376200675964355], [-0.7538442015647888, -1.0897945165634155, -0.7334887981414795, -0.8766670227050781, -0.35578352212905884], [-1.1876665353775024, -1.1580461263656616, -1.1610792875289917, -0.6792317032814026, 0.009320583194494247], [-1.6489646434783936, -0.9017063975334167, -1.0182350873947144, -0.4625568389892578, -0.2702150046825409]], [[-0.16602814197540283, -0.05809532478451729, -0.19587008655071259, -0.18841291964054108, -0.24156536161899567], [0.16057106852531433, 0.035396508872509, -0.11562039703130722, -0.12744778394699097, -0.163185253739357], [-0.018949732184410095, -0.04958298057317734, 0.026401106268167496, -0.04721001535654068, -0.19228127598762512], [-0.07971521466970444, -0.03339746221899986, 0.034351494163274765, -0.08590031415224075, -0.171291321516037], [-0.12824146449565887, -0.20958280563354492, -0.10764797031879425, -0.2504294216632843, -0.22551856935024261]], [[0.12207961827516556, -2.18483567237854, -0.04851901903748512, -0.3672403395175934, 0.9757513999938965], [0.42822369933128357, 1.1475830078125, 1.3823745250701904, -2.4560937881469727, -1.6122374534606934], [1.8112058639526367, 0.9542341828346252, 0.07069730758666992, -0.8713185787200928, -1.5702762603759766], [0.771975040435791, 0.31771722435951233, -0.12362422049045563, -1.7244288921356201, -0.6262132525444031], [-0.03987867757678032, -0.8499085307121277, -2.3354203701019287, -1.114450454711914, -2.163532018661499]], [[-0.20279811322689056, 0.17627942562103271, 0.47002702951431274, -0.14780962467193604, -0.12154517322778702], [0.07599407434463501, 0.43559885025024414, 0.36015504598617554, -0.014628834091126919, 0.3588230311870575], [0.058783918619155884, -0.1267915517091751, 0.29368841648101807, 0.42338523268699646, 0.24058696627616882], [0.048397716134786606, 0.5274011492729187, 0.40695199370384216, -0.18368981778621674, 0.16047030687332153], [-0.22701065242290497, 0.240746408700943, 0.35335594415664673, 0.18102425336837769, -0.052118510007858276]], [[-0.2851102948188782, -0.2701093852519989, 0.02552461437880993, -0.35017508268356323, -0.37359312176704407], [-0.45147594809532166, -0.5499868392944336, -0.2841586768627167, -0.22274501621723175, -0.31062471866607666], [-0.20288869738578796, -0.1555313616991043, -0.32200828194618225, -0.15683767199516296, -0.27949655055999756], [-0.2048008292913437, -0.4563239514827728, -0.28297629952430725, -0.14798951148986816, -0.06988649070262909], [-0.3096903860569, -0.24910186231136322, -0.3504371643066406, -0.0446365587413311, -0.45129600167274475]], [[0.07261830568313599, 0.17030443251132965, 0.3299277722835541, 0.397914320230484, 0.12091930210590363], [0.38221263885498047, 0.41102078557014465, 0.36509954929351807, 0.354610800743103, -0.025994962081313133], [0.09543000161647797, 0.22631080448627472, 0.26600101590156555, 0.17664992809295654, 0.02826610393822193], [0.11920947581529617, 0.2894183397293091, 0.1403413563966751, 0.47213250398635864, -0.2562064528465271], [0.04488403722643852, 0.2588847279548645, 0.010350602678954601, 0.01286344975233078, -0.2636406719684601]], [[-0.6380125880241394, -0.7578209638595581, -1.467198371887207, -1.0205649137496948, -1.4253569841384888], [-0.5885171890258789, -0.6675769686698914, -0.26620665192604065, -0.18671146035194397, -0.2008218914270401], [-0.501905620098114, -0.04182210937142372, 0.3998854160308838, -0.20252063870429993, -0.07138237357139587], [-0.0969395712018013, 0.49232885241508484, 0.3864060342311859, 0.0033358223736286163, -0.2783602774143219], [0.22213861346244812, -0.8326981067657471, 0.14636164903640747, -0.2741316258907318, 0.3557915687561035]], [[-0.892656147480011, -0.7110512852668762, -0.5759484171867371, -0.8899753093719482, -0.2638475000858307], [-0.3628993630409241, -0.4393121004104614, -0.5636159777641296, -0.18393586575984955, -0.1843203455209732], [-0.219598650932312, -0.27365463972091675, -0.05704047903418541, -0.2521578371524811, -0.4250440299510956], [0.11501164734363556, 0.16704466938972473, -0.014903835020959377, -0.5029372572898865, -0.45100489258766174], [0.12353460490703583, -0.2042635977268219, -0.5418959259986877, -0.40303289890289307, -0.5612582564353943]], [[-0.07894619554281235, 0.08173726499080658, 0.01404662523418665, -0.07278938591480255, -0.026668231934309006], [-0.09571024775505066, 0.06015442684292793, -0.12275251746177673, -0.12412726879119873, -0.046768877655267715], [0.06943973153829575, -0.017465699464082718, -0.01830749586224556, -0.14386604726314545, -0.06763195246458054], [-0.03852830082178116, -0.11592075228691101, -0.03342721238732338, -0.11550957709550858, -0.18587364256381989], [-0.06709207594394684, 0.03397110477089882, 0.10871580243110657, 0.030994806438684464, 0.05299339443445206]], [[-0.3377353250980377, -0.410336434841156, -0.11982133984565735, -0.1980486959218979, -0.25736862421035767], [-0.30978721380233765, -0.25553804636001587, -0.12681691348552704, -0.4281238615512848, -0.29681625962257385], [-0.02603093720972538, 0.13008275628089905, 0.10246969014406204, -0.09721773862838745, -0.2340966761112213], [0.0980987474322319, 0.10228976607322693, 0.023326940834522247, -0.007043090648949146, -0.25492435693740845], [-0.09521649032831192, -0.024840302765369415, -0.21008089184761047, -0.37269291281700134, -0.4039844274520874]]], [[[-0.8159049153327942, -0.6704492568969727, -1.224438190460205, -1.3108607530593872, -2.0729968547821045], [-1.3249719142913818, -1.1983675956726074, -0.504736065864563, -0.9410514831542969, -1.3288390636444092], [1.3793514966964722, -0.3057323694229126, -2.6532092094421387, -2.443549394607544, -0.9625110626220703], [-1.9323163032531738, -1.1605926752090454, -1.1315058469772339, -0.2471485733985901, -0.07842966914176941], [1.215576171875, -0.5970593094825745, -1.2613025903701782, -0.6879370212554932, -1.1776264905929565]], [[-0.40423503518104553, -0.8516276478767395, -0.9660947918891907, -0.9698048830032349, -0.9505259394645691], [-0.5179457664489746, -0.5694620013237, -0.9924494028091431, -0.9991048574447632, -0.9083654880523682], [-0.37397322058677673, -0.4419023394584656, -0.5951952934265137, -0.9898606538772583, -0.6899073719978333], [-0.11675513535737991, -0.2572454512119293, -0.6077640652656555, -1.0241334438323975, -0.8010411262512207], [-0.39628252387046814, -0.5428824424743652, -0.8402112126350403, -0.6983214616775513, -0.5226427316665649]], [[-0.3604298532009125, -0.9876019358634949, -1.3289213180541992, -1.2219758033752441, -0.5641457438468933], [-1.198782205581665, -1.330057144165039, -0.7842414379119873, -1.2527968883514404, -1.1913981437683105], [-1.6374703645706177, -1.8160014152526855, -1.5669975280761719, -0.9712583422660828, -1.2110509872436523], [-1.2771482467651367, -1.5634377002716064, -0.9837323427200317, -1.302861213684082, -1.0791962146759033], [-1.63160240650177, -1.5111989974975586, -1.6587152481079102, -1.34537935256958, -0.7902320623397827]], [[-0.4075070023536682, -0.6323044300079346, -0.6416261792182922, -0.2312851846218109, 0.059520941227674484], [-0.01436684187501669, -0.30049750208854675, -0.737764298915863, -0.42300543189048767, 0.015005706809461117], [-0.017417632043361664, -0.49736279249191284, -0.3364521861076355, -0.6400430202484131, -0.21162725985050201], [-0.43450817465782166, -0.2732146084308624, -0.6700072288513184, -0.5440853834152222, -0.2592737376689911], [-0.6401402354240417, -0.4169902503490448, -0.3592624068260193, -0.2926671802997589, 0.13603520393371582]], [[1.3035321235656738, 2.2626211643218994, 1.491658329963684, -0.9336075782775879, -1.4344488382339478], [-0.09008985012769699, -0.40073689818382263, 0.3627382218837738, -0.08891579508781433, -1.0203187465667725], [1.0470243692398071, 1.2823185920715332, -1.0562946796417236, -0.47865766286849976, -0.04372227564454079], [0.9228559136390686, 0.6362223029136658, -0.782058835029602, -0.7485494017601013, -0.7583902478218079], [0.44436022639274597, -0.4125239849090576, -0.4818384647369385, -0.988156795501709, -1.36874258518219]], [[-0.04603814706206322, -0.19881676137447357, 0.19915807247161865, -0.11439375579357147, 0.4287189841270447], [-0.38654470443725586, -0.26426559686660767, -0.2082149088382721, -0.18452629446983337, -0.14918145537376404], [0.0746435597538948, 0.2763153314590454, -0.3821304142475128, -0.11638359725475311, -0.3552042245864868], [-0.04072502627968788, -0.1394602507352829, -0.4078832268714905, 0.0718858540058136, 0.09652188420295715], [-0.193526029586792, 0.21446871757507324, 0.024302758276462555, 0.10993505269289017, -0.0005779730854555964]], [[-0.9458855986595154, -0.8515266180038452, -0.7393512725830078, -0.7348071336746216, -0.4043681025505066], [-1.159122109413147, -0.8755991458892822, -0.7802689671516418, -0.578660786151886, -0.23039942979812622], [-1.0737484693527222, -0.8396782279014587, -0.6759490966796875, -0.7857452630996704, -0.43151038885116577], [-0.8608331084251404, -1.0468348264694214, -0.7427127361297607, -0.9508188962936401, -0.46122387051582336], [-0.8396599888801575, -0.9762246012687683, -1.0349818468093872, -0.707133412361145, -0.5042209625244141]], [[0.28097864985466003, 0.4359697997570038, 0.2885608673095703, 0.2622627317905426, 0.23057147860527039], [0.057401128113269806, -0.11311570554971695, -0.3835704028606415, 0.1236223578453064, 0.22041821479797363], [-0.3297805190086365, 0.001087116776034236, 0.03595120832324028, 0.06624017655849457, 0.18762189149856567], [0.10639643669128418, 0.08623773604631424, 0.06179938092827797, 0.2880397439002991, 0.3872033953666687], [0.050360262393951416, 0.004450432490557432, 0.17336058616638184, 0.23179282248020172, 0.37660449743270874]], [[0.22720153629779816, 1.4425266981124878, 0.21344678103923798, 0.49242034554481506, -0.03760317713022232], [0.6512323617935181, 0.9088985919952393, 0.2190045416355133, 0.3101097345352173, 0.5781275629997253], [0.7278270721435547, 0.6974097490310669, 0.15964798629283905, 1.117293119430542, 0.02785658836364746], [1.687294602394104, 2.192136287689209, 0.020286651328206062, -0.31959834694862366, 0.1894175112247467], [1.273242712020874, 0.94261634349823, 0.034622613340616226, -0.3872807025909424, 0.016406726092100143]], [[-0.1126856878399849, -0.5083633661270142, -0.5991102457046509, -0.7938283085823059, -0.7547854781150818], [-0.32983526587486267, -0.6261698007583618, -0.6348598003387451, -0.8784661889076233, -0.6208012700080872], [-0.04007619619369507, -0.1611330658197403, -0.2800447642803192, -0.46339917182922363, -0.5433652400970459], [-0.009995133616030216, -0.1875142604112625, -0.3277848958969116, -0.42138200998306274, -0.42796602845191956], [-0.23930540680885315, -0.5264992117881775, -0.3325483798980713, -0.24430640041828156, -0.15444333851337433]], [[-0.18817538022994995, -0.08699128776788712, -0.12325642257928848, 0.11151176691055298, -0.19712232053279877], [0.10469172894954681, 0.11353471130132675, -0.05825263634324074, 0.1263488382101059, -0.12360871583223343], [0.08978429436683655, 0.1722155213356018, 0.08607601374387741, 0.06300407648086548, -0.007534672971814871], [-0.11004284769296646, 0.1592559814453125, 0.14188146591186523, 0.058042220771312714, 0.17912259697914124], [-0.16830295324325562, 0.17284439504146576, 0.1862436980009079, 0.14627306163311005, 0.20059999823570251]], [[-0.5271908044815063, -0.41040483117103577, -0.6078526377677917, -0.6446859836578369, -0.6278191804885864], [-0.17712098360061646, -0.2957288324832916, -0.5174925923347473, -0.5399811863899231, -0.376356303691864], [-0.06351856887340546, -0.31338781118392944, -0.45485666394233704, -0.4741635322570801, -0.3907679617404938], [-0.06636473536491394, -0.36059755086898804, -0.4620628356933594, -0.5868523716926575, -0.527678370475769], [-0.21053661406040192, -0.47678276896476746, -0.456828236579895, -0.35408520698547363, -0.3511817455291748]]], [[[-0.46260079741477966, -1.7522592544555664, -3.2185332775115967, -2.1191773414611816, -2.0617241859436035], [-0.31845784187316895, 0.09847767651081085, -0.3781996965408325, -0.3077654242515564, -0.9160997867584229], [0.8649080991744995, -0.9007557034492493, -0.8733391761779785, -1.0271875858306885, -0.3762151002883911], [-1.162589430809021, -0.3671148717403412, -2.1447975635528564, -1.614960789680481, -2.9215283393859863], [1.0728501081466675, 1.7725720405578613, -0.08422873914241791, -1.7014274597167969, -1.7316884994506836]], [[-1.3738195896148682, -1.3961602449417114, -1.6326308250427246, -2.2480459213256836, -1.5785466432571411], [-1.4131027460098267, -2.0224642753601074, -1.9019447565078735, -1.7588529586791992, -1.8354943990707397], [-1.6091244220733643, -1.4371155500411987, -1.8646571636199951, -1.755353569984436, -1.8709908723831177], [-1.502828598022461, -1.3570092916488647, -0.98492032289505, -0.9767125844955444, -0.6545543074607849], [-0.20134927332401276, 0.05877809599041939, -0.23943091928958893, -0.4948466718196869, -0.39828675985336304]], [[-3.0590455532073975, -2.2492659091949463, -2.149324655532837, -2.079536199569702, -2.637948513031006], [-3.0034432411193848, -1.883669137954712, -2.910498857498169, -2.462625026702881, -3.002429485321045], [-2.800853967666626, -2.374375581741333, -2.2720394134521484, -2.884580373764038, -2.427060604095459], [-1.0000479221343994, -3.2288687229156494, -2.7219090461730957, -3.219592332839966, -3.087454319000244], [-0.7281601428985596, -2.91192889213562, -2.8197131156921387, -3.0861213207244873, -3.0267653465270996]], [[-1.527770757675171, -1.8026111125946045, -2.028346061706543, -1.7586734294891357, -1.3385348320007324], [-2.297469139099121, -1.7569043636322021, -1.6418683528900146, -0.9799728393554688, -1.8294330835342407], [-2.2728590965270996, -1.0083026885986328, -1.1117461919784546, -1.4932368993759155, -0.9537185430526733], [-0.35541975498199463, -0.46175259351730347, -0.7499355673789978, -0.760941207408905, -0.7206084728240967], [-0.5058335065841675, -0.7973193526268005, -0.3183005154132843, -0.8439298272132874, -0.3993839621543884]], [[-0.4461829960346222, -1.009833812713623, -1.9466938972473145, -0.8856812119483948, -1.4774552583694458], [0.013528523035347462, 0.7646480798721313, -0.028633620589971542, 1.5468248128890991, 0.8850781321525574], [-0.25781312584877014, -0.1953657865524292, -0.6293447613716125, -1.3250839710235596, -1.1865935325622559], [2.903210163116455, 1.8369107246398926, -1.4486311674118042, 0.18102768063545227, 0.2339707612991333], [2.8589444160461426, 0.9050428867340088, -0.12132425606250763, -0.7111530900001526, 0.15544721484184265]], [[-0.03839872032403946, -0.2709234654903412, -0.16168302297592163, -0.3364548683166504, -0.09435297548770905], [0.37544119358062744, -0.060495808720588684, -0.005440487992018461, 0.2924463748931885, -0.08710858225822449], [0.30250048637390137, 0.2891574800014496, 0.13814306259155273, 0.4064246416091919, 0.3130601942539215], [-0.14635547995567322, 0.16459037363529205, 0.3062577545642853, 0.15419931709766388, -0.16350342333316803], [0.3887224793434143, 0.4309045672416687, 0.3067660331726074, 0.019558187574148178, 0.288958877325058]], [[-1.6003671884536743, -1.4525063037872314, -1.7320023775100708, -1.4856243133544922, -1.1456799507141113], [-1.7629512548446655, -1.7107075452804565, -1.9033987522125244, -1.7735344171524048, -1.7697710990905762], [-2.0389955043792725, -1.4363124370574951, -1.6994431018829346, -1.2601295709609985, -1.6514536142349243], [-1.32130765914917, -2.0870273113250732, -1.4409259557724, -1.4004207849502563, -1.4523833990097046], [-1.621876835823059, -0.7531041502952576, -0.8932819962501526, -0.6580739617347717, -1.0007603168487549]], [[-0.27599915862083435, -0.24177764356136322, -0.26404789090156555, -0.0832919329404831, -0.19327162206172943], [-0.1571967750787735, -0.1613590568304062, -0.10630413889884949, -0.0440346896648407, -0.1462222933769226], [-0.06886908411979675, -0.10381444543600082, -0.18017801642417908, -0.14002108573913574, -0.2971092462539673], [-0.21881473064422607, -0.08036094903945923, -0.11830544471740723, 0.04957893118262291, -0.2675503194332123], [-0.15918336808681488, 0.06079227477312088, 0.021690862253308296, -0.04381033033132553, -0.4614216089248657]], [[-0.32631924748420715, -0.5815158486366272, -0.9481881856918335, 0.4869537651538849, 0.2024407684803009], [-1.2033263444900513, -0.6169466972351074, -0.5634229183197021, -1.1470528841018677, 0.49185577034950256], [-0.7614783048629761, -0.41876721382141113, -0.4320157766342163, -1.0543568134307861, -0.9434513449668884], [-1.0720856189727783, -0.83335942029953, -0.7475507855415344, -1.1643606424331665, -0.8305272459983826], [0.5988728404045105, -0.42586037516593933, -0.4323263168334961, 0.262627512216568, 1.0407041311264038]], [[-1.232496976852417, -0.7132842540740967, -0.6598803400993347, -1.6575431823730469, -1.9744542837142944], [-0.10467757284641266, -1.0952075719833374, -1.2863547801971436, -1.2722162008285522, -1.3640848398208618], [0.16959059238433838, -0.8869274854660034, -0.9004808664321899, -0.27677083015441895, -0.8066093325614929], [0.559101939201355, 0.8509145975112915, -0.20201754570007324, -0.336820125579834, -0.01923120953142643], [-0.2928338348865509, 0.3301371932029724, -0.1899988055229187, -0.18915453553199768, 0.15451838076114655]], [[0.13567878305912018, -0.009032703936100006, -0.04488531872630119, -0.07470794022083282, 0.08140433579683304], [0.05889854580163956, -0.13402733206748962, 0.10638865828514099, 0.12724021077156067, 0.14122989773750305], [-0.13972815871238708, -0.12084361165761948, -0.1024077907204628, -0.16907474398612976, -0.1407354474067688], [0.06773088127374649, -0.1535230576992035, -0.1341003179550171, -0.13461121916770935, -0.1927330195903778], [0.22398826479911804, -0.01825689524412155, -0.0952954888343811, -0.12877042591571808, -0.11306274682283401]], [[-0.6587914824485779, -0.8635662794113159, -1.0458521842956543, -1.0541971921920776, -0.8418814539909363], [-0.6911935806274414, -0.81094890832901, -0.8888761401176453, -0.8106294274330139, -0.6683843731880188], [-0.7132684588432312, -0.6847314238548279, -0.883251965045929, -0.777271032333374, -0.5389397740364075], [-0.3959794044494629, -0.6764102578163147, -0.46459367871284485, -0.3880208432674408, -0.3106839060783386], [-0.13979646563529968, -0.18002958595752716, -0.183027982711792, -0.1167813315987587, -0.03979478031396866]]], [[[-0.389667809009552, -1.7318403720855713, -3.6438379287719727, -1.5643118619918823, -1.1109929084777832], [0.5781333446502686, 0.6851420402526855, -2.2055952548980713, -4.613921165466309, -3.603822946548462], [-0.9866975545883179, -0.9682499170303345, -1.0910518169403076, -2.703986883163452, -0.3830901086330414], [1.1022815704345703, 2.135014772415161, 1.398889183998108, 2.0160844326019287, 1.6152634620666504], [-0.4887552559375763, -0.8094303607940674, 2.7940750122070312, 1.3649775981903076, 3.9578356742858887]], [[-0.30730539560317993, -0.5583546161651611, -0.10505339503288269, -0.6430280804634094, -0.4578060209751129], [0.04004976525902748, 0.3007940948009491, 0.09067399054765701, -0.08556032180786133, -0.11738263815641403], [0.3628239929676056, 0.4868447184562683, 0.4854455590248108, -0.06442631781101227, -0.023687001317739487], [-0.10589797794818878, -0.003461141139268875, -0.13558529317378998, -0.0721319243311882, -0.23100683093070984], [-0.36663544178009033, -0.3372253179550171, -0.48916110396385193, -0.31503140926361084, 0.0597209557890892]], [[-0.21738269925117493, -0.7206566333770752, -0.6787011027336121, 0.3406081199645996, -0.3466571569442749], [-0.9647142291069031, -1.009281873703003, -1.1761162281036377, -1.8483370542526245, -1.8221335411071777], [-1.6520568132400513, -1.9884816408157349, -3.840027332305908, -3.115551710128784, -2.8039135932922363], [0.628447949886322, 0.1375063806772232, 0.26777711510658264, -0.1173311322927475, -0.966201663017273], [0.7021597027778625, 1.759985327720642, 2.325225591659546, 1.1771575212478638, 0.14839763939380646]], [[0.025755032896995544, -0.7439547181129456, -0.015649935230612755, 0.7139174938201904, 0.8431872725486755], [-0.189466193318367, -1.020379900932312, -0.9626403450965881, -0.034829165786504745, 0.28620365262031555], [-0.2957545816898346, -1.6137968301773071, -2.9361002445220947, -1.7255706787109375, -1.075365662574768], [-0.258036345243454, -0.8394922018051147, -0.4734269678592682, -1.0378481149673462, -0.9999791979789734], [0.2497200071811676, 0.10033725202083588, -0.33364418148994446, -0.4587341845035553, -0.4606395959854126]], [[0.5309269428253174, 1.3463096618652344, 2.420947551727295, 2.1720287799835205, 1.2489752769470215], [-0.12199822068214417, 1.65459406375885, 3.092360496520996, 2.769604444503784, 3.138232707977295], [-1.548844814300537, -0.13048258423805237, 0.9656643867492676, 2.382530927658081, 3.177311897277832], [-1.0718802213668823, 1.4652515649795532, 3.1304686069488525, 1.733096718788147, 0.5472467541694641], [1.3847140073776245, 1.172515630722046, 1.5926456451416016, 0.1967073380947113, -2.76481032371521]], [[-0.10860393196344376, 0.39995983242988586, 0.3783471882343292, -0.1268356591463089, 0.3295024335384369], [0.22921213507652283, 0.27792251110076904, 0.02481282688677311, -0.19003304839134216, -0.3510245680809021], [0.2604618966579437, 0.0713057741522789, 0.24010546505451202, 0.3909238874912262, 0.2705875337123871], [0.008551900275051594, 0.3071776330471039, 0.36020565032958984, 0.24084649980068207, -0.21495187282562256], [0.127691850066185, 0.08494135737419128, 0.4832341969013214, 0.08641862124204636, -0.08943362534046173]], [[-0.578179121017456, -0.23518215119838715, 0.322380393743515, 0.9895793199539185, 0.7036343812942505], [-1.3074731826782227, -0.7676640152931213, -0.6966211199760437, -0.8264660239219666, -0.37061625719070435], [-0.5728097558021545, -2.177677631378174, -2.3334524631500244, -1.9531265497207642, -0.8806498646736145], [-0.007508035749197006, -0.20829671621322632, -0.6240494251251221, -0.6339589357376099, -0.6934938430786133], [-0.014038333669304848, 0.6657196879386902, 0.884855329990387, 0.7208994626998901, -0.24755361676216125]], [[0.20783661305904388, 0.3302680253982544, 0.36128923296928406, 0.26787158846855164, 0.09946176409721375], [0.325352281332016, 0.3483436107635498, 0.22919727861881256, 0.3608756959438324, 0.44302213191986084], [0.22218170762062073, 0.34866097569465637, 0.0662616491317749, 0.2710261344909668, -0.40656405687332153], [0.1565113067626953, 0.18918704986572266, 0.1612946093082428, 0.03871208801865578, 0.07334981858730316], [0.14067021012306213, 0.048817507922649384, -0.13533231616020203, -0.19337239861488342, -0.05147375166416168]], [[-0.8025022745132446, -1.2439135313034058, -1.6378785371780396, -1.4184449911117554, -3.148214101791382], [0.012937094084918499, -1.3965071439743042, 0.5126968622207642, 2.0842959880828857, 0.8142103552818298], [1.183195948600769, 2.3693959712982178, 2.9684791564941406, 2.1658782958984375, 0.8603150248527527], [1.5611565113067627, 1.2002122402191162, 3.0604474544525146, 2.7296366691589355, 1.606895923614502], [-0.43246588110923767, 1.5867689847946167, 2.864288568496704, 1.1411415338516235, -0.35675889253616333]], [[0.535753607749939, -0.7778245806694031, -1.3312458992004395, -1.8684327602386475, -2.254572868347168], [1.0703575611114502, 1.3717827796936035, 0.544508695602417, -0.2590169906616211, -0.12451959401369095], [0.48071587085723877, 1.4621641635894775, 1.2926833629608154, 0.807309091091156, 1.2216966152191162], [-0.8457441329956055, -0.32853826880455017, -0.5634175539016724, -0.14842775464057922, 1.7755861282348633], [-1.5295642614364624, -1.7091351747512817, -1.6748489141464233, -0.5555605888366699, 0.7651922106742859]], [[-0.04216713458299637, 0.021718861535191536, -0.03934434428811073, -0.12512558698654175, -0.07919972389936447], [-0.11058884114027023, -0.1354949176311493, -0.05026873201131821, -0.04298233240842819, -0.06846825778484344], [-0.07074064016342163, -0.020143937319517136, -0.05504335090517998, 0.14974579215049744, -0.022936740890145302], [-0.05481886863708496, -0.04268714040517807, -0.03343391418457031, -0.007929583080112934, -0.1379559338092804], [-0.044556327164173126, -0.15861345827579498, -0.12392691522836685, -0.11247465014457703, -0.037345122545957565]], [[0.17997244000434875, 0.24448388814926147, -0.3533020615577698, -0.8616869449615479, -1.0980077981948853], [0.6196238994598389, 0.7331735491752625, 0.3663172125816345, 0.004577858839184046, -0.13158580660820007], [0.06871788948774338, 0.6914273500442505, 0.46642887592315674, 0.013505294919013977, 0.3347068428993225], [-0.738248884677887, 0.027265284210443497, -0.09024910628795624, -0.19238686561584473, 0.22692954540252686], [-0.7885304689407349, -0.607113778591156, -0.7935387492179871, -0.6715367436408997, -1.1217886209487915]]], [[[-1.538759469985962, -0.13604064285755157, -1.3026090860366821, -0.5138921737670898, -1.9714142084121704], [-0.6812529563903809, 0.7566395998001099, -1.0427720546722412, -2.233835220336914, -0.5971521735191345], [-1.960060715675354, -0.414631724357605, -0.4720790684223175, -2.518052816390991, -2.631998300552368], [-2.3429927825927734, -0.4490754306316376, -1.2086536884307861, 0.3818899095058441, -0.5788052082061768], [-0.46776026487350464, 0.29731911420822144, -2.72231125831604, -0.9565064907073975, -0.7654628157615662]], [[-1.9907971620559692, -1.0917118787765503, -1.4864137172698975, -1.1101963520050049, -0.797473669052124], [-1.524672031402588, -1.4085835218429565, -1.2845290899276733, -1.2881791591644287, -1.2791125774383545], [-1.4086164236068726, -1.259822130203247, -1.0670340061187744, -0.5002298951148987, -0.29001384973526], [-1.6798181533813477, -1.4584037065505981, -0.8445616960525513, -1.140824794769287, -0.33394765853881836], [-1.4188512563705444, -1.614989161491394, -1.5327980518341064, -0.5415416955947876, -0.8233652114868164]], [[-2.474863052368164, -2.9431986808776855, -2.4177722930908203, -2.6777920722961426, -1.5847046375274658], [-2.208287239074707, -2.5821382999420166, -3.0297281742095947, -1.4364686012268066, -2.5436885356903076], [-3.525002956390381, -2.633901834487915, -1.52203369140625, -1.683776617050171, -2.6390328407287598], [-2.8587236404418945, -1.7866735458374023, -2.356451988220215, -2.6389200687408447, -1.9503716230392456], [-2.89351224899292, -2.9388773441314697, -1.9364984035491943, -2.1879734992980957, -2.050287961959839]], [[-1.2591828107833862, -1.41933274269104, -1.5483673810958862, -1.5366710424423218, -1.4315423965454102], [-1.2832424640655518, -1.3760833740234375, -1.5512008666992188, -1.1156907081604004, -1.6502424478530884], [-1.7492502927780151, -1.7145291566848755, -1.0579721927642822, -0.8149513006210327, -0.8721398711204529], [-1.8100565671920776, -1.8190405368804932, -1.5194957256317139, -1.195090889930725, -0.964073121547699], [-2.2747223377227783, -1.7188754081726074, -1.210854411125183, -1.3543446063995361, -0.8175530433654785]], [[1.0239040851593018, 0.7804076671600342, 0.012576768174767494, -0.3892654478549957, 1.5023363828659058], [-1.5732381343841553, -1.2368136644363403, -1.4054577350616455, 2.5989859104156494, 2.653022289276123], [0.5666332244873047, -0.9887528419494629, -0.4563310146331787, -1.0121347904205322, -0.32339736819267273], [0.19132304191589355, -0.753909707069397, -1.1833876371383667, -1.3462861776351929, -1.9510362148284912], [0.03981969505548477, -0.9107642769813538, -0.6070384383201599, 0.056529562920331955, -0.8671211004257202]], [[0.12469932436943054, 0.00312959891743958, 0.20529328286647797, 0.17264249920845032, 0.12254200875759125], [-0.13580165803432465, 0.3345009982585907, 0.18108052015304565, 0.16143397986888885, -0.0947219505906105], [0.21486589312553406, -0.11908175051212311, 0.168410524725914, -0.09805399179458618, -0.08193245530128479], [0.3870716392993927, -0.16940617561340332, 0.12178611010313034, 0.16095900535583496, -0.23618169128894806], [-0.20327086746692657, 0.0069189975038170815, -0.1443828046321869, -0.28680408000946045, 0.14795035123825073]], [[-1.6446692943572998, -2.3895139694213867, -1.5298144817352295, -2.1201364994049072, -1.800720453262329], [-2.504161834716797, -2.0795223712921143, -2.1429660320281982, -2.2041127681732178, -1.7266433238983154], [-1.9317854642868042, -2.2068116664886475, -1.8356852531433105, -2.234121799468994, -1.8995087146759033], [-2.461941719055176, -1.9840701818466187, -2.04962158203125, -1.663919448852539, -1.9610291719436646], [-2.669684886932373, -1.8021047115325928, -2.1571946144104004, -2.118260622024536, -1.3126803636550903]], [[-0.01973356306552887, 0.025669727474451065, -0.4712340533733368, -0.3108416199684143, -0.338959664106369], [0.03908517211675644, -0.13150125741958618, -0.15713143348693848, -0.36733904480934143, -0.3193662166595459], [-0.1476769894361496, -0.12492696940898895, -0.12989862263202667, -0.12835146486759186, -0.2376493513584137], [-0.1862073689699173, -0.23173682391643524, -0.3430728018283844, -0.3399287462234497, -0.2265809178352356], [-0.2129911184310913, -0.41605713963508606, -0.29755550622940063, -0.3097822666168213, -0.24927909672260284]], [[-1.7301234006881714, -1.7322696447372437, 2.1172122955322266, -2.0742692947387695, 0.16305671632289886], [-1.316546082496643, 0.5882571339607239, -0.4210963845252991, -0.1758931279182434, 0.9756224751472473], [0.20459096133708954, -0.274872750043869, -0.18659666180610657, -0.31529080867767334, -0.37106338143348694], [-0.908961296081543, -0.46641039848327637, -0.29882389307022095, -0.11795806139707565, -0.028491152450442314], [-0.4463263154029846, -0.41436105966567993, -0.02234814502298832, -0.04701859876513481, -0.03964903950691223]], [[-0.7206633687019348, -0.659643828868866, 0.4475504457950592, -0.5419720411300659, -0.7842942476272583], [-0.869222104549408, 0.02283778041601181, -0.9575293064117432, -0.9272150993347168, 0.49166080355644226], [-0.16943560540676117, -0.3207014203071594, -0.8711087107658386, 0.17249418795108795, -0.2907630205154419], [-0.6827777028083801, -0.7993942499160767, -0.29442986845970154, -0.265437513589859, -0.14740917086601257], [-0.7107573747634888, -0.7669750452041626, -0.5281398892402649, -0.4248403310775757, -0.38373851776123047]], [[-0.14263881742954254, 0.07292605936527252, -0.031059948727488518, 0.025564521551132202, 0.05206837132573128], [0.19799257814884186, 0.14480142295360565, 0.11347434669733047, -0.10995694249868393, 0.05944961681962013], [-0.1240854412317276, 0.04061643406748772, -0.08290968090295792, 0.13777069747447968, 0.11205124109983444], [0.09168691188097, 0.1808694750070572, -0.13811877369880676, -0.1276247352361679, 0.15043114125728607], [0.16398462653160095, 0.21437163650989532, 0.11427678912878036, 0.16001078486442566, 0.05427953600883484]], [[-0.3250349760055542, -0.4919950067996979, -0.5082234740257263, -0.7222301363945007, -0.7516644597053528], [-0.24710091948509216, -0.259560763835907, -0.5266864895820618, -0.22881709039211273, -0.20398911833763123], [-0.2874286472797394, -0.2565385699272156, -0.29410961270332336, -0.45644861459732056, -0.39557772874832153], [-0.4191500246524811, -0.27630355954170227, -0.29363197088241577, -0.21453922986984253, -0.19872833788394928], [-0.6303921341896057, -0.5841519832611084, -0.5309567451477051, -0.4047373831272125, -0.3016224801540375]]], [[[-0.26074233651161194, 0.4593191146850586, -0.9099722504615784, -0.6582921743392944, -1.0549108982086182], [-0.4196685552597046, -0.8242606520652771, -1.506126880645752, -0.5954400300979614, -0.7810468077659607], [-0.664391279220581, -0.874825656414032, -1.5529807806015015, -1.1019724607467651, -1.4344637393951416], [-0.10978181660175323, -0.6290733814239502, -1.163896083831787, -0.21234513819217682, -1.1120688915252686], [-0.6284185647964478, -0.6236676573753357, -0.8904324769973755, 0.8658717274665833, 0.05164649710059166]], [[-1.0446538925170898, -0.8839995265007019, -0.4303533136844635, -0.5370190739631653, -0.8987271189689636], [-1.0154194831848145, -0.8397402167320251, -1.006173849105835, -0.8913097381591797, -0.9696251749992371], [-1.2784161567687988, -1.4696152210235596, -1.2825270891189575, -1.7493507862091064, -1.4619560241699219], [-1.1423126459121704, -1.2157371044158936, -1.5202794075012207, -1.9073251485824585, -1.2906652688980103], [-1.4866682291030884, -1.2928998470306396, -1.3875757455825806, -1.418555498123169, -1.2804243564605713]], [[-1.3870749473571777, -1.777169108390808, -1.1492878198623657, -1.6346392631530762, -0.7609078884124756], [-1.8216356039047241, -2.214510917663574, -1.2175042629241943, -1.7188199758529663, -1.2402898073196411], [-1.350192904472351, -1.976542592048645, -1.6247289180755615, -1.793550968170166, -1.0052894353866577], [-2.0334970951080322, -1.9542059898376465, -2.792485475540161, -1.586895227432251, -0.8898266553878784], [-1.3272219896316528, -2.073241949081421, -1.5188345909118652, -1.9807205200195312, -2.032489061355591]], [[-1.2488802671432495, -0.9423195123672485, -0.7617645263671875, -0.8194407820701599, -0.816495954990387], [-0.7245132327079773, -1.585273265838623, -1.4371073246002197, -1.0748432874679565, -1.0701361894607544], [-1.5347888469696045, -1.3128103017807007, -1.4499106407165527, -1.527469515800476, -1.138658881187439], [-2.0330631732940674, -1.6375617980957031, -1.5995157957077026, -1.149479866027832, -1.655604600906372], [-1.289921522140503, -2.0508692264556885, -1.3926321268081665, -1.772566795349121, -1.251731276512146]], [[0.11797265708446503, 0.6367641687393188, 1.0688261985778809, -0.30169644951820374, 0.18922942876815796], [-0.06561534851789474, 0.9181297421455383, 0.11264345049858093, 0.5905684232711792, -0.4917774796485901], [0.5720854997634888, 0.7162083983421326, 0.13250456750392914, 0.3379835784435272, 0.37332257628440857], [-0.293522447347641, 0.5550327897071838, 1.1299735307693481, 1.718662977218628, 1.3399523496627808], [0.6638873219490051, 0.39168521761894226, -0.3666260838508606, 1.0474079847335815, -0.6424963474273682]], [[0.3184817433357239, -0.09375157207250595, 0.3256876468658447, 0.09689554572105408, 0.12099727988243103], [-0.12462729215621948, 0.24276107549667358, -0.17314958572387695, -0.242159903049469, -0.14891891181468964], [-0.30162468552589417, 0.25384166836738586, 0.37285521626472473, -0.21796835958957672, 0.0902877002954483], [-0.36937645077705383, 0.1633114367723465, -0.1529024839401245, -0.17908284068107605, -0.24279674887657166], [0.23262833058834076, 0.23051568865776062, -0.11385240405797958, 0.2212819904088974, -0.06711030006408691]], [[-1.8505514860153198, -1.1193630695343018, -1.3667229413986206, -1.0768203735351562, -1.4641815423965454], [-1.978785514831543, -1.9977576732635498, -1.517209529876709, -1.55338454246521, -1.6572904586791992], [-1.740922212600708, -2.184858798980713, -1.4879192113876343, -2.0679705142974854, -1.6294164657592773], [-2.4984071254730225, -1.51018488407135, -1.8422520160675049, -2.1877150535583496, -1.4529091119766235], [-1.7835863828659058, -1.6446924209594727, -2.0614378452301025, -1.6392134428024292, -1.2393313646316528]], [[-0.17459306120872498, 0.005837181117385626, -0.19152547419071198, -0.290961891412735, -0.4510539472103119], [0.2842077314853668, 0.20818473398685455, 0.009910834021866322, -0.1863880455493927, -0.31721189618110657], [-0.025240259245038033, -0.17424379289150238, -0.2213120311498642, -0.10729752480983734, -0.17876243591308594], [-0.1847762018442154, 0.11986138671636581, -0.33347368240356445, -0.37603679299354553, -0.33142152428627014], [-0.2737995684146881, -0.38882169127464294, -0.15069374442100525, -0.10877416282892227, -0.3956625759601593]], [[-0.4897754192352295, -0.47709664702415466, -0.3896942436695099, -0.4842817485332489, -0.5105622410774231], [-0.2361593395471573, -0.018153980374336243, -0.5207375884056091, -0.34017214179039, -0.29050812125205994], [0.13239310681819916, -0.1466597616672516, -0.49549630284309387, -0.27497532963752747, 0.05112161114811897], [-0.3815072476863861, -0.5848740935325623, -0.3735096752643585, -0.5435997247695923, -0.2991860508918762], [-0.3362588882446289, -0.3150370717048645, 0.19758941233158112, 0.2988700866699219, 0.33960700035095215]], [[-0.4784072935581207, -0.2965880036354065, -0.25048503279685974, -0.6213172078132629, -0.7721714973449707], [-0.44552454352378845, -0.3132976293563843, -0.39064744114875793, -0.8680264949798584, -0.6392883658409119], [-0.38836997747421265, -0.6263413429260254, -0.7199885845184326, -0.8384899497032166, -1.1529783010482788], [-0.6524278521537781, -0.6196799874305725, -0.7038570046424866, -0.9317690134048462, -1.0415021181106567], [-0.5441693663597107, -0.5802367329597473, -0.5230672359466553, -0.7736169695854187, -0.7760059833526611]], [[0.16931690275669098, -0.07687030732631683, -0.14411014318466187, -0.07964934408664703, -0.23921267688274384], [-0.20197933912277222, -0.02605539932847023, -0.09849586337804794, 0.07855743914842606, 0.21297788619995117], [-0.15202952921390533, -0.20025001466274261, -0.007586746942251921, 0.14087620377540588, 0.2080753594636917], [0.1729428917169571, 0.07199545204639435, 0.11736760288476944, 0.11237165331840515, 0.036506883800029755], [0.18825431168079376, 0.024828478693962097, -0.01623772829771042, 0.0275168064981699, -0.1395263522863388]], [[-0.7582399249076843, -0.6762466430664062, -0.7712437510490417, -0.6509647965431213, -0.4837365448474884], [-0.792697548866272, -0.7527231574058533, -0.7576236724853516, -0.8730444312095642, -0.5935198068618774], [-0.8363013863563538, -0.7214652299880981, -0.9945521354675293, -1.2378445863723755, -0.9195665717124939], [-0.9437511563301086, -0.9359549880027771, -1.0160200595855713, -1.1950016021728516, -1.2847458124160767], [-0.9727808237075806, -1.0092498064041138, -1.06373131275177, -1.1167058944702148, -1.1214994192123413]]], [[[-1.7586358785629272, -2.752009153366089, -1.087254524230957, -1.9103422164916992, 0.20181944966316223], [-1.9474890232086182, -0.5837770700454712, 0.2182510793209076, -2.7352304458618164, -2.7291994094848633], [-1.5289407968521118, -0.42828238010406494, -0.11503521353006363, 0.24386991560459137, -1.3203098773956299], [-2.378891706466675, -0.20263180136680603, -0.20539996027946472, -0.9205079078674316, -3.68057918548584], [1.2073400020599365, -0.8396720290184021, 1.1810860633850098, 1.778300404548645, 2.0454165935516357]], [[-0.6492618918418884, -0.553587019443512, -0.5126616358757019, -0.47342345118522644, -0.6199446320533752], [-0.2789384424686432, -0.22484970092773438, -0.310405969619751, -0.30021119117736816, -0.8079541921615601], [-0.2516571879386902, -0.27849626541137695, -0.3159542679786682, -0.362717866897583, -0.5888898372650146], [-0.3968922197818756, -0.34781670570373535, -0.7129110097885132, -0.7113228440284729, -0.8698827028274536], [-0.7291838526725769, -0.753527820110321, -0.7008316516876221, -0.9271706938743591, -0.8039627075195312]], [[-0.5406410694122314, -0.4619697034358978, -0.3020477890968323, 0.03889009356498718, -0.32291874289512634], [0.11745201796293259, -0.23824073374271393, -0.14329774677753448, -0.6137433648109436, -0.14518119394779205], [-0.3860737085342407, -0.0781625285744667, -0.2343725711107254, -0.6760303378105164, -0.25979083776474], [-0.4568779468536377, -0.05240251123905182, -0.2638687491416931, -0.44431859254837036, -0.43887192010879517], [-0.4861976206302643, -0.23197609186172485, -0.4100434482097626, -0.1782996654510498, -0.006257661152631044]], [[-0.18870727717876434, -0.15272870659828186, -0.4527071714401245, -0.4556939899921417, -0.4831458628177643], [-0.26033517718315125, -0.1785220503807068, -0.343345582485199, -0.5205414891242981, -0.752101719379425], [-0.19771170616149902, -0.5830785036087036, -0.6738813519477844, -0.7275294661521912, -0.9324457049369812], [-0.4381066858768463, -0.7314481139183044, -0.6108594536781311, -0.8682751059532166, -1.0179252624511719], [-0.618319034576416, -0.8025321960449219, -0.7944965362548828, -0.8917346596717834, -1.168681025505066]], [[2.765048027038574, 0.3394145667552948, -0.04962385818362236, -0.23853939771652222, 0.4512765109539032], [-0.2077275961637497, -0.4949512779712677, 0.007419653702527285, 0.21883490681648254, -0.3311503231525421], [-1.0002727508544922, -0.8940843939781189, 0.15492843091487885, -0.21503667533397675, -0.40052953362464905], [-0.31289926171302795, 0.09618884325027466, 0.5755040645599365, -0.36169126629829407, -0.5931031703948975], [1.5268782377243042, 1.5482155084609985, 1.1227641105651855, 2.1459150314331055, 1.9282703399658203]], [[0.5269361734390259, 0.42105406522750854, 0.31973910331726074, 0.13322854042053223, 0.3165747821331024], [0.4998243749141693, 0.3634319007396698, 0.44268983602523804, -0.09767165780067444, 0.0025644146371632814], [0.2273830771446228, 0.09069771319627762, 0.22529491782188416, 0.3491901457309723, 0.16378571093082428], 